-3.96 -1.14 8.2 9.37 7.9 1.28 -7.41 3.77 1.02 -3.98 -8.71 1.78 -4.73 -2.24 1.2 -4.66 -0.38 9.99 1.41 -2.73 6.07 -4.66 3.71 5.01 -9.61 1.14 9.72 6.02 5.62 7.22 -6.11 -3.21 2.9 -8.03 -7.18 -1.97 7 4.3 4.33 8.45 -5.9 -7.41 -2.26 -5.17 -8.55 -3.68 4.57 -4.42 -2.75 -2.73 9.89 4.35 -4.51 -7.82 -0.34 9.25 5.95 6.22 6.55 -0.14 4.28 -1.72 9.44 2.56 -8.08 8.7 -5.97 -9.57 -3.69 -5.13 0.77 -5.96 2.74 -5.86 -2.63 -8.29 9.85 1.52 -4.66 -8.87 5.19 -6.5 9.46 -4.24 -7.07 5.61 -2.66 -9.66 -9.95 -5.89 -6 6.56 -2.01 -0.55 -2.33 -9.94 -0.16 -6.4 7.45 9.74 -3.54 -6.96 -9.77 -3.88 2.07 6.39 4.89 9.73 9.24 4.05 1.9 5.61 6.16 2.43 -4.14 7.72 -9.72 -0.02 -5.12 -8.14 -1.15 -9.57 -7.02 -3.44 8.4 -2.27 -6.2 -3.38 2.06 0.98 -3.19 -9.89 2.28 1.29 -0.78 9.58 -2.67 -2.98 9.89 -4.79 5.33 7.35 5.45 8.19 5.26 -6.44 3.58 -8.58 1.04 9.94 6.25 -6.78 1.53 -3.53 2.92 -3.65 0.76 -1.06 6.89 2.49 -0.94 -2.13 9.83 4.03 8.72 4.54 -9.85 7.97 7.17 -7.71 -5.86 8.85 8.94 -5.07 -4.4 -4.38 -1.11 6.51 3.63 2.05 6.96 4.86 -0.28 9.56 -8.08 8.94 -9.73 8.24 2.57 4.68 9.42 -0.65 -0.15 7.59 -8.93 6.47 8.41 0.52 2.58 -0.36 4.66 7.07 -2.21 8.98 -7.03 -8.62 3.49 1.97 -5.45 3.98 -3.93 2.51 6.37 -7.79 3.07 9.7 8.01 -7.76 2.96 -7.76 6.13 -0.37 -4.61 -2.47 -2.37 -2.93 1.06 9.95 -8.05 -5.78 2.12 6.92 1.95 9.65 -4.02 -5.55 8.48 -2.49 -3.51 -7.79 -9.08 8.03 -4.72 0.32 8.55 -0.22 -6.04 -7.68 -0.04 3.99 -4.6 8.46 -1.44 -1.64 7.51 7.74 -4.89 -1.87 3 8.52 -7.1 -4.03 -4.53 -7.67 3.05 -1.97 -2.78 -3.95 -6.34 -6.72 5.73 5.69 2.27 8.96 6.84 7.66 -8.93 7.02 0.01 -0.12 -8.04 -7.07 -3.05 -6.57 -8.68 -3.86 1.44 -0.38 -3.4 7.94 7.22 2.43 -6.15 -6.8 -3.52 -4.77 -4.25 -3.68 3.48 -9.12 -1.29 -3.06 2.3 -9.93 2.03 -7.53 1.5 -4.88 -2.96 1.36 -3.71 5.48 -8.47 5.05 -8.7 0.46 -7.88 -7.73 5.84 -2.18 -7.73 -9.1 2.57 -7.23 4.57 -1.21 -6.62 2.2 -3.08 4.36 -3.84 5.94 -0.02 8.64 -6.41 -3.53 -8.6 1.9 -7.87 0.85 -5.98 -0.84 3.77 8.77 5.66 6.31 9.86 -8.93 -1.38 7.69 |
-8.16 3.55 9.39 9.11 4.71 2.76 6.95 3.65 6.48 -4.44 -8.93 9.6 -7.01 6.18 -2.67 7.12 -8.29 -7.25 9.38 -5.02 0.59 -8.96 3.64 8.15 -4.03 -1.28 -8.49 3.45 -1.94 -8.2 1.83 -0.27 5.71 -8.64 3.29 -3.45 2.95 3.79 1.3 -3.54 -5.24 8.64 2.51 7.15 -9.75 -7.02 5.52 5.61 2.79 -3.06 4.8 -3.59 3.01 -3.18 -4.15 2.11 7.83 8.03 -4.18 -1.84 9.81 -6.84 -7.66 0.01 -9.21 -7.58 -2.91 -4.16 5.93 -5.65 -8.4 -3.91 -0.05 2.43 0.17 -5.82 -1.98 -3.18 2.3 3.86 0.88 -6.52 -2.38 9.89 -8.02 -1.33 -2.62 -4.3 -9.44 0.86 9.46 -2.9 7.86 -3.05 -5.14 8.66 -1.31 -9.93 -3.03 6.06 4.96 -1.31 -6.69 8.93 6.06 1.32 8.78 3.12 -5.17 7.17 -5.27 2.13 7.46 4.96 -1.31 2.71 -4.71 5.39 -4.85 -7.87 3.73 -2.99 8.86 9.86 -0.61 2.9 -7.22 1.01 6.37 8.84 -4.6 4.9 -8.02 5.12 -0.87 8.74 -3.99 2.66 1.19 -0.73 -6.63 1.98 -9.45 8.43 7.13 2.45 -1.77 8 7.56 1.95 5.88 7.67 -6.3 -1.88 0.66 -9.95 -3.3 -1.82 -0.21 7.31 -4.69 -3.89 -8.08 5.56 3.8 2.74 1.58 9.03 7.82 6.24 -5.53 -2.71 7.83 3.19 -3.76 6.05 -6.7 0.74 -0.81 -0.67 -3.81 4.59 -8.78 9.05 3.53 9.29 2.97 -3.58 -8.68 6.39 -2.85 -3.02 4.84 4.95 -5.2 6.08 4.15 -2.65 2.19 -8.93 -0.86 7.49 -1.2 -1.78 -4.24 -8.72 6.45 -5.35 4.58 1.37 -2.92 -9.73 -3.14 3.4 0.15 8.33 1.27 -3.03 0.75 7.71 8.58 -5.78 -3.16 6.74 -2.91 -3.02 8.49 -0.4 -2.57 -5.05 9.6 8.65 6.15 7.82 -7.75 -4.09 -2.27 -2.19 -1.11 5.2 -1.99 -4 5.66 -6.4 7.81 -7.07 -9.87 8.09 -2.15 7.81 7.59 -5.45 9.92 -2.77 -8.53 0.49 -8.67 0.97 -4.03 9.84 3.55 -1.37 5.75 9.38 -6.65 -8.92 -5.39 -6.75 5.59 -2.78 8.19 3.17 9.12 2.94 -9.88 4.03 -5.7 9.6 5.27 6.6 -4.36 -2.49 -6.38 -2.42 1.4 0.96 -7.11 6.76 4.47 -8.84 -8.7 -5.52 2.22 -8.34 7.01 4.84 -3.13 -7.28 -6.53 -6.22 8.62 -9.47 -7.18 1.24 2.17 0.07 -9.08 2.33 5.83 0.51 -2.41 -5.43 6.5 -5.2 8.53 -0.93 6.4 4.08 -7.63 -1.5 4.2 -8.12 9.77 1.8 -1.41 7.65 0.35 -2.13 -9.24 0.04 3.1 1.96 -6.24 -5.25 -1 -8.93 1 8.81 -0.95 -7.68 4.55 -1.2 4.39 -4.04 -3.04 9.42 -5.3 -9.59 3.06 9.35 -5.51 9 -8.05 3.42 0.67 -3.34 6.76 8.06 -7.76 1.1 9.06 -7.9 -6.72 3.5 5.95 8.78 0.17 0.53 7.84 9.11 -5.63 5.98 -8.98 -6.98 -5.99 5.2 9.92 -3.65 -8.87 -8.07 -9.11 2.28 -4.37 -0.34 0.97 1 -1.33 0.26 -1.2 0.21 0.89 -9.53 -9.03 -0.07 7.95 8.57 -2.22 1.36 -8.06 1.75 9.49 8.34 9.28 1.13 8.45 2.2 3.37 2.29 -7.56 9.67 7.99 -3.5 -0.75 2.02 -9.79 8.59 -8.87 3.34 5.55 7.38 1 8.8 -1.42 -3.92 9.61 -3.98 6.7 -0.12 -5.44 1.8 -8.17 -2.37 -6.1 -8.54 -6.06 4.39 -6.98 3.6 -0.55 2.38 -0.13 5.32 4.7 1.42 9.21 2.08 1.88 4.88 0.31 1.93 -8.14 7.89 -3.2 0.13 -0.08 1.86 4.44 7.82 -2.81 -5.94 -0.83 9.76 -7.17 0.06 -0.21 -7.34 1.79 7.83 2.81 -1.88 -3.29 -3.76 -6.97 -6.39 5.51 3.1 2 8.44 6.15 -2.25 1.57 8.88 -7.31 -9.5 -7.37 -7.94 -5.21 3.83 1.66 -8.73 -7.41 -4.81 -9.21 -8.68 -4.34 -6.38 2.29 1.09 5.91 -3.9 |
-9.93 3.43 8.72 -7.44 -9.65 -7.02 5.2 -3.7 -2.5 -2.14 -2.94 -9.4 -3.85 -4.09 -8.54 -6.02 8.97 -8.49 -5.6 -3.83 0.37 -9.3 -8.08 -3.29 -1.95 3.28 -2.48 -9.53 -6.74 2.52 7.9 -4.3 0.94 -1.71 -9.32 0.97 2.72 6.77 9.03 8.64 -6.92 -6.72 -0.57 -4.52 0.9 -8.11 -6.73 4.08 3.27 2.38 6.09 1.82 -2.18 -6.62 -1.81 4.37 -7.51 0.42 -8.13 -0.62 0.26 8.42 -2.74 -1.14 -5.23 -6.22 1.16 -9.34 5.01 9.57 -9.3 -5.11 -1.77 2.02 0.07 8.54 2.87 8.53 8.51 3.68 0.79 7.09 8.59 3.88 -7.74 9.48 8.43 -7.93 -6.49 6.9 9.8 2.05 -8.25 9.46 7.94 8.19 5.04 7.41 5.41 2.35 -0.99 -5.27 5.56 9.59 -8.42 9 3.22 3.94 -8.88 -1.29 5.93 -9.59 -3.09 -5.03 -0.43 8.21 6.66 -2.2 0.91 -3.42 |
