2.74 -0.21 5.42 6.29 3.58 8.84 6.6 -8.05 -0.13 -2.77 0.93 -4.7 -6.02 -2.99 -0.41 7.93 -5.26 -4.39 2.91 9.96 7.05 -0.81 -8.12 2.48 -8.44 5.66 8.29 -7.65 7.19 -3.25 -4.03 -3.73 5.76 -9.53 2.36 -8.09 5.08 8.62 6.09 -7.73 9.5 -8.45 -0.56 -9.92 -6.4 5.13 3.49 -5.79 9.29 -8.56 -3.6 -7.62 -6.54 8.49 9.67 -3.54 4.03 4.95 -6.08 1.67 -6.25 7.97 -4.14 -2.4 -2.28 -0.62 5.86 -6.1 -6.6 4.45 -5.57 -9.47 -3.68 1.46 3.56 4.66 -4.28 -6.62 2.81 5.09 -8.37 -6.67 8.42 -4.48 -7 -2.01 -9.59 -1.84 2.74 -7.02 -3.96 1.18 5.21 -8.37 7.83 8.96 5.23 7.97 -3.49 -1.06 -0.59 0.1 1.39 -5.81 9.8 -6.94 -6.04 7.94 5.48 1.67 -3.95 -4.14 -7.8 -9.06 -4.37 2.56 -7.24 -5.78 -0.24 -1.25 4.14 7.89 7.38 4.46 -4.96 4.32 -0.87 -7.88 1.65 0.5 0.69 -2.23 -2.11 -8.87 -0.96 5.77 -8.87 7.48 9.88 0.43 -4.77 6.19 8.4 -6.02 -1.16 -1.85 3.79 -9.25 6.59 -6.49 -0.17 3.11 -3.69 6.01 8.24 -8.37 -7.8 0.25 5.15 -5.97 -8.08 -3.52 8.06 -4.95 -3.56 -0.15 -2.54 8.21 2.1 7.48 8.77 -8 -2.38 -3.75 8.92 -8.97 1.57 -8.63 6.21 -6.6 2.11 8.87 -3.03 -2.38 -1.43 -5.79 -0.29 -7.16 4.69 9.18 -1.7 -7.09 -4.63 -7.6 1.66 -6.78 -1.44 2.15 -4.94 -2.19 6.57 2.42 -5.47 3.18 1.39 0.95 -3.87 8.69 -2.57 4.02 1.91 9.35 5.56 5.96 5.72 9.01 -8.9 5.65 3.38 -6.78 -8.71 5.31 3.15 -5.71 -9.1 -3.66 7.47 4.43 4.85 -2.03 4.89 2.88 3.93 -7.82 1.48 2.76 -6.69 1 1.89 -0.44 -6.89 4.06 -0.54 1.47 7.89 2.98 -0.25 -8.92 -8.51 -4.68 -4.25 4.13 7.29 7.09 2.91 -6.32 8.49 -7.66 -8.31 8.63 -2.36 5.12 -3.21 7.87 0.91 7.85 -0.11 -5.91 8.07 -7.27 -0.75 -9.99 4.16 -1.94 7.46 -2.84 8.02 6.06 1.37 7.22 -2.15 5.12 2.73 6.22 -9.68 9.76 -3.91 6.05 1.26 3.63 -7.14 9.21 2.92 -0.85 -9.69 -6.91 9.9 -8.61 4 0.73 4.96 3.69 -0.3 -5.73 7.46 0.62 -8.61 -8.94 6.76 3.15 7.59 -7.57 1.07 -1.94 5.76 -1.58 -7.8 7.63 7.56 -2.18 7.95 -1.51 0.08 -2.66 -2.23 5.55 0.3 -0.12 0.59 -3.16 -4.24 6.95 9.29 8.22 9.62 -4.59 -5.96 -5.33 -9.55 1.9 7.56 -1.55 8.49 -6.56 5.67 4.36 -0.87 -4.42 -8.62 -5.25 |
2.78 0.01 0.8 -2.84 -5.04 8 4.39 1.48 -5.36 2.05 -3.42 6.72 -9.4 -5.15 5.58 -0.87 -6.06 -2.37 2.38 -8.6 9.29 6.61 6.25 2.81 5.03 -2.06 7.69 -7.08 -7.62 -0.24 -8.85 8.82 -4.76 8.54 -9.74 -0.96 6.35 4.44 -7.36 0.48 -8.53 6.41 2.28 9.05 2.61 -9.06 2.19 -4.33 -1.6 -2.27 6.67 -3.8 -6.8 1.61 -6.41 3.95 -5.24 2.26 -3.11 5.92 -8.35 9.95 -1.16 4.15 0.58 0.16 -5.56 -8.45 2.24 4.63 6.93 8.26 9.22 -5.35 -5.28 3.08 3.41 -5.36 -0.79 -8.93 -6.83 -4.58 6.03 -3.55 -1.89 -8.8 -0.02 1.08 -2.04 0.09 -5.41 4.8 -7.81 -2 3.54 -6.8 7.19 -2.38 4.33 9.52 -2.47 -2.45 6.46 -2.67 -5.44 1.24 0.17 6.74 -6.5 -7.61 -6.03 3.68 -5.7 6.79 1.32 -3.15 7.76 -9.16 -9.4 -2.63 2.97 6.81 -2.79 2.71 -2.9 -0.62 -8.2 1.89 -9.91 3.47 -7.09 6.67 -8.87 -3.18 7.1 -0.51 -8.88 9.23 5.13 -8.75 -6.56 -0.86 0.48 -9.42 7.12 -2.22 -2.42 -0.53 -9.11 -5.84 -8.6 -4.71 -2.47 -9.15 6.61 0.85 -3.59 -0.36 0.22 5.06 0.12 0.93 -8.39 -7.76 8.95 4.83 -6.81 -6.29 9.67 -6.46 9.26 -1.72 9.94 6.43 -4.04 -2.33 -0.72 -3.65 6.1 6.24 -7.04 2.15 -8.34 -4.98 -6.65 1.97 5.06 8.89 -2.14 -7.73 -3.71 7.4 9.55 1.59 -8.02 5.15 -0.81 4.04 4.62 -0.56 8.5 -8.78 3.37 -5.36 -8.8 -0.75 -6.37 -7.49 7.5 -5.37 5.79 -2.48 -8.23 -2.05 -1.23 2.71 1.38 0.02 -9.75 -6.21 -4.37 -0.85 -0.91 0.23 -4.97 8.04 4.9 5.29 5.23 6.71 -5.96 -3.24 -1.15 1.46 -9.56 5.43 0.38 3.7 6.24 0.63 -9.41 -4.96 8.64 -5.93 6.63 7.13 -1.69 -0.68 -3.45 -6.06 -9.76 3.9 8.81 7.9 -4.61 1.73 2.37 -8.1 -5.81 -4.23 8.86 -0.08 -3.74 -3.14 -5.96 0.75 -1.13 7.7 1.31 1.63 -5.61 -7.94 -6.54 6.3 -6.46 1.73 0.34 1.19 -5.17 3.3 -4.34 3 1.09 -0.54 7.84 4.12 -9.5 -8.02 -2.58 -0.31 -3.45 2.67 -7.62 -5.39 -3.77 8.52 -8.43 -7.67 -9.48 -5.1 -3.21 7.12 -5.52 3.24 8.27 -2.76 -7.2 -0.65 -9.95 1.27 1.22 0.39 4.48 4.5 9.21 -3.81 -2.47 -8.35 -9.38 -4.49 -0.82 -3.46 7.17 -3.59 -5.16 -2.73 7.57 0.22 8.03 6.29 -1.08 -9.01 1.13 3.56 -7.92 5.27 8.51 6.58 0.24 1.65 -3.42 8.85 -8.65 -8.1 -9.5 -9.99 5.49 5.97 9.76 8.96 -9.06 1.34 -5.7 -5.78 5.98 -4.2 -4.01 0.92 1.16 -7.01 -1.27 -3.79 9.1 -1.6 -5.31 2.36 -0.97 2.58 3.99 9.19 0.69 1.56 -8.12 -8.34 -5.43 7.83 -7.76 2.95 0.43 9.04 -8.72 -3.35 9.06 5.03 -2.45 -7.3 -8.12 -7.27 -1.14 -0.29 -3.77 -4.08 -7.41 1.04 -9.05 5.02 6.97 9.69 7.33 -7.33 7.76 -7.46 -4.46 -9.28 7.68 4.29 2.28 -0.74 6.66 3.27 -6.09 -6.75 -7.95 -8.56 6.75 -7.2 -6.38 -1.95 -2.56 -0.34 5.39 -0.66 5.25 1.32 -8.58 -1.85 -3.99 -8.84 -6.02 0.27 -4.45 2.97 6.28 7.16 5.12 8.02 -5.4 7.61 8.27 -5.26 9.08 3.82 5.28 9.2 4.31 6.89 0.67 1.26 -0.39 2.8 -1 5.8 5.7 -2.95 7.12 -5.21 -3.74 -1.62 -4.41 9.65 -0.31 4.66 0.98 1.91 4.18 0.08 -2.03 -7.15 -2.88 9.86 2.13 2.35 8.43 4.63 -9.35 9.58 3.63 -1.8 4.2 6.63 -8.12 7.63 5.56 -5.68 -9.42 0.88 -8.02 -5.64 -7.03 -4.97 0.05 -8.25 0.49 8.41 2.61 -3.27 5.39 -9.36 8.54 4.73 |
-6.75 -7.54 7.06 2.98 0.91 1.37 -9.76 1.38 -3.54 -3.77 -7.2 -8.1 -4.6 -9.44 -0.4 -2.07 -5.83 2.57 9.3 -2.55 4.69 -2.68 -5.7 2.39 6.61 -0.33 5.28 -4.55 -6.28 -0.72 9.34 -7.75 -8.26 -2.04 3.83 9.98 2.22 4.99 4.71 2.65 -3.29 -0.59 -4.95 5.51 0.33 -7.27 7.44 8.09 -8.21 -7.07 1.44 -0.07 6.92 -0.74 5.39 -9 -9.28 -0.91 9.14 0.92 9.14 -4.76 6.66 3.81 9.52 3.39 6.84 -0.12 0.22 -3.13 0.49 -3.93 0.77 6.37 6.01 -5.25 0.39 5.04 7 5.61 -1.06 -3.82 -3.7 2.79 0.13 4.09 -4.42 -2.07 -1.56 -9.56 -6.86 -7.67 -5.23 -2.16 -7.85 -9.37 8.63 -1.32 9.5 -4.42 2.33 -7.6 -8.91 -3.82 3.98 -4.75 -6.37 -5.87 9.12 -8.71 5.41 2.79 -9.36 8.7 -2.22 6.8 -9.53 -1.18 1.65 8.88 |
