-4.23 -4.93 -3.85 7.07 4.32 5.81 3.13 -1.24 -1.49 -7.96 -1.24 -5.41 -0.21 5.95 5.38 -6.13 6.02 -8.39 -1.31 9.42 8.78 4.44 4.15 6.08 -4.22 -4.47 -4.35 -8.79 4.39 8.66 -5.97 -9.35 0.73 4.42 3.62 8.42 0.72 6.03 -4.99 -8.25 -8.53 5.37 0.94 -2.91 3.51 -9.79 8.28 4.98 3.18 4.29 -6.83 -4.68 -2.3 -3.61 -3.72 -4.88 4.33 1.73 -6.55 5.9 -4.91 7.1 -6.26 -3.25 -9.44 3.39 3.65 -7.31 -7.56 5.16 -4.41 -8.96 -1.57 4.39 6.24 3.45 -3.27 -2.25 -0.2 -9.34 1.2 3.92 7.76 8.49 3.56 -3.07 6.91 -6.03 3.85 -9.78 -5.24 -1.98 3.59 -0.16 6.16 -9.58 -3.06 6.54 0.85 -9.95 3.48 0.52 -4.83 2.51 -6.91 -0.75 -2.44 -0.79 2.83 9.35 -1.79 0.35 7.87 -6.78 1.13 7.07 -6.5 3.89 0.59 -9.87 -3.56 7.1 1.84 -7.62 -8.32 5.06 5.87 5.91 1.3 -3.02 -4.11 7.51 4.92 0.45 2.45 -9.16 6.04 4.53 -2.65 6.49 -6.58 -6.99 3.38 3.71 3.77 -2.34 6.18 1.2 -1.84 -8.91 -5.45 1.02 -4.77 -6.14 4.16 5.96 5.6 4.71 -9.94 -7.75 3.2 3.02 -8.15 6.34 5.92 -4.81 6.97 -5.85 -0.56 -6.53 -9.11 2.3 -4.28 -0.5 5.58 5.41 1.86 -2.03 -1.78 -4.29 9.46 -8.85 5.84 -0.95 3.78 2.86 5.66 8.58 4.52 -2.75 -6.14 1.89 -4.91 -6.12 5.59 1.11 7.28 -6.13 8.13 8.36 5.79 -1.8 -7.02 -7.55 -8.38 -6.6 5.18 6.18 0.08 -8.7 -9.7 7.02 -9.81 2.8 8.38 -8.69 -2.07 7.96 -9.26 -5.19 -2.1 3.1 -3.99 1.08 -2.33 2.68 -0.68 -6.73 -2.13 2.17 -9.77 5.68 7.89 -3.08 -4.59 -7.57 -9.05 -6.96 0.66 2.46 -5.08 7.69 7.83 -0.29 9.35 0.76 -4.13 4.01 6.2 -7.09 -8.21 4.01 6 -4.04 8.12 -9.9 0.31 6.06 7.03 9.18 -7.56 2.14 -4.49 7.61 6.37 -7.39 9.18 0.47 3.45 -2.38 5.44 3.92 -8.24 7.83 -6.99 3.89 7.09 -9.95 2.95 -2.43 -7.63 3.25 -3.77 -1.32 -0.28 -1.91 0.17 -9.73 0.54 -7.21 -6.75 0.48 -0.42 -6.96 7.01 1 5.93 -10 -3.3 -4.55 3.66 -4.19 -8.95 -1.37 -9.47 -1.47 -2.23 -2.69 6.24 0.02 -0.07 0.03 -4.49 4.24 5.93 1.96 -7.45 -7.54 -9.4 -4.64 -3.32 9.17 -6.23 -2 3.95 -0.37 2.86 3.12 7.29 4.47 -3.88 -0.22 -6.19 -7.07 7.63 2.34 -2.26 1.99 2.75 7.75 -4.47 -2.3 9.67 -4.82 6.11 -5.93 -3.3 -8.42 -0.91 -2.62 |
8.14 -7.2 -7.29 2.22 9.32 -6.12 -8 8.12 1 -1.81 -9.22 5.77 4.56 8.48 -5.52 -7.77 0.36 -9.68 8.12 1.85 -4.75 -9.03 3.37 3.21 -2.78 -6.13 6.46 1.55 -1.33 0.07 -2.38 4.74 -7.89 -0.9 3.69 0.35 5.21 -4.68 8.44 5.4 -8.03 -2.59 3.87 -9.11 2.49 -5.44 4.33 -3.55 7.96 2.23 -2.39 5.15 2.91 9.02 9.75 -6.61 -9.32 3.61 8.53 -1.03 -1.34 6.67 9.67 5.6 -3.79 3.37 -8.1 3.67 -4.02 9.91 -2.11 -6.09 -7.64 -4.12 -5.76 0.1 -1.95 4.34 3.46 -6.18 -6.82 -7.15 3.02 9.69 -8.59 0.95 5.07 -3.49 -7.12 -9.69 -1.56 -8.46 9.34 8.52 -2.5 8.06 -4.95 -2.02 6.64 -7.62 6.5 9.98 2.99 4.13 -0.95 -5.25 -7.88 3.22 7.6 -1.2 -1.69 4.17 0.72 8.21 -9.47 -2.89 7.32 -8.86 -1.91 -1.85 -1.69 3.91 7.02 -6.41 -6.6 -2.09 0.92 -1.77 6.83 9.48 -2.03 4.83 6.73 -5.34 5.51 -0.99 2.12 4.81 9.16 4.29 3.62 3.92 8.41 4.73 2 4.53 -5.48 5.74 5.11 9.59 -2.86 6.81 1.15 7.15 4.41 -8.33 -6.76 -1.68 8.62 -9.96 2.63 -2.69 4.06 -6.69 5.17 4.39 5.75 5.99 -3.79 -4.01 -7.41 -8.42 -3.98 -1.5 -8.99 1.5 -7.24 9.86 -0.82 -8.27 -5.34 -7.41 -0.39 6.79 -3.15 -9.34 -9.23 3.42 -0.52 -8.89 3.25 6.13 -1.4 3.16 1.7 2.04 -2.11 -0.09 3.72 -9.51 1.77 -5.35 -3.44 3.38 4.93 -5.45 -2.8 4.36 0.3 3.74 -9.11 -0.19 8.84 7.5 -3.21 6.49 8.71 -9.11 1.61 -6.88 -3.51 -4.16 -7.73 -4.29 4.22 7.94 5.02 2.64 3.57 6.45 -5.71 -1.61 -0.44 5.44 -9.17 4.84 -6.25 2.1 0 0.36 -8.05 9.88 -8.19 -3.65 4.62 -2.6 3.86 -7.11 8.94 3.75 7.02 5.25 6.33 7.26 6.2 -6.63 5.08 1.11 2.54 -9.92 -9.2 5.09 -5.64 9.94 1.79 -8.99 -2 2.48 -7.12 9.38 -7.37 5.82 -8.05 7.85 -3.9 1.24 -0.49 -5 -0.5 0.84 -7.15 -6.1 -9.9 3.48 5.65 -0.8 -5.97 -0.38 -6.35 9.82 -3.16 1.26 -0.78 0.61 -2.28 -3.87 7.93 -6.04 -9.75 -6.62 7.89 -1.15 3.38 -1.91 0.9 3.12 5.15 -7.15 -8.4 -3 9.34 -4.54 -2.54 2.71 3.24 -0.47 -4.14 3.75 2.21 -4.35 -6.92 -5.97 2.22 9.49 -8.51 3.78 -7.56 3.85 -3.06 2.98 6.08 -3.35 -6.6 -7.5 1.49 7.39 6.43 -2.62 -9.77 -3.88 -6.67 0.28 7.4 7.99 6.73 -7.2 9.04 -0.27 -0.88 3.93 -6.31 -5.93 7.01 -2.74 -2.71 1.23 -4.56 0.87 6.6 3.5 6.68 -2.23 -7.39 5.48 -6.33 -0.94 -1.95 -0.53 5.98 0.44 0.49 6.13 -5.38 8.27 -8.04 9 -2.98 -5.05 2.2 0.26 -1.67 1.56 7.25 3.44 6.3 -1.69 -5.96 -2.09 8.83 -7.57 -0.67 -3.05 1.4 -0.21 5.63 -2.81 -4.35 9.12 6.02 7.73 5.77 4.08 7.52 8.85 -4.4 2.12 -3.18 -6.43 0.96 8.97 -2.82 7.52 2.03 4.16 -5.84 -0.28 6.36 2.81 9.85 6.47 -6.59 -1.08 3.45 8.24 4.66 6.4 8.6 -4.23 2.67 -0.16 2.18 -6.56 3.99 3.22 -6.93 0.8 9.53 -6.92 -0.73 -3.43 1.95 1.23 -1.94 -7.64 9.01 -9.59 3.5 3.15 5.12 9.22 -1.42 9.88 -3.55 -3.83 -4.45 2.32 -9.91 -5.7 5.78 4.79 2.59 -6.26 4.3 -5.61 -2.98 5.95 -0.54 -0.33 5.14 -6.25 6.21 -6.79 7.69 -9.37 -2.12 -6.47 -7.53 -2.73 2.69 -7.66 6.31 4.3 -0.02 7.88 7.25 -1.57 -0.86 -0.41 -3.8 -2.88 -8.66 -0.15 -2.07 -4.49 0.35 -1.27 3.53 -2.57 4.47 5.48 |
7.94 -3.77 -9.55 2.78 -7.1 4.28 -0.11 -1.43 -1.08 7.11 -6.82 0.49 8.1 -1.34 3.45 -7.27 5.8 -1.22 4.03 8.29 -7.59 -7.97 5.2 9.66 -4.19 -0.02 -7.24 -5.1 7.73 3.6 3.63 3.89 8.34 5.58 9.15 -4.18 6.2 -8.68 -5.58 4.51 2.63 -9.65 5.55 -2.1 -5.3 9.3 4.65 -1.73 9.7 -9.63 -4.03 -1.37 -0.31 -9.14 -8.15 -5.96 -2.11 -5.14 3.62 7.07 8.07 -1.44 -5.86 4.41 -5.53 -7.18 4.93 0.19 -6.05 4.14 -1.92 -2.47 -0.92 3.66 2.31 3.78 2.33 4.33 7.81 -8.23 -7.91 7.89 1.28 -9.35 5.52 -4.94 -0.25 -6.08 1.1 6.33 0.88 -3.99 7.37 0.27 -3.58 -4.91 1.27 -8.11 5.59 0.92 -3.04 -9.68 0.45 7.92 8.27 -1.92 7.34 -0.96 -4.66 6.78 4.28 -6.04 3.75 7.28 -3.82 2.06 1.19 3.86 -2.01 9.38 |
