3.15 8.62 2.22 2.22 5.66 -8.37 2 7.97 8.72 -7.86 -6.58 9.25 9.51 -0.92 -0.88 -6.6 3.88 5.73 -9.74 -3.77 -7.18 1.34 -7.77 4.92 -7.03 9.01 2.13 1.92 6.19 -2.42 2.9 -7.64 -2.07 -1.52 -6.32 -9.09 -7.86 5.27 -4.54 6.76 2.5 -8.02 2.14 6.04 9.01 3.67 8.26 -3.1 4.95 -0.64 -7.21 6.56 -2.43 -5.55 5.67 0.78 0.68 -6.26 -1.46 4.74 9.48 6.73 2.51 -8.04 -0.37 -8.56 -2.9 -6.54 0.07 5.45 -4.87 -3.02 -9.23 0.9 -6.57 -3.74 -6.24 7.78 9.24 2.18 -1.68 -1.61 -6.62 -8.56 -1.9 6.17 -0.15 -4.03 8.84 -7.76 3.8 8.68 -4.81 0.01 1.62 -4.48 -8.79 -8.76 2.6 2.74 -0.1 -9.53 -2.34 -7.23 -8.97 4.39 3.17 -3.88 6.34 9.49 -9.07 -5.29 -5.11 -3.71 -9.06 -9.21 1.53 -7.51 0.33 -5.89 -9.78 -4.14 0.85 7.32 -4.45 -5.35 9.31 7.99 -0.14 -0.96 3.08 7.64 -8.57 9.74 1.24 -6.39 -6.5 7.08 -9.51 -2.7 -5.36 -2.65 5.63 4.73 -7.99 -2.06 -2.18 -2.13 -5.54 -3.04 -3.8 -6.79 1.38 -6.44 9.66 2.26 9.04 -2.09 1.52 7.41 0.89 6.08 -4.37 -0.97 4.85 3.57 -0.93 0.16 -5.73 3 2.97 -6.35 8.02 -6.64 7.9 7.01 4.47 -2.71 7.66 3.29 -4.39 1.4 -3.53 2.44 8.14 6.99 2 2.39 -5.11 7.67 4.54 3.33 2.81 -2.51 4.33 -9.02 -0.68 2.27 6.82 -5 3.46 -9.47 0.21 1.17 -8.65 4.79 6.74 8.93 -4.59 -7.34 -9.75 -3.36 -6.99 3.85 -7.13 7.55 -6.73 8.14 4.7 3.86 -5.76 6.8 3.33 9.27 9.54 2.44 3.44 -3.15 -7.99 -6.9 -9.74 5.54 -8.13 5 3.04 8.97 -1.62 2.62 -0.43 -9.42 3.72 3.86 7.69 1.02 3.43 7.74 -10 3.54 -2.05 -8.12 -2.47 -7.53 0.25 3.72 -5.27 7.91 8.65 5.2 8.13 -7.63 -3.59 -5.88 -0.65 -5.18 -1.07 -3.62 -1.05 1.99 -9.59 -4.87 7.55 -0.27 0.18 2.82 -3.67 -8.23 -3.45 9.6 4.53 -8.38 3.78 8.23 -1.28 9.64 6.69 6.14 -3.82 7.04 -3.94 -3.35 0.01 6.39 2.2 -5.56 -6.97 -6.01 -6.33 -5.14 -5.31 1.66 1.19 -9.61 9.01 -3.68 -1.91 -0.7 3.75 0.61 7.02 -1.41 1.73 -8.39 -0.86 1.47 2.35 0.01 1.92 -5.09 -8.21 -5.06 -7.3 -5.92 -2.7 -1.25 3.94 7.15 0.72 -6.14 -5.28 7.03 -1.99 5.93 -7.43 -4.06 -0.12 2.17 -0.91 7.24 -2.72 -3.33 -5.78 -8.74 5.25 -8.89 -6.05 -4.07 -0.92 -6.56 0.49 -4.13 |
3.26 9.81 -9.86 -2.34 -6.36 5.25 7.81 3.06 6.44 5.92 -9.8 6.5 -6.68 0.35 -5.64 0.46 -3.64 -1.97 -2.48 -3.58 -9.07 -1.53 4.42 5.91 1.68 -7.12 -6.06 9.64 -4.89 8.69 9.34 7.65 -2.58 -1.2 6.82 1.51 2.61 2.22 -8.43 9.42 -4.2 -8.95 -0.28 -9.14 -4.26 5.74 -3.16 9.33 -0.57 -8.94 -8.01 -0.56 8.32 1.8 -3.47 5.61 2.39 1.34 0.83 2.12 -7.37 -4.42 1.49 7.01 0.11 9.14 -3.23 -7.54 -5.39 -1.38 -6.38 -2.98 8.6 -3.55 -5.57 1.49 0.14 -7.39 -0.62 6.06 0.48 2.6 -1.2 2.99 6.05 3.75 -3.85 0.4 8.68 7.67 -5.27 0.14 -2.39 2.94 5.79 8.78 -7.55 -6.73 6.42 4.25 -4.41 -5.77 -0.05 3.36 0.58 -0.62 -9.37 -4.67 5.75 2.78 -0.55 -8.01 2.65 3.16 -2.62 2.49 7.97 8.54 -8.78 1.33 6.69 -6.5 -3.97 0.36 -6.98 9.39 7.07 -4.77 5.87 5.04 0.85 -5.19 -3.14 6.59 -3.4 -1.51 9.94 5.63 -4.4 -6.44 5.77 -2.4 -0.82 -2.65 -9.02 -8.77 -5.9 7.25 -0.08 6.4 -8.3 7.22 -2.6 -8.62 -6.61 -9.22 7.36 3.35 -3.25 -7.92 -0.56 -5.01 9.73 2.18 7 -8.15 2.81 -4.7 2.18 -3.85 -1.62 -9.28 -1.38 -5.19 -0.38 9.46 6.09 -5.35 -3.04 -7.77 -7.98 -6.29 8.47 3.78 -4.4 -4.15 -4.93 4.67 9.59 -5.25 5.67 4.64 -6.55 9.44 5.18 5.05 8.98 -5.64 7.72 -8.49 -4.87 9.44 0.28 -2.32 4.38 7.98 8.74 3.61 5.77 7.54 5.71 -7.32 3.75 -8 -3.6 4.79 -8.46 -9.72 7 -8.06 -7.14 -1.56 -2.42 0.66 -8.98 -1.07 0.43 -9.07 0.43 1.64 -9.29 -7.53 -1.12 -0.58 -3.48 9.33 -0.04 6.47 -2.63 0.8 -5.69 -5.22 7.67 7.65 -8.11 -2.78 -2.95 2.78 8.42 -3.75 -5.39 8.05 3.93 -3.93 -9.21 -7.35 0.56 -9.14 -8.84 5.04 -1.98 -7.73 -3.76 -5.03 3.23 0.92 -4.99 6.1 -9.9 9.17 -2.26 -1.24 -8.14 0.75 7.32 -5.19 4.51 -8.5 -0.13 8.36 8.36 -0.43 9.76 5.38 -6.39 8.44 6.23 -6.09 6.19 5.59 4.32 3.85 6.36 -1.81 -6.94 5.54 -7.08 -3.08 -9.68 7.07 2.71 -4.46 -7.09 -9.95 -2.12 5.04 8.28 8.54 -7.55 -7.65 -3.59 -3.35 -5.34 -4.44 -9.28 4.16 -4.1 8.04 -8.1 7.68 -2 8.09 5.78 -6.97 -3.54 -7.81 -4.16 -8.2 -7.14 -7.72 -3.48 5.97 9.05 -2.48 1.95 1.7 -5.1 4.2 4.66 -0.55 2.53 8.18 -8 8.51 -2.41 6.22 8.07 3.33 -8.28 -9.14 -0.31 -8.89 -5.95 8.04 0.54 6.74 -3.51 5.39 -1.9 6.17 0.13 -5.93 -6.12 3 -0.19 -1.78 -5.35 -3.85 7.97 -5.51 6.09 2.57 6.31 -8.96 -2.02 -3.11 4.03 7.74 2.48 -0.28 5.69 0.45 3.7 -3.32 2.14 -7.55 2.08 -3.96 7.7 -6.28 -2.95 8.75 6.23 0.16 3.35 9.96 -8.13 -9.04 0.53 -9.3 -7.82 -9.67 -9.15 2 -4.84 9.24 -2.6 7.36 -4.11 -1.91 -5.35 -9.55 7.68 -5.62 -0.88 1.37 -2.16 3.71 9.65 -0.15 -3.65 -6.31 5.61 7.27 -7.7 5.76 1.72 -5.69 5.87 -1.27 9.48 6.67 1.84 -5.62 -4.93 5.24 2.77 -0.69 7.56 -9.24 4.6 8.37 -3.62 -2.15 7.36 -6.64 -6.87 8.96 -2.14 7.58 -1.76 7.55 -4.92 -8.21 -8.79 -4.49 -1.52 6.46 -3.07 -0.08 -3.53 8.09 9.8 -4.88 3.49 -3.72 4.06 -0.17 -2.98 -4.24 -1.76 -1.12 -4.15 -7.94 -8.39 -1.2 8.6 3.82 6.05 6.79 -2.72 5.25 7.37 -4.06 -7.74 -8.62 6.87 -3.28 0.88 8.78 -8.83 -7.07 -7.71 1.8 2.52 -4.29 2.51 -5.68 -3.76 -1.44 |
-5.25 -0.69 -7.1 1.07 0.3 2.98 -9.82 9.14 9.52 9.82 -1.36 -8.25 -4.42 -1.86 -1.26 -6.47 5.8 -2.01 2.59 -2.22 3.76 -0.26 -6.41 8.46 -9 8.92 -4.02 4.78 1.75 -1.38 -1.39 9.46 4.3 6.22 -1.86 -4.48 -0.33 -0.77 7.19 8.73 -4.42 -1.13 4.13 -6.9 -4.98 1.43 9.34 -6.18 0.79 3.59 9.73 7.73 2.56 7.61 9.94 -4.71 5.01 -3.32 -7.08 -5.23 -6.69 0.95 -8.06 -9.22 4.23 9.77 -2.38 -7.53 -6.89 7.31 -5.82 1.97 7.19 8.99 -1.96 6.02 7.17 -4.03 8.52 5.7 -6.09 9.29 1.85 -3.02 -4.7 7.66 7.52 3.51 -8.02 -1.64 7.9 -2.81 -3.89 9.88 4.55 3.61 1.67 5.13 5.05 -1 4.25 3.37 -4.7 5.09 -0.33 -9.57 -4.13 -4.42 2.31 -7.73 -2.23 -8.51 -5.31 4.55 -3.13 6.12 -5.16 -7.94 -3.77 -9.38 |
