-9.38 3.42 7.99 -8.92 0.28 5.56 -5.95 0.81 5.51 6.25 8.74 -9.65 5.66 9.48 0.98 -1.6 6.87 9.42 -2.34 2.21 -3.16 5.52 9.58 -0.99 7 -3.16 7.39 -3.38 1.81 -2.08 6.79 -4.11 0.47 -8.3 -4.68 -8.33 -2.7 -2.08 8.38 6.12 7.34 7.3 2.55 4.38 -2.79 -1.74 2.82 1.05 -8.91 8.76 -9.85 9.6 5.08 3.02 0.86 4.72 -7.05 6.29 5.76 -1.39 -1.75 6.13 2.42 9.39 8.9 -8.57 -2.21 -8.73 2.26 -7.28 5.58 -4.18 8.32 -1.1 2.06 -2.77 -9.57 -3.45 8.15 -7.73 -6.11 -8.9 0.86 -6.8 9.66 -9.35 3.46 1.08 -7.21 -6.11 3.88 -3.97 5.66 5.66 -9.47 1.52 8.98 -6.35 -7.68 9.97 -2.18 -3.74 2.89 8.81 4.86 9.04 -1.26 1.87 3.35 0.2 -8.74 1.86 3.49 1.87 4.72 -7.79 -9.53 6.76 8.85 -2.63 -7.55 -5.87 8.94 2.28 4.89 -0.68 2.92 9.5 4.04 3.01 8.49 -1.44 3.19 -2.05 -8.99 2.03 -2.39 8.98 -1.53 7.45 -9.82 6.7 2.23 5.42 -8.57 -0.26 -2.92 -6.63 -9.24 1.21 8.6 9.47 -0.4 -0.69 -8.52 9.26 3.06 -5.06 7.8 -7.17 1.42 -0.25 -6.6 5.9 0.02 -5.44 9.63 8.06 0.43 -5.02 5.13 7.09 5.99 -2.37 -1.24 -7.03 4.53 -0.37 0.79 5.63 6.25 -2.03 -8.3 1.21 -8.42 -1.27 -4.85 7.29 7.93 6.44 2.39 -0.46 -1.45 -6.52 -7.69 -6.92 -9.3 -5.4 -3.35 8.46 5.21 7.44 2.57 -4.87 4.96 0.63 7.76 8.39 -2.28 2.74 4.1 5.77 -2.99 -8.65 0.43 -8.13 -8.8 9.91 3.59 -3.07 -6.14 5.03 1.41 1.97 -0.24 7.68 -5.48 0.86 2.66 8.13 -4.8 6.13 -8.09 8.04 -8.48 -9.52 -9.04 -9.66 -9.23 9.7 -2.47 -4.77 -6.31 0.99 2.58 7.36 8.13 6.58 3.71 -5.38 8.55 -0.16 1.93 -1.49 3.25 9.08 5.52 4.52 -6.4 4.47 -0.34 7.42 7.62 -1.99 -4.79 -1.13 2.07 6.02 -1.24 3.07 -6.26 -5.39 -3.81 -1.04 -1.62 4.01 -6.9 -7.11 8.71 0.68 -7.84 -0.01 -2.75 8.19 -1.53 -2.22 8.51 3.9 2.83 2.65 -1.59 -5.07 1.57 -2.3 5.96 -7.09 9.03 4.72 -7.39 8.57 4.26 5.23 7.86 -6.97 -7.54 -1.44 -7.42 3.74 -9.96 -4.54 -9.43 -8.38 -8.31 0.95 -3.94 -5.28 -4.16 -0.08 2.05 -7.7 -0.17 7.34 3.41 0.19 8.8 -1.5 -3.25 -6.84 -3.5 9.81 1.43 -0.65 -7.15 3.25 0.11 -9.47 -1.7 6.29 2.12 -6.26 -8.06 -1.42 -8.16 0.53 -7.19 1.06 1.52 -8.62 -1.11 -2.55 |
6.16 5.86 -1.78 -7.21 -2.87 -5.1 2.38 -5.39 2.91 -8.07 -9.75 -3.72 -8.39 6.3 -6.49 1.98 9.78 1.16 -1.86 5 3.2 -5.55 -8.98 -5.41 -3.86 3.97 -0.89 0.61 -6.95 3.9 6.12 -7.86 0.25 -5.43 9.55 -4.86 -2.26 -3.45 -0.27 8.13 -9.25 7.14 -1.85 7.12 0.54 7.48 -2.45 7.24 -5.61 -1.16 -8.06 -9.09 8.32 4.98 1.32 4.01 -4.39 -6.35 -6.77 -8.01 7.16 -4.17 4.88 4.77 -8.82 -6.89 8.12 -5.51 -4.24 -3.97 -5.58 -7.47 -3.23 9.3 3.05 2.28 -3.87 -3.96 3.27 2.12 -1.64 -4.54 -2.62 -8.94 6.74 0.29 -2.74 5.47 -6.61 6.44 -2.99 -6.76 -9.22 -6.3 3.71 8.21 0.37 -1.15 -5.94 8.25 1.35 -8.49 -6.03 2.26 -9.53 6.47 3.52 7.25 8.24 -8.97 -3.25 0.13 -9.74 -3.21 4.98 3.91 -4.96 1.18 -8.94 -7.04 2.74 -0.73 -9.58 -2.5 4.68 -7.1 8.55 4.5 8.82 6.57 8.76 -1.13 -2.21 2.23 -4.64 8.22 -4.8 -9.42 -3.92 -7.18 -4.75 6.08 4.41 -9.57 -6.31 7.73 -7.19 3.28 -0.99 0.8 9.66 5.87 0.02 -2.51 9.49 -7.53 3.72 1.73 -3.1 -7.75 1.27 2.94 1.17 5.42 5.77 0.67 5.72 9.83 -6.9 7.24 1.1 1.76 -7.84 0.25 -6.7 6.87 9.24 2.93 -1.99 2.21 -0.82 -3.19 -2.41 6.57 -4.7 -4.19 7.7 2.37 6.45 4.68 -7.5 -4.63 7.48 -1.16 1.71 3.49 3.91 -5.85 7.13 -3.19 8.49 -0.13 -4.74 6.8 -8.38 2.84 -1.73 3.45 -7.82 3.67 -5.24 -8.66 5.27 2.22 9.74 -4.11 5.45 -7.67 -6.3 -7.72 6.76 1.56 -7.3 6.28 8.75 -8.78 -3.51 -4.65 -1.37 0.45 -1.41 -4.22 0.74 4.34 -2.56 -2.17 1.53 5.36 6.82 9.4 0.36 5.36 -1.34 4.17 7.92 0.93 -7.33 -8.8 0.09 0.49 -3.01 -1.44 5.52 -3.33 8.21 2.7 9.12 0.92 -0.64 3.78 -8.7 2.91 6.63 -7.22 -6.69 -0.61 2.67 -8.9 4.3 -1.19 -6.78 4.25 2.24 3.21 5.29 -1.81 6.04 6.02 8.06 -3.96 -7.91 5.57 5.99 4.84 -0.85 5.68 -0.85 -2.04 1.02 8.04 5.16 0.42 -8.94 -1.99 6.18 6.1 -6.88 5.45 8.88 -0.28 4.88 -3.36 -6.87 -5.96 -1.61 1.42 2.57 -9.33 7.52 -7.47 -6.46 1.16 9.89 1.31 8.62 0.87 1.84 -1.38 -3.4 -2.8 -3.73 7.22 -7.78 -5.42 3.92 6.57 1.11 -1.8 -5.18 -6.14 5.62 5.37 8.5 5.53 -7.51 0.93 5.67 -5.33 6.22 8.27 -6.16 -9.47 -8.65 -6.18 1.77 7.93 -1.8 6.47 4.08 9.6 -5.02 4.92 0.62 5.01 4.09 9.51 -1.86 -2.4 -8.46 7.45 5.74 -2.11 -5.55 9.24 8.69 -6.99 -0.2 6.07 9.54 -9.32 -7.33 5.36 4.53 -3.01 -7.79 1.34 -3.41 -2.79 0.48 4.4 -1.58 -6.49 -3.35 -2.64 -1.89 -2.27 0.91 9.25 6.84 9.48 -8.87 9.6 -4.88 5.53 5.6 -1.53 -4.01 4.36 -8.4 -9.58 1.34 -9.02 -4.01 9.67 1.17 -8.53 -1.73 -6.75 -3.11 -3.64 -1.41 -1.12 0.76 -7.94 6.32 6.13 -7.24 -1.09 -6.36 0.21 7.02 5.44 4.46 9.12 -0.66 -8.32 -0.63 4.86 5.82 -9.26 -6.93 -6.67 -9.69 -5.88 -4.2 9.54 2.75 -5.42 1.04 1.98 -5.04 -8.01 5.61 -3.38 -7.55 -4.32 -4.86 -4 -3.81 3.91 9.09 1.12 8.53 -9.14 7.34 -1.99 -9.34 -8.14 3.86 1.63 -1.28 -6.32 2.21 4.91 -8.6 -3.4 3.27 -5.87 9.61 0.63 0.99 6.76 -7.28 -0.27 1.11 -4.11 6.9 3.59 -8.23 -8.67 -8.99 -2.5 -9.01 -5.82 2.01 9.39 1.11 -4.6 -7.28 9.2 -3.74 -1.39 -5.03 -9.6 -9.02 -1.8 9.27 -4.13 5.5 6.56 |
-1.22 1.54 -5.77 -5.14 2.89 1.58 0.13 4.35 -1.16 7.95 6.89 5.26 9.14 4.65 -4.63 -9.9 8.7 1.8 3.92 3.19 -2.67 -2.61 -1.37 -6.96 -8.15 9.44 2.52 7.86 6.83 9.52 5.76 -7.45 -5.25 -6.18 -5.57 -4.25 -1.64 -3.67 8.81 1.9 -9.32 9.31 1.48 -0.48 1.87 8.86 9.98 -8.08 8.55 -8.47 5.67 -8.6 -0.96 5.97 -9.21 -3.78 -3.21 -9.6 -9.58 -2.87 -6.78 -6.21 5.53 6.93 7.26 7.57 -6.23 -0.38 -7.22 -3.5 -9.88 6.77 3.25 2.38 7.52 -4.08 8.35 2.65 -7.75 5.62 2.65 2.11 7.44 -0.31 6.3 1.96 -2.99 -2.19 -3.45 -3.15 -8.03 8.74 -6.45 2.31 1.78 -6.1 -3.95 9.09 1.99 -4.06 -9.49 -2.68 9.67 -7.08 -1.12 -6.45 -6.04 9.34 9.67 -1.17 9.21 8.98 3.85 3.56 -4.85 -5.52 -9.76 -6.78 -4.85 3.35 |
