0.01 -0.85 -9.91 3.65 7.82 1.66 1.63 3.82 -6.63 4.57 -3.74 8.68 4.14 6.55 -2.13 4.38 -2.19 -2.84 -5.11 -2.51 5.67 0.69 2.01 1.62 -6.66 7.29 -6.88 5.64 8.38 -3.39 -6.67 -5.03 -1.15 -4.93 7.11 -6.24 7.74 -7.31 2.87 3.76 -8.35 2.48 4.65 5.81 5.31 8.15 8.01 2.3 3.59 -0.95 2.56 0.22 5.04 -6.55 -9.29 -4.97 -9.7 5.01 6.53 4.05 3.92 -1.06 -9.05 -0.4 2.91 3.78 -5.98 8.33 -8.77 -0.29 6.36 5.51 3.56 5.84 4.93 -4.56 5.64 -1.45 0.91 8.31 6.99 -1.9 9.11 -5.67 2.69 4.39 -5.98 9.24 2.16 -6.67 9.74 9.41 -8.55 -6.85 7.39 -3.86 8.91 8.81 -9.12 -0.13 -7.5 -0.55 -8.61 5.28 2.05 -5.55 1.11 0.71 0.76 -3.68 -8.99 -8.95 -7.15 3.19 4.31 4.5 -2.52 7.8 2.21 -3.24 4.86 -4.79 7.44 1.36 -2.79 -3.09 4.11 8.28 -6.22 0.48 4.33 -5.07 7.79 -5.41 7.29 5.94 -4.75 -4.09 0.02 8.18 -3.1 -3.79 -2.97 -4.61 -1.53 4.52 -8.04 0.09 5.94 0.48 2.02 -9.37 5.02 0.4 5.53 7.57 1.66 6.79 7.99 6.11 9.19 -4.81 -9.31 2.57 9.41 4.8 4.02 7.45 -5.28 9.78 2.54 7.39 -8.14 -8.27 4.73 4.22 0.18 -2.97 5.83 -0.37 5.25 7.32 -9.72 -2.33 1.28 -0.86 -5.77 -4.79 -4.83 -7.51 -8.08 -2.21 -8.81 0.24 -4.36 -0.5 -5.65 -4.71 0.66 4.25 -5.66 4.92 4.26 -3.7 5.23 4.7 -9.65 -2.65 9.11 -3.61 3.33 -3.56 1.62 5.5 4.19 1.39 -6 0.45 -3.07 -0.1 0.44 -1.28 -3.21 0.46 5.43 7.61 -6.87 5.55 -3.5 -9.98 3.86 -7.18 -2.08 -0.57 6.29 -1.2 -4.3 -5.22 3.47 9.89 -4.86 3.78 8.28 5.27 2.04 3.19 -9 0.72 4.8 -1.97 -3.63 -1.2 8.79 0.63 -9.62 -8.49 -3 -5.18 0.01 -3.58 -1 5.57 3.87 9.22 -8.76 9.55 -1.84 6.35 -6.55 -9.01 0.39 3.27 5.65 8.89 -6.47 -8.36 -0.08 6.16 0.08 3.92 0.6 8.31 -4.46 -9.93 1.02 8.29 -1.06 -1.31 -1.82 6.73 -9.36 -0.66 -8.68 2.48 -0.51 1.86 8.13 9.38 1.73 0.4 -6.73 -5.17 -9.36 -9.13 7.42 -1.94 -6.74 8.71 9.6 -7.92 2.56 8.31 6.63 3.27 -4.22 9.65 4.24 -8.61 -0.28 -0.62 -8.58 -1.23 -5.39 3.04 7.72 -4.45 2.62 4.77 -8.53 5.47 8.37 1.2 6.56 -2.01 -8.65 2.29 -8.32 2.26 4.29 1.36 -5.95 -2.45 8.96 8.8 5.31 1.86 -5.27 -1.72 4.75 -6.06 |
9.24 -6.65 7.91 6.26 2.03 2.06 -1.73 2.64 9.52 -4.87 -3.62 0.99 -5.58 -1.76 8.02 -4.99 9.34 7.82 7.96 3.91 4.91 -4.04 -3.37 -4.22 0.14 8.06 0.86 -1.66 -8.99 -4.34 7.28 9.98 5.25 6.34 -0.91 -2.63 -3.22 -1.69 -0.04 6.34 2.95 -6.15 4.3 -9.63 6.44 8.09 -9.09 3.18 -1.34 7.24 -9.01 6.39 -2.74 -0.91 -3.34 9.25 -1.9 -8.44 -2.83 -5.35 -4.73 9.95 -7.33 -6.83 2.17 -7.48 6.69 -5.96 1.79 9.93 -5.91 -3.85 -0.85 -9.28 2.92 8.52 8.69 7.54 9.12 0.88 -0.04 -0.71 -8.84 6.36 -9.62 7.32 7.3 2.07 -5.84 -3.44 0.68 -7.27 6.52 0.03 2.24 -3.21 4.69 3.57 -2.55 7.91 9.39 -6.64 4.06 7.78 -2.73 1.69 5.22 0.89 -1.3 -0.67 -8.05 6.02 7.4 -9.39 3.96 -7.47 -6.58 2.64 0.92 -4.62 -2.18 -6.89 6.59 3.87 -9.47 -9.27 2.09 1.37 3.44 -8.78 -6.7 -2.2 -1.16 -0.22 -1.08 3.93 1.88 -9.45 -7.61 7.85 3.89 -5.34 -8.85 8.77 8.73 -2.44 -3.87 -7.35 -0.51 1.51 4.69 -6.68 -9.87 -3.78 4.61 1.59 4.52 -5.73 -1.15 3.34 9.81 4.66 -1.51 0.85 5.43 7.29 4.87 8.63 -8.13 -3.6 6.39 -9.23 -6.86 9.41 0.68 -5.5 -7.02 0.36 9.25 -1.06 -3.8 -2.18 -7.49 -9.9 -8.59 -1.37 9.3 7.98 4.34 1.63 9.05 3.25 8.68 5.99 -8.55 3.11 -8.49 -8.27 -1.91 4.23 -5.42 5.77 -6.61 -9.45 -4.7 -3.13 -9.2 -9.97 -5.19 -4.03 2.29 6.53 -0.08 7.21 4.28 -3.45 5.98 2.5 -0.6 -7.69 5.77 3.13 0.53 -2.36 -8.19 -9.38 7.38 -7.41 4.1 -6.2 -6.31 -7.06 -4.45 3.28 6.65 -0.33 7.89 -4.71 -4.19 4.86 2.65 -3.2 -1.42 2.02 5.86 -4.08 -7.28 1.04 4.17 -9.18 5.73 8.92 -2.37 -5.72 0.53 -8.37 0.21 0.11 -6.11 5.62 -1.02 5.51 4.21 -0.05 3.32 -4.52 -2.06 7.89 -8.65 -1.64 -6.17 -5.06 8.32 -1.43 -3.42 6.85 -4.5 -3.75 7.1 -9.82 0.41 -2.73 8.69 8.47 4.82 -1.82 -1.28 5.59 9.96 1.16 -8.27 -10 -6.07 7.45 1.03 -2.29 -1.52 -10 -4.56 9 -9.58 6.46 3.93 3.99 0.41 -1.54 -9.78 -0.85 -0.54 -7.66 2.91 4.62 0.15 2.73 3.89 -1.02 1.57 6.76 8.92 -4.4 7 -2.07 2.45 -7.66 -2.07 -2.64 1 -5.68 8.16 8.12 6.62 6.34 6.78 4.76 -2.73 5.78 7.11 -4.04 -5.42 -4.16 6.61 1.96 6.67 4.35 4.16 3.79 -2.45 -8.41 -0.49 -6.33 6.7 -5.85 -8.17 -2.68 -7.63 -5.93 9.68 9.16 -3.28 4.62 1.34 4.26 -5.43 -6.38 -4.28 -9.06 7.94 5.79 8.57 -9.9 -8.58 -0.03 -2.76 5.25 -1.11 2.84 -3.91 -4.88 9.96 -6.14 -2.33 1.83 7.59 -6.46 -3.23 -7.64 1.76 3.16 -0.97 -3.68 7.84 -8.68 -2.61 -5.53 -5.59 -3.37 -5.29 -8.58 -4.54 -8.69 -2.31 -7.58 -8.38 -4.35 5.99 -5.14 -3.44 8.29 -9.46 -9.99 2.3 -3.49 0.13 -9.6 6.77 0.02 -3.14 -9.91 9.2 9.09 6.22 6.52 0.33 7.25 2.4 9 -1.65 -8.41 9.26 -5.98 -3.72 -2.2 -5.42 9.95 1.55 -8.84 -8.3 7.19 -3.24 6.75 5.49 1.67 3.95 -0.06 0.09 -8.69 0.98 0.13 2.07 -4.6 8.27 -6.88 -7.85 -8.57 5.02 9.89 7.83 -8.34 4.09 4.82 -6.84 -0.64 1.52 -6.22 -5.49 -9.37 2.55 -9.81 0.3 5.46 9.03 6.73 -1.98 3.8 -9.19 3.09 4.36 -1.1 -7.77 2.5 -8.84 -3.31 -2.51 -5.57 -9.14 6.92 6.27 -9.21 5.44 0.91 -1.39 -8.49 -3.12 1.3 7.72 8.76 -6.36 -9.85 -0.88 6.99 |
-3.06 -7.92 -2.1 9.56 -5.77 1.58 5.63 7.72 -9.43 8.1 -6.39 7.04 -3.78 -6.83 -3.79 -8.36 -7.53 -9.78 -3.94 -4.25 6.98 2.39 1.06 3.3 -1.49 6.95 -1.17 -1.55 -0.44 -0.78 7.45 6.64 -1.67 -5.88 -1.11 -5.88 -9.54 -5.69 8.22 9.21 4.44 6.05 4.72 -0.32 3.93 6.21 0.45 3.58 -7.22 -9.24 -0.08 5.19 0.59 9.89 9.53 0.29 3.75 -6.23 0.67 -9.89 1.11 1.32 9.5 -8.65 -6.34 -2.44 -7.69 6.53 -0.76 -0.01 1.19 -1.11 7.44 -4.71 5.82 -8.21 -8.2 1.16 3.76 8.22 -6.81 -4.95 7.77 -0.55 8.11 -3.87 7.14 -3.03 -9.54 -8.68 -8.19 -6.07 5.06 -1.78 -1.99 -4.46 8.6 -0.57 3.86 2.13 4.4 9.28 9.81 -5.44 7.57 -5.14 7.41 -8.87 -8.22 3.4 3.15 -3.22 -6.7 -0.65 8.29 -2.82 6.26 1.27 3.34 8.11 |
