8.08 -5.12 1.67 6.78 -4.55 9.8 -9.53 8.4 -0.24 4.93 -5.4 0.28 -8.6 -6.3 -9.47 9.68 -1.39 0.76 -6.32 1.43 -5.25 4.98 -9.47 2.38 -7.94 -0.95 2.08 6.25 9 2.36 -1.38 -7.99 6.97 2.91 -2.83 1.24 -0.01 1.54 6.75 6.03 1 8.76 7.05 -0.28 0.11 7.12 -5.2 5.32 -3.13 0.38 -0.87 -6.27 -5.12 5.39 2.23 6.06 -2.09 8.75 -0.39 4.21 -0.2 -1.08 -8.35 3.73 -6.07 -4.17 3.23 1.67 3.58 -6.59 4.88 3.29 -6.12 3.29 -7.7 -8.98 0.09 -4.87 -9.86 -4.01 -8.87 3.32 -3.36 -5.21 -7.45 9.69 -9.64 -6.77 -1.02 -8.67 8.01 8.31 7.96 3.34 -8.86 7.7 4.88 -6.25 -2.58 -0.91 -2.98 9.66 5.18 -9.13 -0.76 5.8 7.09 -9.91 2.84 2.53 5.69 -5.32 -0.23 -1.73 6.19 1.49 0.96 -1.7 2.58 -3.78 0.95 -0.53 -5.75 -5.51 6.38 5.22 8.11 -7 -5.96 -3.51 -6.08 0 2.29 -2.4 0.3 6.45 -6.45 8.37 -1.41 1.06 -1.27 2.05 0.64 -7.24 0.37 -1.47 4.05 3.46 6.95 -4.08 9.59 1.87 9.7 -9.07 -4.84 7.02 -2.64 -2.43 0.57 2.79 2.25 8.72 1.49 -8.23 -6.2 -6.37 4.03 -3 7.89 -2.35 7.43 7.49 1.34 -3.35 -3.38 9.08 -0.23 -6.68 9.33 9.36 -2.15 0.53 2.42 1.25 4.24 -4.8 8.5 0.51 -6.2 -3.34 -7.58 6.55 -9.53 -9.06 3.62 1.23 -9.3 -6.01 6.14 1.29 8.76 0.73 4.12 7.59 8.07 -0.94 9.44 -1.55 -3.32 9.95 8.51 6.84 -6.24 -6.09 0.37 5.7 8.24 0.55 -1.85 2.56 -7.07 0.04 0.85 -3.4 -1.12 -3.3 -6.63 3.75 -1.42 7.56 9.64 -8.69 6.63 9.38 -9.16 1 -3.23 -1.49 -9.12 8.53 -3.04 -2.05 -7.64 1.24 -6.28 2.38 -4.31 3.87 2.05 -3.08 -2.14 -3.05 5.4 8.58 1.65 7.44 4.1 4.74 6.74 -2.93 -7.72 0.92 -2.43 -1.86 2.99 0.56 4.47 2.51 -9.82 7.99 0 -5.63 8.5 -8.78 -5.31 5.97 4.63 2.27 4.94 1.43 2.59 -1.38 7 -8.5 5.27 -1.29 3.74 -1.52 -3.62 0.28 6.52 4.25 -1.67 -7.12 -1.47 -7.42 -0.55 -8.86 -3.46 -2.25 7.74 3.41 8.92 -9.39 4.32 9.23 -0.06 3.89 -6.69 -7.06 -6.3 -4.39 -1.65 -3.54 0.55 -1.97 -7.41 -5.32 9.61 0.41 -8.89 3.33 -4.04 2.43 -9.76 6.58 -4.55 7.88 -3.11 -4.55 -3.97 -9.27 -1.04 2 -2.27 -3.02 -9.74 0.53 0.95 -2.77 -3.89 -0.94 -1.14 5.97 -0.84 -6.82 -1.72 5.89 -7.36 1.94 |
7.12 1.56 4.24 -8.91 -8.29 7.01 -5.55 -3.09 2.87 -2.66 8.97 9.41 -7.06 6.07 6.82 4.63 6.75 2.38 7.3 -2.64 9.74 -3.3 -7.97 -2.33 3.28 -0.46 9.08 -5.13 0.71 -6.77 2.13 8.54 -5 9.55 -3.52 -3.38 7.79 2.88 5.18 3.1 0.22 -2.12 3.23 -6.41 -2.52 9.41 -2.98 -8.82 -7.31 9.61 -5.9 -6.6 -4.82 9.41 9.8 8.58 -3.45 4.69 4.6 5.09 9.22 1.56 1.73 9.77 7.11 1.08 -3.83 9.35 -1.42 7.41 -2.4 5.56 -0.32 7.68 -6.74 6.34 -8.48 -7.38 -2.13 4.69 -7.01 -5.61 0.26 5.61 -5.99 -9.44 -3.19 -4.78 -7.57 5.39 -9.56 8.44 -5.7 7.76 -4.51 4.66 8.19 5.55 -9.68 1.14 7.88 -5.6 3.31 -2.01 6.62 9.7 3.13 -0.44 5.4 9.24 1.77 -8.67 2.25 9.2 4.65 -9.23 -2.74 3.96 4.28 -7.55 2.88 0.62 9.02 7.43 9.52 -6.81 -7.75 -8.31 -8.95 -6.45 -6.8 1.95 -2.79 -1.38 -7.08 -8.35 2.13 1.05 -9.04 -6.77 3.3 2.84 0.94 9.98 -7.49 -0.18 9.41 -3.13 8.23 -7.71 2.41 6.5 4.49 6.77 -2.06 -4.07 7.18 -5.32 -4.94 4.96 -2.44 -7.93 -1.41 2.17 -4.06 8.92 0.38 2.27 6.69 -5.17 -8.65 -9.62 5.72 1.99 0.04 6.38 6.12 -7.75 -0.52 3.59 -3.99 7.56 6.62 -3.92 5.98 -8.88 -6.65 5.04 -7.32 -6 1.26 9.86 4.36 6.13 -8.13 2.91 7.11 8.95 -0.06 -3.87 3.69 7.16 7.38 -5.36 6.28 4.84 9.87 -1.6 -9.22 -3.18 -7.43 -7.86 -8 -8.94 -6.31 -2.3 -2.29 2.46 0.29 3.02 -8.2 1.43 -7.67 0.56 1.13 -5.81 -7 1.08 5.7 5.19 6.5 -2.28 -8.53 -7.34 1.02 -6.14 5.56 5.56 -7.61 -1.72 3.41 0.89 -5.26 -0.34 -7.81 9.83 7.53 -6.2 -5.01 7.67 -0.1 -3.97 -6.76 4.74 -0.38 -4.03 5.69 4.71 3.61 2.41 9.28 -5.69 -3.99 2.49 3.41 1.67 7.39 2.34 8.87 -6.14 0.17 -6.09 -2.53 2.62 -6.89 5.77 -1.81 -2.42 -9.07 -4.84 -1.51 -1.71 7.46 -6.71 5.9 2.19 -8.3 -1.03 -0.75 9.34 -3.53 -6.79 6.69 8.52 8.11 -0.5 -6.58 2.12 -3.46 -3.58 1.63 -0.06 -7.14 9.83 -0.82 -8.39 -1.43 9.95 8.84 7.43 -5.74 -3.28 -4.55 4.26 -4.06 6.06 -2.38 -2.51 4.38 -6.09 -1.75 -4.74 -4.21 2.45 2.23 -9.78 -8.96 -2.37 -6.57 -8.5 -2.81 -1.76 -1.26 -6.5 -9.11 -8.23 -7.17 -6.81 7.35 9.83 -5.43 4.21 4.59 -4.66 1.09 -8.8 7.42 -5.76 -3.72 7.88 -1.55 5.78 -1.32 -4.97 9.22 -6.62 -8.8 9.35 8.94 -2.6 8.77 -4.63 -7.4 9.01 2.85 0.05 2.13 -9.9 -6.83 -5.26 8.64 -6.63 -8.8 6.49 5.45 2.46 6.58 -9.24 3.22 -1.16 9.01 -8.32 -1.31 6.02 -7.27 -8.18 -4.36 -0.28 0.65 0.83 -0.36 -7.27 -9.99 2.6 -8.82 -8.81 3 8.09 -0.11 8.62 -5.39 6.65 1.01 7.44 8.86 -3.24 -2.91 2.65 -7.7 7.39 7.74 1.47 -1.3 -1.9 7.76 6.03 -4.65 -0.01 7.82 1.66 7.05 4.03 0.21 -5.45 -9.88 -8.01 2.36 -6.24 7.62 -1.32 -4.63 -6.08 8.46 5.82 1.09 -2.46 2.97 -9.41 8.26 -3.31 6.46 5.65 1.9 8.99 3.78 5.6 2.52 5.46 2.48 9.19 -1.18 -0.76 -9.54 -8.8 3.24 -9.31 8.19 5.18 -3.66 1.32 3.78 -3.5 4.39 5.6 -9.07 -7.91 9.57 -0.29 4.31 -7.85 -6.49 -0.11 7.5 8.63 -7.17 -2.2 3.56 -1 1.3 9.42 -6.21 7.18 7.42 -3.7 4.89 8.87 -0.47 -7.15 4.89 -1 -2.03 -6.74 -3.73 6.1 -6.83 -3.43 8.15 3.27 6.15 -4.03 |
-7.96 -6.49 -5.84 3.06 5.39 1.64 1.81 4.16 -3.69 4.37 1.16 5.34 -9.72 7.33 -6.65 0.52 -9.78 8.28 2.43 4.35 -6.07 -3.7 3.55 -1.67 -9.89 9.99 -4.27 -5.57 -6.77 1.18 5.98 9.39 -7.32 6.92 -1.75 -1.55 6.89 -9.92 -7.06 -5.63 8.64 1.24 0.42 -9.47 -4.93 -8.34 -0.3 7.93 5.99 -6.83 -9.16 3.71 0.03 -5.03 -0.02 -7.36 -9.17 -2.77 -5.2 -3.06 4.74 1.73 1.21 -8.06 5.72 9.92 -5.08 9.74 2.26 -8.32 -9.18 -7.72 -7.71 -0.75 3.51 0.22 6.26 -1.42 8.34 7.47 9.16 8.49 9.63 6.28 6.44 -5.75 -1.83 -9.26 -8.81 -1.67 -6.48 7.15 -2.18 -8.74 -6.46 6.35 -1.06 -8.84 -2.98 4.85 -4.6 -8.89 9.59 8.52 -5.99 -7.66 4.08 3.75 -1.47 -4.28 4.46 -9.92 -3.97 6.46 -6.58 7.59 -6.1 -0.05 8.39 9.37 |
