-1.56 -9.61 -8.19 -7.13 2.04 -6.85 7.8 -4.99 -6.51 -9.36 8.84 0.31 -2.48 -6.93 -0.43 7.03 -4.27 0.57 0.52 -1.43 8.96 -6.13 -0.77 9.04 0.24 3.62 -7.08 -2.19 1.67 2.14 2.62 4.61 9.93 -1.97 0.4 8.78 1.65 3.04 -0.82 -9.67 -0.53 -9.92 5.83 2.53 3.37 9.82 9.88 -5.72 6.71 1.31 -4.32 0.01 3.22 -1.72 -4.89 3.82 -9.54 3.77 2.47 3.26 1.5 -5.25 5.82 -6.85 1.16 8.76 4.47 4.98 -0.31 -0.25 7.14 -8.55 3.86 9.21 -7.12 -1.06 0.64 -9.05 3.92 6.42 3.16 -0.86 5.33 8.41 -9.36 -2.14 8.79 6.77 6.87 1.63 -5.7 6.66 -6.66 9.43 -6.81 -1.98 -3.79 6.62 -0.36 -5.58 -0.82 8.93 0.35 -9.71 8.14 6.53 4.67 4.81 -2.37 7.25 5.02 -6.32 6.9 -9.17 -1.04 4.83 -8.59 6.39 9.96 -6.87 2.55 7.85 -4.67 -4.73 -9.44 8.2 1.09 3.57 -8.93 -3.65 4.27 5.82 3.31 6.67 -8.61 -0.52 2.24 4.49 -0.55 -4.2 -3.55 -7.61 6.81 3.73 9.08 -3.55 1.33 8.07 8.86 -5.02 6.93 2.63 5.55 -6.71 0.15 3.35 -4.39 3.68 8.89 -1.34 -5.71 -9.83 -4.64 -8.18 0.79 2.63 -3.13 -6.84 -8.25 -7.49 -6.5 -6.67 7.53 4.97 -3.8 9.91 -7.7 -7.96 5.11 -2.79 2.59 7.41 4.67 2.4 -7.95 4.09 0.46 1.49 -4.13 -1.24 -7.4 -0.93 2.74 -3.06 -7.7 -6.89 -5.14 -8.17 -2.47 9.17 -5.86 -0.72 -7.05 1.65 2.38 9.51 7.96 -6.86 -8.77 6.05 -7.11 4.12 -2.2 0.13 -3.95 5.21 -2.57 8.42 9.52 -2.32 -2.24 -4.96 5.62 -7.42 8.36 4.21 -9.62 -4.13 -7.41 -3.31 -8.05 9.16 -9.2 9.05 -5.69 8.47 -0.4 -5.46 -3.65 -3.16 -3.34 2.03 1.96 8.18 -9 7.56 3.45 0.15 -1.43 -1.92 -7.27 8.98 9.24 -9.16 7.21 -5.02 -1.52 -6.11 -2.67 3.91 -0.1 3.41 6.79 4.39 -0.61 0.85 -7.85 -0.39 -0.87 -1.52 -8.24 7.27 -0.16 1.43 -5.06 -1.23 -4.21 4.78 -4.64 3.37 -4.27 6.48 8.54 -1.33 6.78 -1.47 -7.64 -3.59 -0.34 3.46 6.32 9.98 5.41 7.86 -4.92 -0.62 -7.81 -9.47 3.24 2.22 1.76 8.66 -5.22 5.19 -7.65 -3.76 -9.56 0.56 -5.94 -1.33 -7.39 -7.94 4.23 3.87 7.59 -0.08 8 8.93 -0.69 -9.99 -1.34 -8.39 6.37 6.9 6.72 -6.9 2.48 4.64 -0.92 8.7 -1.68 5.23 0.72 6.68 0.76 -6.34 -7.75 -5.33 1.08 -3.15 0.53 -6.57 7.1 -0.36 -5.21 4.7 -6.4 8.5 -8.87 -8.02 |
6.89 -2.46 1.45 4.53 -6.11 6.53 -2.07 -1.9 -5.57 8.68 -6.01 5.77 9.47 7.2 8.14 9.17 -5.04 -5.42 -0.93 -7.12 -3.69 9.5 7.79 -2.67 -6.89 -8.88 0.16 -8.17 3 -9.82 5.16 -5.62 0.21 0.39 4.7 2.55 5.75 3.52 8.54 1.58 8.7 7.66 5.59 -1.8 -9.46 1.02 -4.36 -0.23 -3.47 -6.33 -5.46 -8.24 -4.51 -9.05 -3.19 2.5 7.33 -8.95 9.83 1.34 -9.23 4.41 -0.45 2.85 9.98 -3.67 -9.83 1.27 6.65 -2.89 3.52 5.18 8.05 -4.61 8.34 -5.46 4 6.83 -9.49 0.6 -6.22 -0.9 -8 -8.34 9.41 -9.26 4.82 7.35 0.41 -1.63 2.38 -5.52 6.86 1.42 8.05 -6.49 9.6 0.2 -0.15 6 7.02 -1.2 -0.74 5.92 9.89 5.43 9.76 -6.17 -8.46 -3.93 7.68 9.97 0.63 1.46 8.95 6.29 7.55 8.13 4.79 6.46 -3.28 -0.04 -8.59 -9.35 0.09 -5.29 -4.08 -7.87 -4.5 -7.09 -5.23 0.17 5.29 4.43 2.92 -6.19 8.47 0.54 -7.3 -6.89 -6.81 6.69 -7.44 3.95 -8.36 -7.59 -6.94 6.21 -8.68 3.33 7.58 7.47 -5.31 -3.06 1.22 -3.15 3.51 4.82 -7.01 6.07 6.95 -0.78 -8.88 8.42 -7.12 -9.01 7.41 6.68 -0.18 6.54 3.23 -8.67 6.8 -8.54 8.87 -0.75 -4.73 4.47 -0.58 -6.77 1.2 1.09 9.13 -0.58 -4.05 5.55 -0.96 6.86 1.55 1.93 -3.61 -8.22 -9.29 -3.84 -0.12 -8.14 9.88 -8.91 5.07 2.38 7.14 -1.42 -3.21 8.09 -7.88 -3.52 8.34 5.26 -9.02 5.67 7.8 6.64 -6.73 1.06 -0.33 5.17 -1.5 4.96 -1.46 -8.98 -8.9 6.31 -8.39 7.43 9.4 -5.36 4.54 8.71 9.33 2.39 0.91 0 3.49 3.75 -4.57 4.56 -2.18 -1.94 9.75 0.77 -2.95 4.08 -1.68 0.53 0.82 0.08 -9.84 -6.72 -3.24 -4.77 -2.69 -8.84 -8.24 -7.32 -8.53 -2.87 5.09 3.04 2.65 -2.44 8.65 0.27 5.51 0.2 -1.38 -6.29 -1.68 2.73 -9.76 9.59 5 -4.79 -1.81 -6.69 3.7 9.94 4.54 8.93 5.95 2.26 -0.45 -8.5 -3.95 1.76 3.73 -9.37 4.48 -6.72 -4.88 -8.29 -3.76 5.09 -2.18 -9.84 5.77 -8.17 -4.12 -5 6.83 0.88 5.53 -8.77 -2.67 4.49 5.67 -4.19 5.1 0 -1.05 -9.17 2.65 1.8 -2.09 0.94 -8.68 -6.44 -7.56 5.35 4.43 -3.22 7.83 -6.69 5.9 -0.65 -5.95 3.77 7.88 3.7 -2.36 -2.12 -5.17 -5.46 -0.02 5.11 9.61 7.75 3.58 5.11 0.43 0.16 8.19 9.13 -1.15 8.34 -6.12 -7.07 9.18 8.46 6.1 -8 -6.06 2.18 7.36 -1.05 -3.96 0.99 1.25 2.21 4.88 7.91 2.22 9.98 9.56 8.78 -7.36 3.51 -7.06 -0.44 -2.95 8.39 -5.62 -6.02 9.25 2.43 -7.17 -4.36 -4.06 -3.05 -6.69 3.06 -7.49 -4.33 8.81 -0.28 5.65 -5.16 -5.02 1.19 2.47 -3.91 4.8 -5.98 -1.94 2.04 -4.22 4.2 9.88 6.42 5.5 8.24 6.98 2.23 5.15 -6.96 9.48 8.27 3.36 -2.36 3.29 -8.8 -4 -9.95 9.73 -1.22 -6.89 -1.8 1.92 -2.49 3 -1.57 3.63 -3.48 4.06 -1.19 -8.6 2.14 -1.18 6.2 2.94 -5.45 2.28 8.29 3.65 -7.9 -2.95 -7.54 -4.07 0.03 -3.39 -2.56 2.92 7.46 8.18 -5.97 2.45 -1.73 -0.05 9.24 0.63 3.63 -4.62 -6.33 -6.53 0.94 -4.05 8.68 8.58 3.04 5.98 7.01 2.34 -6.67 -8.97 -4.15 -1.73 -1.46 -8.14 5.7 6.32 4.83 8.25 2.67 6.88 9.37 -6.95 -0.04 -6.95 -6.88 -7.15 -7.29 3.56 5.77 -9.78 5.93 2.21 -1.06 7.26 -2.2 3.82 8.5 -9.41 0.22 3.7 1.77 -0.81 -9.76 -9.43 8.81 -9.02 -7.51 |
-4.78 -3.17 6.39 -2.09 -9.94 -0.4 -6.55 -2.46 8.73 7.01 -8.58 0.77 9.21 7.47 6.42 -7.89 -0.37 -0.75 6.65 -1.97 -2.04 -6.96 4.72 3.83 -0.4 1.41 6.28 -1.04 9.3 3.44 -3.49 5.51 -5.62 -4.16 -8.71 -7.22 6.56 -7.26 9.5 0.09 9.31 -1.99 1.14 -4.21 0.53 7.54 5.5 9.86 -7.83 7.77 -6.04 1.61 9.51 -2.47 5.98 -0.29 -7.56 0.55 -3.39 7.28 3.04 -9.3 -1.97 -1.37 7.69 3.4 9.63 3.42 -3.06 8.87 -3.39 -0.24 -2.93 8.88 -5.93 6.35 -6.47 -2.81 7.85 9.88 -1.03 -4.27 -7.66 -7.98 -9.6 -4.2 -2.53 5.75 -1.86 -2.11 -6.85 -6.87 5.8 -9.38 -6.53 -0.45 -9.07 2.26 -8.28 4.17 4.01 -1.7 -7.99 -7.72 -1.2 8.23 -0.74 7.49 -2.88 0.17 -7.77 -3.31 -7.6 8.72 4.12 -0.1 -5.1 -2.6 -4.84 -1.86 |
