5.52 -3.54 2.38 -3.33 -8.54 0.78 -7.2 6.31 -1.14 -6.3 -3.33 -6.91 -9.38 -9.87 2.8 -1.56 -3.27 -7.99 2.12 -7.39 -2.1 8.2 0.57 1.07 4.31 -2.35 -6.66 7.77 -4.22 9.31 -6.67 6.11 -3.68 2.77 0.84 9.52 9.36 -2.51 -6.18 9.14 5.63 5.75 -7.5 -9.68 -4.4 7.37 -0.88 -2.61 9.73 1.1 -2.72 9.13 4.62 5.05 -1.99 9.4 -9.86 9.6 5.82 -8.06 1.42 5.31 2.49 -0.29 -1.93 0.92 -9.42 -9.71 4.53 5.42 9.31 9.34 -7.73 -8.99 5.33 -1.23 -6.43 5.51 -6.95 4.9 -2.5 -6.26 -8.06 -6.16 -2.11 -1.98 -6.38 6.6 -5.31 9.92 8.93 9.06 2.96 -1.61 9.83 6.29 3.47 -8.52 -5.01 6.83 3.79 3.6 -5.67 -5.18 -6.4 -6.46 7.18 0.78 -2.84 9.98 5.77 -6.46 4.9 5.89 -7 2.35 -7.66 -5.9 -0.12 1.78 7.44 9.09 5.3 7.69 -8.37 -4.29 5 7.45 7.41 1.78 1.58 2.79 -1.65 -6.94 9.13 -6.04 -1.17 -3.95 -9.17 5.53 -4.33 9.52 -3.29 2.91 -7.52 9.83 -6.24 5.26 -3.25 4.11 -8.72 6.02 -5.93 3.2 -4.75 -9 -4.76 -8.74 -4.31 9.64 4.7 1.13 -0.06 1.62 4.31 6.25 6.83 -8.01 3.4 -6.83 -1.41 -2.92 7.34 5.77 0.5 -8.59 5.02 -7.91 2.44 -9.37 -9.54 3.74 1.75 7.77 7.08 -9.56 -7.16 6.73 -1.25 -7.13 -2.88 -3.16 2.64 7.66 -3.06 8.59 -7.82 0.94 -7.59 -8.93 -5.19 -8.34 -7.18 -3.88 3.65 -2.46 -5.73 -3.7 6.12 -5.2 8.16 -1.49 2.5 -7.19 2.51 -2.14 8.49 2.28 -5.32 5.71 4.07 -4.12 9.57 2.33 8.35 -3.08 -5.75 1.21 -7.89 -7.05 7.13 -1.28 -4.03 -2.36 -7.53 1.94 -8.77 -1.07 -4.75 -0.79 -8.05 0.55 2.04 3.04 -1.2 -8.76 -2.74 -9.7 9.3 -9.99 4.33 0.96 -1.18 9.45 -6.07 6.09 5.69 5.18 -6.35 -8.3 -3.7 5.33 -8.96 -3.1 -7.16 -2.4 6.47 9.46 4.01 1.27 -9.4 8.18 2.97 -5.34 -8.63 -6.9 7.06 -9.88 -1.6 -7.74 1.23 -0.93 -2.44 -9.6 6.65 -8.2 -2.33 9.07 -5.21 4.86 5.47 -8.23 4.92 3.98 -1.39 -6.23 7.57 -2.63 1.66 -4.31 -5.82 -2.86 1.9 7.04 -1.22 -4.75 -6.61 -1.59 -7.2 -7.87 -1.59 6.61 0.38 -1.22 -3.77 -5.48 -9.59 -2.94 8.28 9.07 0.02 -0.91 -2.21 -1.69 -2.91 3.45 -3.73 5.93 5.88 6.11 9.7 -1.36 7.32 -3.74 3.84 4.61 8.69 8.77 4.17 2.12 -8.62 -9.39 -9.22 -4.28 -5.16 -3.62 3.97 -3.4 -3.11 5.15 |
7.49 -8.36 1.49 5.54 -4.02 5.54 -0.18 -4.36 -6.8 4.16 -3.44 -5.38 4.24 0.67 -9.26 -2.2 5.83 -5.35 -6.06 9.84 0.55 3.8 -9.83 -6.87 -8.43 -1.63 7.59 2.25 -7.68 1.55 -6.37 -9.37 2.73 -8.28 -0.45 5.08 4.39 -3.36 -4.48 -3.97 8.78 4.03 4.82 4.32 -8.43 -2.43 -9.56 7.65 -5.85 6.46 -1.22 -8.28 -5.73 5.34 1.52 6.86 -1.09 -0.24 -4.02 0.9 -8.86 -6.83 -9.88 7.16 5.38 2.52 -0.21 9.91 -0.9 3.16 -2.64 8.18 -9.5 -2.52 1.05 -1.18 -0.47 -5.18 1.6 -5.3 9.46 -2.18 -3.74 1.42 0.4 -9.55 -9.49 5.56 -3.66 7.03 -4.72 4.48 7.54 2.35 8.66 -9.41 3.53 -2.66 -6.73 2.74 8.04 5.61 -3.96 9.44 7 -9.05 5.46 2.85 -5.07 1.06 6.35 3.35 -6.58 -1.05 -4.39 -3.34 -4.37 -2.24 8.5 4.78 8.98 -7.55 6.64 6.35 5.12 1.75 2.13 -8.95 0.48 0.1 3.36 6.67 9.89 -9.47 -1.65 -3.89 -5.6 7.31 -4.19 -6.26 4.82 2.74 7.06 1.55 8.05 -7.17 7.83 -8.82 7.23 -3.09 -1.55 2.48 6.86 3.17 9.37 -8.63 5.71 -4.49 1.09 0.88 6.55 8.15 -2.96 -8.82 6.24 -6.4 6.28 1.86 0.9 -7.23 -1.18 -5.56 0.53 1.58 -3.68 -3.51 -4.42 -6.53 6.97 3.75 6.03 -3.38 -0.05 9.59 3.54 5.21 -0.37 8.7 -5.71 -5.26 -0.18 2.53 -3.6 -6.97 4.92 0.37 -7.8 -4.53 -4.78 1.55 7.25 4.36 -5.8 -6.53 0.87 -8.17 -7.48 7.26 9.62 -5.84 1.73 7 -8.79 -3.66 -8.94 -5.99 1.74 -6 -3.75 -4.14 -8.6 0.81 -3.36 9.35 -4.48 4.45 -9.77 -2.95 -9.29 -5.51 -6.03 -1.68 -6.16 2.81 -7.99 9.03 -4.6 -6.39 8.53 -0.48 -6.53 -4.38 2.44 8.42 -6.66 9.01 -4.11 -2.95 7.51 -9.53 0.13 5.14 -5.25 -9.27 -2.43 -1.07 0.51 1.39 -8.54 1.84 6.42 8.91 8.73 0.09 -9.31 -3.9 -5.45 -7.21 -7 -7.95 8.12 -5.32 -3.51 -4.22 5.73 -3.75 -3.95 -4.1 1.77 6.59 -6.07 -1.16 -4.41 -1.13 -1.93 -4.95 -0.42 3.75 2.12 5.9 4.47 -7.39 -9.39 6.47 1.4 8.78 9.13 -3.34 -7.31 7.09 2.95 9.98 5.28 -9.09 6.53 -8.71 -0.45 5.88 2.66 -7.48 9.34 6.76 9.26 -4.45 7.36 3.8 8.3 -7.74 8.69 -8.1 -3.03 7.89 -9.9 -4.1 -0.91 8.13 -0.6 -4.42 -0.75 4.43 6.7 0.17 3.24 -0.76 7.24 -2.83 -0.43 -9.97 1.5 4.26 -3.26 -2.68 5.05 0.22 -1.07 6.57 -7.49 4.7 -2.63 3.26 -0.62 3.54 7.4 -1.75 -9.61 -7.23 -3.26 -3.97 -6.34 -0.64 1.71 -0.49 -5.63 8.39 5.77 2.02 -8.3 -0.96 6.62 -9.21 1.29 -6.4 4.88 -4.57 2.51 3.42 -9.52 1.84 -4.49 -3.69 1.39 -6.64 -8.09 9.89 -7.28 -2.82 -4.2 4.84 3.46 -4.78 -4.53 -9.48 -6.59 0.71 -7.04 -6.86 2.44 -0.38 7.7 5.5 6.08 0.66 -0.82 -8.95 -8.14 -3.98 1.63 7.51 -4.47 3.2 6.97 1.89 2.56 8.44 -6.12 1.18 -3.9 3.66 5.42 2.63 9.58 2.07 1.34 -8.88 -5.3 -9.38 4.41 3.82 -6.44 -3.51 -8.21 -7.03 -3.69 2.31 -0.66 9.49 0.79 -6.54 6 1.53 -8.92 2.14 9.41 -9.17 -4.37 3.39 -0.82 -7.72 -4 -7.66 -1.28 8.61 -3.95 1.2 3.71 3.11 -5.66 6.87 1.71 -7.63 5.22 -1.83 -8.49 3.99 2.11 -5.17 2.48 1.73 2.8 0.49 -8 -6.19 -2.35 3.08 -6.1 -9.04 -3.98 -9.87 -2.59 1.59 6.28 7.54 -7.9 -8.81 1.27 3.61 -8.54 2.32 -9.81 -5.5 -2.99 9.06 0.65 -4.5 -0.47 7.27 -5.52 -3.68 6.92 -5.33 |
-2.63 -0.96 4.87 4.4 -3.94 1.18 6.5 -5.14 9.92 -9.91 1.65 2.02 6.67 -2.8 5.36 6.15 7.51 6 -5.55 4.84 -9.65 -3.85 4.8 -1.87 -6.88 2.95 -1.07 3.25 -2.98 2.72 -5.55 -8.85 -9.79 -2.69 9.94 -5.75 -9.13 4.89 -4.17 5.12 6.1 -4.55 -2.14 -4.65 -5.85 -9.15 -5.74 -7.48 -7.63 6.57 -1.67 1.23 9.3 -5.8 -9.79 -3.79 -1.17 -2.45 4.46 -8.2 0.31 -8.4 9.03 -5.2 -6.01 -3.8 -5.85 1.31 -6.95 4.5 1.89 4.99 3.63 -2.13 -3.5 -0.88 -3.15 0.59 -2.08 6.91 -5.88 -8.63 8.78 -4.78 -7.59 -7.15 -7.88 5.4 -6.68 3.74 -9.91 -0.45 1.84 1.33 -6.78 -8.9 1.82 9.98 8.85 5.03 4 3.66 4.59 -4.54 2.45 -3.04 2.44 4.07 -8.22 7.36 -5.92 3.43 -5.77 -9.29 -8.3 -9.25 -0.24 -2.31 -8.43 -7.12 |
