2.34 3.86 -9.23 6.54 -0.63 7.81 -7.84 -1.26 -1.55 9.69 -2.4 7.8 -6.39 7.74 4.56 6.17 -5.75 -0.63 9.19 7.38 -3.1 9.76 -8.62 2.28 5.09 -1.65 -3.54 -9.85 4.5 -2.48 5.27 9.67 6.58 -7.16 1.53 -0.53 -5.46 -5.2 5.1 1.89 -9.14 -8.78 0.71 5.29 -0.85 -3.93 3.75 1.29 8.14 3.8 7.67 0.35 -9.59 0.38 8.46 2.67 7.28 7.93 -5 9.9 3.27 7.36 3.64 6.55 8.82 -3.62 -2.91 -1.68 -1.41 -1.51 -7.59 2.95 1.22 -4.61 9.7 6.54 9.34 1 3.82 -7.59 1.07 -1.47 5.15 4.6 4.25 7.91 -3.97 -9.98 -5.99 -4.85 -7.62 6.22 6.2 -3.4 -0.53 -2.09 -0.01 -4.69 5.59 2.6 -3.28 -7.25 7.47 5.73 -7.27 -0.86 5.2 -4.19 6.12 -9.46 -3.36 7.25 3.91 9.84 7.51 7.04 -8.85 -2.97 -2.93 0.91 6.38 -8.23 2.72 5.98 -8.24 9.66 5.47 5.49 -7.35 0.55 -8.66 3.53 4.87 3.27 5.77 3.81 4.61 5.3 7.08 7.2 6.76 9 2.95 3.1 -1.23 -9.4 -6.51 -9.78 -5.16 -0.19 2.43 4.5 -7.35 -4.97 1.26 3.18 -2.12 -5.8 9.95 -1.08 4.52 9.89 -1.28 8.91 -6.22 -2.36 -5.7 -9.19 1.07 6.91 3.55 -9.08 -7.82 7.25 8.47 -8.13 9.11 -2.31 -5.28 -1.42 1.77 1.26 5.54 3.73 6.03 -8.56 -5.19 5.95 -0.52 -1.87 -0.5 3.8 -5.77 -9.83 -6.35 5.84 6.81 5.69 4.62 -3.11 -8.51 5.8 5.49 6.26 8.03 -8.84 8.96 -1.08 -1 -0.19 -1.63 1.92 4.71 1.81 9.41 -9.28 5.66 -1.46 5.26 -2.07 0.82 -1.39 -3.81 -5.83 5.41 7.74 -4.58 -4.08 9.22 7.3 -7.09 0.19 8.68 4.91 -9.8 9.85 6.55 -6.28 4.32 5.3 -4.22 6.26 -9.31 -8.46 7.3 -9.11 -2.39 -9.95 -5.25 -4.09 0.41 0.88 6.47 7.31 -6.03 1.29 7.11 -9.42 6.05 8.18 -5.39 5.23 4.59 3.7 -5.97 2.11 1.22 3.16 4.51 8.51 3.11 5.6 -6.21 -0.65 7.52 9.94 2.14 -1.13 -9.81 -5.88 -9.38 -5.16 -0.13 -8.97 2.69 -2.33 5.59 -5.02 0.87 -1.91 -1.38 -6.62 -0.79 5.8 -7.82 0.17 2.46 1.34 -5.98 7.36 -1.25 8.73 9.85 -9.37 -4.72 -4.43 -8.99 5.43 -5.38 6.3 5.7 2.13 -0.3 -2.04 -0.44 -8.77 -3.98 8.79 1.51 3.85 9.64 9.88 -0.86 7.14 -0.24 4.37 5.74 -6.85 -5.94 1.95 8.93 6.7 -5.75 -6.11 -1.59 -1.51 5.13 -8.09 1.47 1.45 -8.35 6.8 3.47 7.02 -1.55 -1.26 4.23 2.06 -3.97 -2.19 |
4.42 -0.69 -2.73 2.07 8.42 2.05 4.48 5.96 2.21 6.78 0.44 9.1 -6.04 3.16 4.64 8.89 8.65 2.68 9.5 -9.19 -3.01 3.95 2.75 -6.3 9.43 0.33 2.6 7.07 8.71 7.71 9.89 9.78 0.94 -2.72 -8.49 9.83 2.73 1.08 -0.75 -0.48 -0.16 -7.56 -7.6 0.65 -5.54 -2.31 -5.96 -0.23 7.58 8.12 6.13 7.16 3.34 -1.68 -2.09 4.63 8.37 9.99 0.55 8.59 9.31 -6.6 -3.29 -7.31 -3.06 -2.01 6.69 3.31 -1.3 -3.06 4.84 -1.12 5.1 -8.62 -5.32 -0.17 -9.39 -5.58 5.78 -5.21 1.96 2.61 -3.49 -9.89 8.39 6.48 3.07 -1.76 -9.67 3.51 -6.87 9.42 -7.62 -7.7 4.67 -9.05 -2.66 -8.99 -4.03 4.63 -2.92 9.61 3.99 2.79 -3.84 -6.48 0.64 3.22 -0.07 1.42 -8.44 0.12 9.65 7.04 5.46 9.89 -8.98 -5.6 -1.98 -4.02 -9.35 5.68 -2.66 4.07 9.86 5.22 4.88 -7.69 5.22 -8.85 9.18 -2.62 4.49 -5.65 -6.77 -8.17 2.95 -0.53 -5.36 8.5 5.46 -1.34 -9.78 4.35 2.85 -2.56 2.08 -1.7 -7.57 9.44 -3.93 -4.98 -4.22 -5.19 5.44 9.7 -4.88 -0.36 -0.45 -5.68 0.57 -8.83 -1.43 1.42 5.95 2.89 -0.1 -4.7 -5.81 -1.98 -2.19 2.71 -8.04 -1.43 9.91 5.62 -0.11 -7.48 8.62 -9.84 0.1 -4.76 2.75 0.89 0.58 8 8.8 -6.94 -1.61 0.33 1.93 -2.36 -4.72 6.62 0.69 -7.25 -3.31 1.64 4.43 7.22 7.55 -0.45 -0.32 -7.73 -0.67 -9.18 2.27 4.89 4.23 7.44 -9.11 -7.95 -8.76 9.22 2.39 -7.08 5.89 1.95 -9.27 3.2 -3.81 8.26 0.86 -3.04 0.47 8.25 -6.98 9.69 9.24 9.08 -6.65 5 -1.71 -8.83 9.26 -1.95 -6.01 3.52 8.5 -2.35 -7.9 -3.15 -7.67 5.19 -5.87 3.67 6.77 8.31 -3.85 2.43 9.73 -3 2.39 5.34 3.87 -7.46 -8.74 -1.49 -7 -8.73 6.82 8.75 6.38 -3.43 5.34 4.04 9.71 -3.95 5.08 8.72 -3.86 7.58 -4.21 -1.71 3.46 9.19 -4.14 5.52 3.08 -2.08 6.98 4.51 6.68 7.96 -7.75 -5.41 8.61 -8.29 -4.17 -4.78 -1.67 7.93 8.43 9.77 -8.49 -5.48 -8.95 4.03 -8.28 -5.07 -2.19 -8.75 -4.78 8.22 5.45 -4.79 0.31 4.43 3.08 -0.73 -6.07 9.54 -7.33 7.78 2.94 8.88 -9.69 6.6 -4.94 0.82 2.98 -4.32 -5.67 0.15 0.91 -5.12 2.35 -2.44 2.84 -1.76 -1.12 1.42 -7.57 -6.19 -6.01 7.43 1.83 8.9 -4.98 -6.63 -5.72 -8 6.65 5.01 2.24 -7.35 3.6 -1.72 -1.14 6.62 2.16 3.48 -8.82 3.47 6.05 6.38 8.82 -8.59 4.23 8.01 3.37 1.4 -0.6 -0.29 -5.01 -8.08 -7.11 -2.34 -4.47 0.29 -4.72 2.02 -2.26 -1.56 8.65 9.49 -5.5 0.86 4.09 4.53 -3.94 0.94 3.33 4.82 4.86 7.47 -7.98 2.71 8.82 -7.93 4.54 -5.83 3.36 4.73 8.08 2.25 4.26 -1.79 6.36 2.74 8.14 -7.26 4.19 4.33 0.55 -8.78 -9.85 -3.65 8.6 8.58 4.36 -3.89 -7.41 2.16 -6.53 -0.8 8.03 4.67 1.63 2.73 -2.35 4.68 1.3 2.79 2.14 -7.46 7.83 3.4 7.88 7.42 9.34 8.14 2.25 5.51 -9.83 9.95 -1.66 -8.83 1.35 -4.34 9.43 -2.66 -8.92 -3.92 4.41 9.85 2.87 -9.43 -7.41 5.54 4.41 -9.14 0.32 8.93 3.4 -10 0.48 8.67 4.16 0.6 2.87 8.97 5 2.93 9.14 -2.99 -4.97 6.5 7.74 -6.39 6.32 7.46 2.08 6.09 8.31 -3.21 -5.65 2.37 9.39 2.14 2.06 9.16 9.24 -2.73 -5.45 -9.64 -6.86 9.32 6.36 3.15 4.91 1.84 -6.58 -2.27 -0.67 -8.03 5.26 -5.01 -2.24 -2.38 |
5.5 -9.5 -8.82 0.45 -6.52 5.25 -8.39 -6.96 4.37 3.03 6.85 1.16 -7.69 -9 5.68 -8.98 5.54 -2.74 -6.41 7.17 1.74 -9.96 -1.27 0.12 -1.89 5.82 6.27 -8.37 2.6 -6.94 -4.83 -8.69 7.99 -3.65 5.28 -9.1 6.84 8.23 1.59 -6.48 -5.19 5.87 5.72 9.18 -8.59 4.87 -6.9 3.3 9.61 3.51 -4.31 3.63 2.38 -5.3 -7.56 4.18 -7.49 4.83 5.16 -7.42 8.4 -6.62 1.45 0.85 -1.78 -9.03 5.43 -6.88 9.59 -9.2 7.92 -7.77 -2.36 0.08 1.48 8.1 -2.34 -5.97 -2.33 3.92 3.3 -8.56 -3.54 0.02 -5.35 -8.21 -0.15 -2.87 8.13 4.3 -4.54 3.71 8.64 0.78 -4.4 -7.43 -1.77 -4.36 -2.3 -6.7 -2.79 9.07 -4.37 -4.31 -9.8 -5.75 -2.83 -7.65 -9.96 -9.35 -5.67 5.37 6.69 -9.15 7.11 -5.31 -5.26 -9.34 -4.75 -4.36 |
