9.69 -8.03 -7 -2.4 3.66 -0.63 2 5.33 3.7 -3.61 -3.86 8.95 -5.8 -1.97 1.77 5.1 -0.18 4.34 5.36 0.19 -1.14 -8.4 -6.28 0.96 8.4 7.92 4.73 -9.76 -5.72 9.39 4.16 -7.68 -3.99 -1.49 6.56 1.02 3.37 -7.22 -1 7.56 -1.45 3.24 -8.47 4.35 6.55 -5.98 0.37 9.83 -8.35 2.1 2.05 3.04 9.43 -6.28 6.85 7.37 5.96 4.49 1.04 -7.37 5.99 -0.78 -3.68 6.14 7.83 2.89 7.41 -0.15 1.48 -2.25 -5.27 -0.02 2.68 -6.74 8.13 5.82 -7.84 -10 4.11 -8.97 -8.04 -9.76 -0.81 -8.36 -6.61 -5.07 5.99 -0.13 0.68 -6.34 3.6 -6.48 1.3 -8.75 2.83 8.57 -9.45 8.27 6.21 -9.28 -8.15 0.36 -4.28 -9.39 0.14 1.81 -6.16 7.78 -9.68 1.91 -8.63 -3.91 -6.19 -2.62 -0.97 2.46 7.91 -4.93 -6.7 9.25 2.34 9.14 3.63 0.76 -4.11 4.36 -5.75 2.06 3.12 -3.68 1.98 -5.63 9.67 -7.81 9.66 5.87 6.42 -8.19 2.61 0.93 -2.98 0.92 -3.43 1.42 1.32 4.46 -0.12 -9.46 5.35 8.47 4.31 -1.52 -4.85 -0.11 -1.26 7.47 0.69 -6.47 -9.05 4.26 5.38 -7.98 -4.83 -0.61 -5.11 0.45 9.52 2.39 6.06 4.56 -7.42 7.37 -0.29 -5.18 -5.06 -6.15 3.99 -6.26 -7.99 -1.58 -6.34 -9.28 1.11 8.85 0.93 -0.05 9.2 0.27 7.29 -0.8 6.35 -5.97 -4.25 8.04 -1.66 -0.36 -8.8 -8.26 -3.52 -2.54 -9.53 -3.86 8.52 -3.07 4.81 3.59 7.37 -3.71 8.95 8.78 8.27 -9.59 -3.77 1.74 7.91 1.35 6.27 -2.88 -8.96 5.25 -0.76 7.77 -4.09 -1.41 4.09 6.43 8.85 -7.23 0.01 1.34 -3.52 -2.31 -5.22 -6.77 0.15 -6.76 4.48 9.36 -9.06 9.58 3.68 2.08 -0.77 -7.96 9.95 8.57 8.12 7.15 -6.06 1.91 0.79 8.42 1.73 5.13 -9.02 2.77 -8.65 5.28 6.78 1.56 9.1 8 -4.65 9.37 -4.9 -3.82 1.18 -5.82 1.78 9.33 3.22 9.12 -6.83 -0.87 -5.55 0.82 -3.96 0.77 -2.39 -8.68 5.08 -6.44 -4.01 8.45 2.24 -1.53 -7.66 -4.59 8.13 -6.04 2.06 0.29 -2.43 -8.4 -3.65 4.56 -1.1 -9.91 7.58 -0.87 2.53 -2.66 -0.47 -7.38 6.82 -2.78 2.43 3.27 -7.11 2.5 0.43 5.94 7.15 2.82 9.49 -1.2 0.43 -6.26 3.01 0.54 7.28 1.08 -3.4 -7.35 -3.21 -4.13 -0.42 -9.46 2.3 7.23 8.38 2.76 -2.12 5.1 0.88 9.13 -3.59 3.16 8.95 -6.57 8.04 8.59 2.39 -2.41 -3.32 -9.03 -6.31 -5.08 4.8 -9.53 |
-5.03 -1.65 -2.21 -9.65 0.75 9.77 9.46 4.43 1.73 7.68 -9.19 9.26 4.32 9.45 4.46 1.84 -6.46 -0.44 -3.86 8.52 -4.9 -4.5 -1.07 2.54 -4.44 -1.08 -6.71 -3.76 1.89 -2.98 -3.59 5.14 -1.2 4.61 6.42 9.12 8.43 -1.58 -9.36 9.04 5.59 6.85 -2.98 -9.57 8.32 2.53 -0.35 9.85 -7.98 7.75 7.67 7.45 3.02 -2.23 4.06 -0.18 9.54 3.17 -6.07 1.63 -8.67 1.03 3.78 2.69 -7.91 -6.05 2.23 3.89 -8.87 -8.08 -7.82 -6.31 -2.47 -1.62 -9.16 -2.35 2.48 -8.85 8.48 5.73 -0.63 0.12 -7.69 -9.74 -4.31 5.38 -8.64 6.11 2.52 2.46 -3.12 -5.46 -2.71 8.71 6.85 1.89 -0.69 8.64 9.58 0.66 -9.95 -1.51 -8.63 -3.71 -1.62 -2.45 5.13 2.75 -7.92 8.68 -1.54 -6.57 -9.35 1.46 -5.26 6.79 -6.27 5.07 5.83 0.19 4.63 3.59 4.3 0.46 -8.13 3.68 -7.68 -8.77 -10 3.28 2.52 9.72 9.07 9.8 -2.74 -4.07 -0.54 0.84 5.52 -1.1 1.64 -3.72 -9.73 -7.68 7.82 3.28 0.23 6.83 6.84 -6.83 -0.43 -1.92 8.64 -3.7 8.14 -9.67 -0.58 -8.43 9.03 -7.56 8.08 -5.72 7.23 3.17 -2.97 -7.82 -6.85 8.33 3.64 1.45 -3.45 -3.1 8.23 2.66 -9.39 -3.45 4.95 -2 2.32 -8.47 -5.74 -9.25 -7.8 7.55 5.2 -1.77 -7.52 -4.11 2.76 -4.93 -7.22 1.13 7.2 -5.94 -7.66 -5.27 -1.95 -2.39 -8.3 1.27 8.33 -7.78 -5.49 5.3 8.9 -1.18 -4.13 -8.92 1.09 -0.1 7.84 -6.48 -1.2 3.95 9.66 -3.06 -2.93 3.17 0.82 -7.7 4.12 5.54 6.62 -7.64 3.12 -5.67 -7.61 -7.08 3.75 1.79 -9.33 3.87 6.9 -7.59 -6.32 -9.26 1.94 -1.75 7.89 -1.75 -8.85 -0.69 5.06 0.45 0.95 -2.77 4.51 4.83 0.94 8.01 -7.67 -4.87 3.85 -0.09 0.59 -5.54 -4.69 -7.91 1.61 8.16 6.88 7.62 -6.82 -7.16 -1.26 -1.47 -1.55 8.35 -7 2.42 2.43 2.23 -7.78 2.81 9.97 -1.01 -8.31 -3.29 1.77 -1.35 9.01 -9.7 1.3 5.59 4.9 -6.96 0.68 4.06 3.66 5.15 2.29 3.58 -4.76 -4.54 5.81 -1.08 -2.92 -7.75 0.48 -8.05 -4.46 -2.21 -6.94 -7.72 8.99 -7.97 3.82 8.25 5 -2.46 3.78 1.25 -1.57 6.46 -4.14 -6.71 2.38 7.72 -2.98 9.82 -8.56 -3.81 -2.14 -8.96 -3.12 -5.37 -0.83 9.94 3.81 7.93 5.17 -6.56 1.7 -5.78 4.87 -2.24 1.86 4.84 -0.27 1.6 0.66 2.95 -2.97 3.83 3.7 -3.91 -4.28 -5.81 8.57 1.18 9.74 -2.86 -1.57 2.54 -3.23 -7.91 6.08 8.84 -2.6 1.23 0.16 8.97 -1.49 -6.6 6.88 -9.18 -5.78 4.59 -7.25 9.77 7.57 -1.82 9.14 5.84 -9.93 4.3 7.76 5.31 4.27 -5.22 -1.46 0.32 2.53 -7.42 -2.24 6.19 4.92 -1.7 -2.66 4.05 -6.46 7.26 2.09 -0.04 4.03 -7.52 3.8 1.18 3.75 9.4 -1.67 0.4 -0.08 3.78 -7.37 -0.58 4.6 -4.16 -5.23 0.57 -2.83 -2.22 1.5 3.35 -2.32 2.9 -3.12 8.55 -0.64 4.39 -2.99 3.03 -9.16 -6.65 1.44 -2.83 8.25 -4.64 3.21 0.65 9.7 1.91 0.54 -6.31 7.61 -9.24 8.82 9.17 4.89 4.86 -0.69 6.36 8.93 2.94 -2.97 0.5 6.42 -1.27 8.51 -3.15 -5.77 -1.56 7.96 -6.91 9.69 6.41 9.86 -3.77 6.17 -8.14 0.59 5.42 0.94 -0.1 -8.74 0.81 -1.16 8.55 -3.68 7.17 6.47 8.14 -9.97 -7.49 0.16 8.56 5.06 7.75 -6.35 5.02 -2.69 2.02 -0.82 1.35 -9.94 -5.73 -9.04 -9.37 -7.57 -3.2 1.92 -9.74 2.85 7.71 8.39 1.16 6.32 6.42 -7.23 -1.54 |
5.44 8.67 -4.92 -6.51 9.54 2.21 9.26 -3.39 -6.98 5.42 5.44 9.22 -6.2 -0.63 -0.06 0.32 -7.43 3.23 1.51 0.09 4.48 2.41 5.78 7.85 -8.27 7.8 3.06 6.54 -7.03 7.95 9.3 -1.56 4.72 -1.77 9.58 -1.92 -1.79 9.81 -8.59 -0.26 -8.3 -2.27 -0.89 2.33 2.31 9.5 -5.52 4.99 5.98 -9.42 8.1 9.77 3.45 -5.18 -0.85 -3.01 -6.06 6.84 -6.1 1.45 -6.01 9.44 -4.8 3.28 3.71 -2.3 0.11 1.46 7.05 0.43 -4.16 -2.43 7.24 0.93 1.99 4.71 8.96 0.96 -1.3 4.73 3.85 6.21 2.64 1.51 3.96 9.86 -6.76 -8.57 4.51 1.87 7.97 6.75 -7.25 0.97 -6.11 4.12 0.49 8.17 -9.67 7.6 -9.47 3.52 -3.71 -8.76 -3.28 -8.12 -2.87 -8.06 0.86 -0.71 -6.25 -7.49 -7.67 2.02 3.48 -2.76 6.68 4.23 -0.61 9.58 |
