9.67 7.05 3.7 -9.74 9.46 3.74 -3.33 5.65 6.63 6.89 6.52 3.72 6.54 -1.56 -1.49 -7.95 -9.32 2.06 -4.56 -1.81 3.01 -8.85 3.68 -8.43 0.58 -0.44 -1.22 -7.08 -3.26 -7.61 -6.9 6.84 6.91 -6.18 -1.39 6.22 1.83 -6.99 -4.96 -8.78 -9.82 -6.76 9.92 3.58 4.12 9.67 4.29 -9.7 -9.84 8.63 -4.71 -1.22 2.68 -4.81 -3.68 -7.18 -9.86 -0.12 1.65 -6.77 -8.09 -6.34 0.6 5.4 6.71 3.28 3.8 -7.04 4.31 -1.16 -2.24 -9.63 1.89 -3.2 -7.11 -5.78 -1.54 -1.51 5.24 -2.25 -0.58 8.89 1.26 -6.5 -9.52 9.44 -3.77 -8.49 -2.9 5.33 -7.58 -1.13 -1.31 6.2 3.46 9.8 1.34 3.12 0.68 -0.1 1.2 -4.21 -4.94 2.4 -0.79 -3.61 7.51 -0.83 -5.3 -3.12 6.58 8.63 -7.23 6.31 -9.19 3.03 4.96 4.4 -8.07 6.9 -8.07 -9.33 2.27 -5.59 7.63 -8.04 5.31 9.48 7.58 6.49 -3.3 9.29 -6.22 -1.65 1.17 0.78 6.12 4.95 -7.31 -2.56 -5.53 1.83 9.57 0.19 3.4 -8.26 6.59 -5.72 8.56 1.5 -5.51 1.86 5.53 4.18 -6.81 1.91 -7.99 6.7 -8.77 8.42 0.27 -7.44 -3.53 7.26 -7.59 -5.25 9.05 2.57 -7.09 9.06 6.44 0.68 5.83 0.42 2.41 0.06 -4.86 8.09 -8.78 -4.28 9.94 8.6 8.24 9.15 -3.78 -5.86 2.81 -3.48 -4.06 -3.59 1.73 -6.46 2.04 -6.37 0.99 3.78 5.99 -0.86 7.78 -6.67 6.6 8.5 -6.95 2.83 1.55 -4.12 3.61 6.37 -2.04 9.04 9.09 5.49 0.76 4.82 -3.31 -3.27 0.52 -7.16 -3.74 -1.38 -1.25 -0.09 4.79 9.57 -7.54 7.94 -2.38 -7.01 8.87 -3.47 6.45 -1.23 0.12 -7.83 -3.37 -5.55 -2.16 -6.58 2.46 9.48 3.62 -0.03 -9.75 7.31 7.66 -8.19 -1.26 2.46 -8.83 3.05 -3.85 3 0.27 1.25 -3.12 -2.18 -1.62 -9.12 -3.8 -2.9 8.03 0.19 -6.09 -1.52 -4.59 -0.88 5.23 3.44 7.16 -5.13 7.98 8.05 -8.33 3.2 -7.54 5.75 9.63 -6.46 2.69 4.63 -0.44 -3.26 6.78 1.77 -1.51 -3.75 -5.14 -8.36 6.75 7.5 -0.79 4.39 -3.75 -2.42 -8.5 5.56 -1.71 -2.96 4.84 -8.1 -7.83 -4.8 9.76 -3.47 -6.51 9.41 6.21 8.49 -7.25 -9.38 -7.04 -3.27 -5.88 -1.3 7.88 -6.36 -6.07 6.32 -3.03 -0.16 -9.18 -1.81 8.6 5.25 -7.31 2.78 8.29 5.13 -0.29 -6.95 9.53 -8.86 -9.21 2.07 1.66 -7.18 -7.38 -1.92 3.88 -5.15 -7.69 -1.47 4.66 -3.1 6.67 -8.98 5.79 1 -5.12 -1.28 |
7.27 3.16 7.33 1.79 -7.63 -8.97 -5.59 -2.31 4.86 -9.33 6.79 -1.87 -5.39 7.89 8.3 4.43 2.07 7.21 2.02 6.85 -2.16 2.93 1.44 8.25 2.57 -2.34 0.85 -3.19 2.88 -8.34 -1.64 0.59 -9.74 -0.96 -3.75 1.4 6.52 -7.11 3.76 7.23 0.74 -4.6 6.05 7.03 7 -0.62 7.08 6.4 4.33 -0.99 0.17 -1.03 8.12 -6.78 -9.65 -3.33 2.9 -1.71 -4.47 0.97 -5.5 -8.48 3.92 7.63 -0.08 1.38 2.07 -2.43 -9.11 -1.08 7.34 5.67 -7.13 -7 -3.32 8.87 4.81 -1.78 7.9 -4.11 4.76 -7.44 -8.72 -8.09 7.15 -3.16 6.67 -7.38 9.11 4.86 9.32 -1.05 -8.01 -5.16 9.88 5.07 -7.48 3.05 0.34 8.13 4.57 -1.14 8.49 -1.56 4.25 -2.4 -2.31 6.21 -3.93 3.5 0 0.27 -0.83 0.66 1.64 5.55 9.52 -0.93 7.74 4.85 -1.14 9.02 7.23 -7.25 4.34 -1.52 7.17 4.43 -1.26 9.08 1.17 8.6 -7.85 -5.6 5.89 -5.51 3.39 0.61 0.26 -8.41 -2.68 -2.41 -5.12 -5.74 -4 -9.7 1.71 9.24 0.5 1.4 7.89 -1.92 -5.7 1.26 -3.04 5.97 -3.29 4.09 2.55 -0.24 4.2 7.07 -4.06 -5.52 -3.83 -7.6 -4.62 -5.1 -5.35 1.34 -6.17 -9.73 8.57 -3.66 6.95 -9.23 4.71 -4.03 5.79 8.37 -8.23 -6.93 -8.12 8.98 -5.13 4.09 2.65 7.67 8.22 3.48 9.1 -1.52 -4.04 8.92 7.75 -2.96 -0.99 8.53 -2.7 -4.78 -4.42 -4.26 -6.55 2.12 -0.38 4.82 -3.8 -4.68 -3.62 2.86 -6.69 -0.97 5.87 9.06 0.66 -4.28 1.11 -2.98 -3.28 9.13 3.38 -3.16 7.6 9.42 -4.25 8.09 6.82 -3.56 6.71 -7.87 4.57 -0.61 9.58 -7.08 5.05 2.73 -2.8 -7.18 -1.69 9.15 -7.03 -4.37 0.94 9.08 -9.91 2.25 0.88 -3.47 3.16 9.65 0.22 -7.44 -8.18 -4.83 0.65 6.18 -3.84 -9.48 7.07 6.89 -2.39 -6.62 7 -2.77 -0.12 7.68 8.09 6.78 8.97 8.4 4.83 -5.42 3.85 -2.94 -1.1 0.81 -4.98 2.42 -1.23 -0.44 1.92 6.29 -0.63 9.81 4.51 1.19 2.39 2.34 3.03 7.37 4.63 0.41 -6.15 -0.1 -5.69 8.39 1.78 -6.13 0.18 -0.73 -2.77 8.45 7.75 -6.41 -2.27 3.92 3.19 -8 0.65 9.46 -6.21 3.82 -2.52 9.7 -7.74 7.2 9.53 -2.91 -7.08 1.49 -4.11 4.22 -3.4 -0.31 1.17 6.38 -3.17 0.25 9.33 4.98 7.62 -6.99 -8.23 -0.69 -4.23 8.1 -1.2 -0.33 7.55 7.3 1.66 -4.71 -0.59 -8.46 1.47 -9.6 -6.2 4.15 8.73 -2.07 1.56 -8.47 -5.47 5.19 1.65 -5.79 6.68 -1.57 7.82 -0.38 -4.89 -6.48 -5.56 3.34 -2.21 8.49 -5.6 -4.06 -1.78 -8.15 3.39 -4.63 -1.65 4.99 9.93 -5.64 -0.31 1.41 8.03 -3.05 9.69 8.39 2.42 -0.3 -0.14 4.1 8.56 -1.58 -8.49 -2.73 3.7 -7.14 -8.56 5.7 -6.09 -3.71 6.94 4.42 -8.4 -2.9 0.71 2.39 6.11 1.77 -1.77 3.16 -0.9 4.82 -4.68 7.55 -4.35 -1.74 -3.08 0.54 5.92 -7.75 -7.93 -1.26 -0.57 -8.5 -8.45 -0.03 -5.67 -8.88 1.13 -9 -0.75 6.58 -3.25 -3.24 5.26 4.86 -3.92 -9.52 -8.7 1.43 1.47 -8.12 3.78 -2.39 2.02 -0.18 8.99 -9.99 -4.28 -6.28 8.52 -9.69 -5.44 -7.09 7.03 -9.65 -2.33 4.84 1.83 5.84 -3.69 5.63 0.47 6.8 -8.31 -2.79 -8.96 7.7 -4.48 5.83 -0.73 -3.1 -5.18 2.19 -6.28 -8.25 -5.83 -3.48 -5.54 -8.81 -7.71 -0.51 -0.72 5.29 4.68 3.61 -3.9 -0.06 -4.94 -1.96 3.82 -1.63 4.95 -4.53 -7.84 -5.44 7.06 -8.42 -6.12 0.26 -4.36 2.46 5.54 -5.48 |
-8.57 -0.98 1.03 -0.73 -1.78 -6.59 4.25 7.72 -0.23 -6.22 -7.98 7.93 -9.33 -5 4.64 7.13 0.15 9.45 3.82 5.26 0.19 6.8 1.36 -9.71 0.76 4.7 0.72 4.9 8.3 -8.95 -3.06 -5.43 9.72 -4.51 3.26 6.75 2.94 -8.9 5.3 -2.07 7.89 4.36 4.55 9.69 5.27 -4.65 3.19 6.76 0.82 -0.82 9.53 0.73 4.16 4.48 7.58 6.85 -0.71 -4.47 6 1.46 0.47 3.15 -7.59 -8.17 -4.11 -2.35 -6.62 -9.02 -0.28 -0.72 -6.07 3.38 -1.37 -5.37 5.72 9.45 -7.36 6.87 -7.3 3.9 -4.6 -4.81 8.89 -3.17 0.57 3.78 -7.85 7.89 9.6 -4.39 3.37 1.95 1.37 -3.98 -6.01 -5.5 -4.27 -0.09 -6.04 5.82 -7.29 6.31 4.06 6.91 -6.23 4.34 1.83 -2.68 -6.09 -6.21 4.7 1.4 -4.07 0.39 8.09 8.52 -8.23 6.38 7.83 -8.61 |
