-0.97 -2.68 -4.49 -8.37 -1.41 0.06 -2.37 -4.45 -2.26 0.28 -2.6 -6.21 3.29 -3.61 -0.32 -6.88 -1 7.29 -3.66 2.59 -1.45 4.82 2.39 7.47 7.82 -5.32 2.39 -9.63 -4.92 9.32 8.61 3.82 6.36 9.2 -2.6 -5.76 -0.96 9.78 6.14 5.89 -9.9 2.1 -2.28 -5.87 -3.85 -4.42 3.91 6.42 -7.66 -4.22 1.02 7.88 -8.49 -5.73 8.35 5.2 0.96 -3.7 4.23 -5.66 -8.99 -2.16 -0.59 1.84 0.17 5.29 6.07 -0.84 -9.76 -5.91 -0.8 2.57 4.95 -9.44 -8.44 0.67 3.31 -1.89 9.12 -7.39 3.72 -3.92 -3.86 -9.27 8.3 0.77 -5.59 -5.48 -0.98 2.1 -1.83 9.87 9.54 2.04 -3.32 -2.48 7.14 -2.84 -7.44 5.48 2.27 -4.21 7.3 9.72 2.05 -5.06 1.73 -9.23 -4.04 -2.42 0.79 -3.57 7.27 -7.88 6.17 -8.87 -1.7 7.36 -4.85 -7.36 8.15 -1.1 -3.41 -5.24 1.81 -6.59 5.27 5.22 -1.5 6.62 8.93 2.53 -7.85 1.53 1.82 -2.72 -1.2 -5.99 -5.45 7.16 -7.54 -2.96 9.36 -3.62 3.95 9.26 3.28 4.78 -9.77 -6.73 2.25 -8.08 8.65 -4.07 6.54 9.74 -6.36 -4.24 -2.1 -5.24 6.13 -2.29 6.21 -1.2 -4.88 -6.26 -2.93 0.89 -1.83 6.91 -2.15 3.52 7.13 -8.12 0.39 6.22 0.25 -9.34 -1.79 2.07 9.76 -0.5 -2.68 -6.27 -9.51 1.21 6.31 3.35 -3.59 -1.93 -9.79 7.9 5.83 -2.36 -0.7 -1.07 -0.09 7.47 5.98 7.72 -0.99 2.61 -3.44 -1.85 -6.5 -7.26 4.59 4.91 -4.56 -4.67 -6.57 0.29 9.34 9.82 -5.45 8.22 1.87 -1.43 9.49 6.18 3.83 -0.41 4.9 0.45 -2.11 5.23 -3.05 -1.03 8.37 -2.36 -8.38 5.34 5.21 -7.13 -1.37 -0.53 0.16 -2.51 9.18 -7.74 9.33 -2.26 3.85 0.23 4.24 0.61 -7.01 -4.62 9.74 4.07 -8.03 -9.07 9.1 -1.66 6.09 3.67 7.4 -6.32 9.52 4.03 2.58 -2.9 5.73 -6.83 -4.01 5.69 6.43 -0.9 -4.42 3.94 5.22 -3.51 -1.18 -4.58 4.2 2.9 0.49 -3.44 4.35 4.22 7.83 -6.74 -0.55 -5.66 5.06 4.52 9.6 2.03 6.88 2.94 3.03 -8.95 -8.09 -4.76 -2.97 2.84 8.91 -1.57 6.02 -8.67 -9.88 6.43 1.03 -4.48 6.23 8.7 1.48 4.75 3.27 -8.44 4.06 -4.64 -3.2 -3.43 -9.01 1.52 -4.82 0.49 6.14 3.15 6.77 -2 3.08 -5.76 3.81 8.79 5.46 -6.7 -0.82 5.49 -8.58 5.73 3.29 2.78 -9.84 2.46 6.46 -7.13 -6.65 -6.47 -0.67 -0.89 5.89 -6.28 6.16 -4.97 -2.03 7.66 1.42 -1.77 |
7.38 5.61 9.24 -9.47 9.91 -5.62 -6.87 8.24 -4.65 -6.24 -7.76 -1.4 1.4 -0.27 2.22 -5.06 -0.53 -6.93 0.41 5.95 -6.45 -2.48 9.06 -2.1 5.76 -8.85 -1.25 2.54 -5.68 -0.57 5.65 7.21 7.94 -4.59 3.24 2.81 -5.67 -6.45 -9.44 5.22 -7.01 3.38 2.46 -2.61 9.98 -8.19 0.04 -2.01 -2.04 5 6.27 5.42 3.33 -8.02 2.58 -9.84 7.66 3.82 -2.72 -2.9 -9.96 9.58 7.67 0.12 -9.23 -1.14 6.14 -6 -0.25 0.41 4.89 -8.52 5.11 5.4 9.67 -1.88 4.18 7.08 5.32 5.6 -6.52 4.92 -4.74 7.22 -0.61 6.07 9.53 -2.18 -5.36 -5.63 6.66 -9.67 3.79 0.15 -9.67 -8.49 8.26 7.05 -2.29 1.85 -2.37 2.96 2.66 2.35 1.52 -8.65 0.16 6.1 2.59 6.5 -9.38 -0.16 -0.82 -7.1 0.43 9.71 -4.22 -2.48 -0.21 9.25 0.6 9.08 6.28 7.9 -7.22 -8.08 -1.19 -7.24 -6.12 8.32 7.96 8.07 -5.51 8.81 4.97 3.63 -4.26 -7.65 -3.21 -0.33 0.28 2 8.02 -4.62 3.77 7.57 -5.96 5.89 -2.64 8.4 2.7 5.5 3.17 -0.62 3.89 -0.45 -1.53 3.85 7.37 7.88 5.6 -2.19 -0.69 -7.09 -3.78 -1.39 1.82 -6.21 -0.87 2.85 5.66 -0.11 -9.84 1.38 -3.45 5.1 -4.09 -3.11 -6 3.22 3.45 4.95 -4.62 -4 -7.28 0.15 -1.24 -8.43 2.58 -3.64 -8.19 -8.06 3.22 3.93 4.01 -9.62 1.84 -3.37 8.83 8.67 1.66 7.14 1.88 4.14 -5.05 7.74 0.11 -2.83 -3.34 -6.26 -9.21 -3.11 -8.74 1.01 6.06 3.65 4.58 5.37 -1.11 -4.17 6.76 -4.82 -5.04 0.45 -8.82 8.51 8 -3.98 -3.57 -1.2 -5.02 8.74 -9.77 -9.74 2.43 -3.45 3.68 4.36 -0.07 -0.94 5.56 3.38 2.67 -3.25 -0.41 6.62 6.98 -7.24 2.75 5.49 -7.63 -4.18 -9.8 0.02 3.69 2.92 6.91 1.61 -8.3 8.39 -5.95 5.75 7.23 7.6 -1.83 -2.6 4.21 4.51 -8.58 9.43 6.67 1.81 -7.38 3.4 -6.55 0.94 -5.02 4.94 6.76 -1.74 -8.4 -3.61 -5.69 -1.97 -5.26 -0.77 -8.5 -7.38 2.09 -4.97 2.34 9.17 2.94 0.49 2.38 -6.26 0.75 9.27 -6.71 8.65 1.64 -7.97 -4 -5.52 3.89 5.98 -8.5 2.16 -4.73 -5.55 1.41 4.28 9.52 6.67 -3.95 -5.12 -7.19 -3.27 -4.79 -5.58 6.64 4.93 1.21 -7.23 -2.21 4.64 -4.19 8.14 9.5 -2.54 -0.57 2.82 -0.34 2.3 6.85 -2.69 -3.14 -2.36 -8.02 9.86 -3.59 4.76 7.41 -2.34 -1.62 7.4 -2.04 0.16 -7.3 7.74 7.92 2.61 9.77 5.83 -0.78 8.81 2.36 3.69 -2.37 -3.42 -0.88 3.86 0.17 -4.59 8.04 6.64 6.87 1.86 -1.72 -1.35 6.92 2.64 -5.97 -2.53 -3.51 -5.97 5.16 5.38 3.55 -1.03 -7.73 2.11 0.51 2.92 8.34 5.57 -7.36 -5.75 4.26 -9.8 0.43 5 9.36 3.32 -7.06 3.77 0.73 -0.07 -8.84 -5.65 -7.77 2.57 6.61 3.73 5.47 -4.19 -7.9 -3.16 7.48 3.64 6.17 -1.89 9.43 -2.57 6.14 4.11 4.5 6.85 -7.54 -5.74 -4.09 -3.07 0.69 -6.07 -3.58 -5.66 6.02 0.29 2 -9.32 -8.08 -1.68 7.89 9.9 2.79 4.15 2.68 -6.92 6.78 -5.78 -8.94 -4.21 -8.22 0 4.29 -6.51 -5.7 5.42 -3.1 8.59 7.75 -9.57 7.93 -9.53 -7.58 3.91 4.68 6.71 -9.07 -8.69 3.12 9.02 0.06 3.26 2.58 0.38 -3.68 -0.58 3.13 2.64 -0.19 9.07 -0.06 -6.13 -3.5 -4.53 -1 0.22 -8.5 2.5 -0.34 9.31 -0.64 0.69 -2.44 -7.11 8.25 -5.37 -2.68 -7.59 -2.17 -6.75 -0.06 -5.87 4.41 -8.01 5.84 7.91 -6.51 -1.19 |
4.49 4.08 3.92 4.39 -1.07 8.44 1.07 -2.77 2.91 9.52 5.65 0.04 -0.61 8.51 3.47 -0.14 -0.92 -4.08 8.84 0.58 4.53 -1.6 -4.07 -5.68 8.15 5.72 -4.85 5.55 4.94 -1.94 4.39 -8.23 7.31 -8.03 6.85 9.62 -0.09 0.84 7.21 7.69 3.81 2.32 -4.21 6.73 -2.12 9.42 7.32 -4.38 -4.02 8.69 6.84 -9.71 -7.03 5.42 4.42 2.71 6.77 1.94 7.54 -0.69 -1.48 -9.77 0.01 5.21 -4.29 -6.68 -5.75 2.65 0.63 4.05 2.54 -6.54 9.94 -9.85 3.74 4.23 -4.57 0.51 -0.11 -4.57 8.95 3.2 8 -4.37 9.54 4.16 1.75 -7.9 6.25 3.52 5.36 7.26 -9.79 -6.84 -4.85 0.35 2.38 -4.37 -7.01 3.65 3.98 -3.2 5.72 -9.45 9.73 -6.37 -7.71 7.34 5.88 -9.74 -9.04 4.67 5.68 -5.99 3.94 1.26 -9.99 -3.15 0.05 5.36 |
