9.64 -8.04 2.9 -0.84 -8.03 -7.25 -7.21 2.06 4.44 -6.98 5.51 -0.27 0.57 -8.94 5.53 -2.77 -4.58 7.97 -8.01 7.88 6.16 5.67 8.75 6.57 -6.62 3.52 -5.87 7.31 2.93 -1.29 7.88 -6.14 1.76 0.46 -4.03 9.81 6.72 -1.68 -0.64 -1.33 -4.91 -9.21 9.07 -9.72 -6.04 5.48 -5.24 -2.23 9.74 -2.39 7.33 -3.83 7.82 6.52 5.72 5.77 0.2 -7.57 -6.82 -7.84 -3.97 4.46 -7.3 -4.24 7.92 4.71 0.65 0.28 7.09 -9.95 -7.54 7.65 8.22 4.37 -9.46 -0.02 7.85 -7.77 -9.16 -2.39 -6.69 -8.3 4.12 0.77 -7.33 -6.59 -8.84 -4.01 2.53 1.25 -0.84 -3.57 1.22 -0.69 -3.8 -2.57 -7.44 -5.31 9.74 3.98 7.62 -7.47 -3.08 2.13 -5.7 5.63 2.04 -2.96 3.85 2.3 4.61 -5.79 -0.11 1.92 2.99 9.59 -6.76 3.38 9.56 0.48 2.15 -4.05 0.53 -6.89 -7.58 9.93 0.72 -3.91 0.07 -5.1 7.93 0.81 -1.62 -1.47 2.99 9.1 1.8 -7.8 7.77 -6.92 -9.83 -2.23 -3.57 -7.95 9.1 -6.8 5.9 -1.89 -3.12 -3.73 6.7 6.47 4.62 4.83 6.04 -3.19 4.15 8.38 9.13 -4.81 -6.17 -0.16 -0.74 0.76 2.13 -3.17 7.77 -2.16 2.82 -0.21 -6.31 5.12 -3.5 3.28 3.77 5.67 1.33 5.7 -2.94 5.61 -4.23 2.34 -3.05 -5.13 -8.93 -1.92 -8.46 7.61 6.4 -3.84 -8.68 -6.05 -0.63 -2.03 9.38 -4.96 -8.74 3.14 -1.73 -6.58 1.86 -9.81 -8.96 1.27 -9.51 -5.64 -0.49 -0.26 3.76 -2.05 -4.73 6.54 -8.03 2.97 -6.13 9.88 -9.53 -8.72 1.38 -2.92 -4.44 -5.37 9.57 -0.61 7.93 -6.51 4.08 5.23 2.79 -0.59 -3.84 -8.41 -8.06 9.1 0.34 -0.77 0.36 3.97 -9 -8.81 -2.39 -9.75 -3.78 -0.68 -9.41 6.69 -5.63 9.97 0.04 5.88 0.96 -3.97 -9.65 8.85 7.26 0.27 8.25 -8.07 -9.08 1.26 3.99 5.54 -1.26 2.57 -9.67 -4.99 0.31 2.65 2.38 -2.83 5.5 -9.51 1.24 5.49 6.11 9.53 -5.73 -9.29 2.13 -2.35 -4.76 2.14 4.3 -8.48 5.41 0.61 2.84 -0.64 8.76 -4.68 8.91 7.71 -8.41 3.82 -4.32 -2.88 -0.99 0.72 3.2 -8.95 2.41 -6.35 -2.16 -7.62 0.64 8.81 1.72 8.82 -6.56 -3.36 7.42 -1.12 -6.84 5.6 2.34 6.27 3.95 4.91 -3.12 3.21 6 9.58 9.44 1.32 4.76 1.84 2.64 -1.15 -5.15 7.29 -2.2 -4.55 7.27 -4.52 0.23 6.35 -1.03 8.7 -0.82 9.13 6.66 7.92 -7.52 -4.45 -0.68 9.32 8.27 0.26 9.06 3.83 |
4.48 -9.85 -4.13 5.9 3.25 -3.04 -3.62 -7.64 2.15 4.28 -0.16 3.02 -0.36 -5.7 -0.02 9.49 -3.6 7.61 -3.72 3.01 8 -6.31 5.85 3.04 8.72 5.85 3.71 -6.47 8.07 -2.21 -4.54 0.27 6.69 0.57 -2.55 4.77 5.8 2.96 5.5 0.73 -0.05 1.36 2.42 6.16 -8.87 2.97 -7.93 -0.57 -3.18 3.47 -4.39 4.74 2.18 1.26 -1.63 -5.8 -6.55 5.29 -1.56 8.47 1.15 3.41 -3.14 -8.58 -5.68 8.47 -9.4 3.48 -6.83 7 7.42 6.96 0.78 2.81 -2.6 -6.74 1.5 -5.42 -5.33 4.52 2.39 8.41 5.08 9.6 6.64 2.04 -6.59 5.27 -3.76 -1.02 4.17 -7.68 -0.21 8.49 3.3 2.98 -9.42 9.61 -1.25 7.87 -8.53 7.48 -5.24 2.3 -8.93 -2.81 9.65 2.57 4.62 6.33 -9.21 -1.82 -0.95 9.46 -5.71 -1.17 -6.39 -1.64 -1.88 1.34 7.89 -9.01 -5.28 -4.71 5.53 9.94 2.2 8.47 1.73 -9.8 -6.4 8.92 -0.04 -1.67 3.72 -5.79 -0.64 5.61 5.3 -2.2 -1.58 5.05 -2.85 4.9 1.08 3.17 7.59 -5.51 -7.04 3.36 -9.23 -7.9 -2.13 -1.46 4.26 -7.46 -2.49 6.42 8.57 6.85 7.83 -5.97 7.27 -3.19 -2.1 -4.27 -8.97 4.15 -1.63 1.11 1.23 9.12 -4.61 4.75 0.56 5.78 3.12 6.17 1.03 2.98 2.42 5.78 9.89 4.87 -7.64 9.56 -8.35 -6.85 -9.57 -2.01 -6.82 5.2 -2.77 -5.82 6.57 -0.7 -0.35 2.39 -5.67 5.3 -9.95 -8.59 3.46 -0.03 -9.06 -5.01 -7.79 2.99 -3.83 4.69 -9.11 -5.64 5.99 0.58 3.67 -7.37 6.8 3.08 0.24 8.6 6.07 -1.37 -0.18 3.07 1.05 -0.19 -4.35 5.41 3.81 -4.43 3.57 -9.88 0 6.33 2.09 -1.95 9.79 -0.7 -8.8 9.73 -7.24 -1.44 2.9 -8.18 1.91 4.54 -4.62 4.15 3.12 -3.25 -6.35 4.24 8.57 8.75 -8.28 9.93 1.41 7.13 7.88 2.88 -4.81 2.9 1.79 -3.56 1.93 2.32 1.45 4.16 8.67 9.13 7.25 -7.36 9.95 -6.52 4.95 -8.17 0.06 1.06 1.35 1.12 8.4 -1.48 7.53 -9.07 -9.62 -9.33 -1.68 -6.44 -5.6 9.76 6.59 -4.37 0.63 -7.94 -7.52 -9.88 -1.4 -0.58 -3.13 0.07 -5.53 4.31 -7.2 -8 -1.65 5.12 6.7 7.64 8.37 -8.95 1.6 -2.15 2.72 8.11 6.28 9.56 -7.73 -0.28 -6.05 1.8 -6.28 -7.97 -2.72 -1.41 4.65 -7.07 9.83 7.95 5.13 9.82 -4.88 2.42 2.69 0.29 9.51 0.54 5.79 9.41 -5.36 -9.19 8.39 8.6 9.6 2.59 6.04 4.56 8.34 -7.97 -2.59 9.55 -9.72 0.64 4.29 -2.95 -5.06 2.05 -8.38 2.5 -7.52 7.8 9.33 7.29 2.99 7.55 -7.35 3 -1.76 -9.87 -7.93 -8.28 -8.79 -9.77 -7.69 -5.6 1.51 3.07 -2.27 -9.77 -6.36 -7.41 -8.7 -2.68 5.46 7.32 -9.51 -2.17 9.42 5.13 -2.36 -3.49 -7.7 5.66 7.34 -7.09 9.6 8.16 6.28 5.2 -8.93 -7.03 -3.18 8.11 8.38 -5.19 8.24 2.95 5.18 6.97 -3.45 7.11 2.62 -3.51 -5.14 5.97 5.5 -6.33 9.95 0.08 7.95 -5.51 6.71 3.04 9.05 9.1 4.9 -6.9 -8.16 7.49 -3.85 8.55 7.89 0.76 3.67 -3.47 -0.03 4.81 -7.54 9.49 -8.19 6.82 -2.13 -0.66 7.17 -6.86 -0.21 -0.75 6.6 8.23 -1.99 6.5 6.31 8.78 -0.95 -7.49 -4.93 6.05 -5.57 1.85 4.84 -6.57 0.49 5.68 5.15 -0.27 -0.77 -6.72 -0.69 -8.29 -3.83 -3.76 -2.94 -8.29 -7.94 -8.56 -1.83 7.92 -6.02 6.53 4.02 8.84 8.66 -0.01 -7.35 -7.29 -1.94 -7.8 5.61 -6.07 7.29 -3.32 -4.51 -9.26 3.31 5.57 -0.25 -3.84 -2.73 5.73 4.96 1.86 |
-4.74 -9.93 -5.79 -0.83 7.84 -3.69 6.13 -3.67 4.45 -7.13 -9.56 -9.5 4.55 -1.85 7.93 -0.26 -7.64 9.57 9.97 -6.93 6.01 3.58 -3.25 4.31 -9.03 -3.02 7.5 2.89 -6.4 -8.14 -8.21 7.65 -7.93 1.15 8.39 8.15 5.44 4.49 -5.23 8.31 9.84 6.03 -6.05 4.22 0.67 1.91 3.99 9 4.59 -7.23 -1.34 4.37 2.12 3.1 0.07 -2.39 7.99 3.05 0.77 9.68 0.87 -8.37 -8.45 6.14 -6.98 -5.6 6.54 -9.68 7.48 -3.98 5.75 -6.64 -5.02 7.2 4.41 -8.37 -8.55 3.64 -5.77 3.36 -1.02 -5.56 -7.88 -6.08 0.98 -9.85 6.09 -4.07 -1.88 3.99 -8.39 5.11 7.01 8.75 -7.45 6.47 1.05 -3.25 9.81 -0.96 0.45 -9.65 4.76 -8.77 3.79 -5.79 2.25 -1.8 -7.88 -0.09 1.52 2.06 -5.07 6.78 8.06 5.76 -5.39 -7.2 3.58 -3.46 |
