6.08 5.48 -7.48 2.69 -9.59 -9.71 3.73 -5.34 7.97 -9.65 0.97 -1.54 9.51 -7.37 1.33 -2.56 9.04 -9.04 3.64 4.53 5.9 -7.04 6.17 -0.88 4.14 -2.88 8.97 -6.52 6.97 9.9 -0.78 -5.09 -5.07 -6.19 -0.55 0.31 -9.73 -4.21 9.34 -1.61 1.82 -1.68 -1.54 -8.96 5.14 -6.1 1.66 -2.34 4.54 1.07 7.17 -2.92 2.02 -4.37 0.43 1.16 0.55 8.71 -6.77 0.09 -9.98 -2.06 -4.69 -0.42 -1.48 -7.36 -10 8.46 -2.51 -2.58 5.78 1.38 -3.58 -7.43 7.36 -1.19 0.94 0.54 8.69 -7.03 6.57 -9.75 -9.76 -3.13 9.88 -8.72 9.59 5.34 5.28 -3.19 0.31 -8.19 8.29 1.91 2.6 -9.56 -8.1 -4.11 -6.32 -3.68 2.96 -8.89 -1.03 1.56 4.5 6.91 -3.17 -4.86 -4.26 -0.85 1.56 5.2 -6.58 6.41 9.77 8.21 -0.35 3.4 6.97 -1.93 -9.26 4.11 4.77 -8.83 4.46 4.66 -7.6 4.85 -1.93 -9.56 -8.03 -4.21 -5.21 -0.47 1.4 -8.64 6.82 -6.17 -2.9 -8.33 1.62 -3.81 8.36 -2.79 -3.94 6.2 -2.97 7.12 7.44 7.94 8.04 -2.95 7.81 -6.76 -5.65 -2.84 6.32 9.44 -9.84 3.13 -9.92 -7 8.04 -5.93 7.52 -4.63 6.83 6.21 0.35 -6.44 1.17 2.52 5.95 9.03 0.03 3.69 6.29 1.53 6.81 -2.71 8.34 -7.04 4.69 4.93 -9.64 8.96 -2.25 -9.28 2 -3.97 -5.48 -9.39 3.47 -6.47 0.49 9.1 0.24 9.33 7.18 2.36 9.91 5.49 -9.7 0.14 9.59 5.07 2.35 -7.12 -7.12 -4.62 9.41 5.59 -2.57 4.12 -1.39 9.46 -0.47 4.5 3.58 8.42 5.12 7.5 9.03 7.98 -6.35 5.67 2.22 -4.2 9.43 4.95 -8.67 3.4 -1.35 1.43 -2.12 -7.26 5.53 -9.44 -3.68 -9.11 -0.57 3.24 -2.86 3.58 0.9 -2.99 -8.42 5.49 9.88 4.81 -3.12 -5.57 9.89 -7.78 1.03 -3.49 -3.16 -1.14 -7.74 6.85 9.54 1.79 6.56 -8.01 5.94 -3.83 -1.55 3.84 -6.78 -8.41 7.88 4.04 4.62 8.76 1.54 0.69 7.61 6.81 -3.05 7.14 -1.17 -6.65 -6.46 -7.42 5.41 -0.46 6.84 -3.34 5.48 -8.29 4.28 -8.32 7.34 -5.28 -7 5.39 8.61 -1.63 -7.96 -9.79 -0.61 -5.23 -1.47 -7.27 -4.02 -6.48 -9.11 7.3 -3.2 -8.51 -0.34 -9.82 3.37 -9.46 -7.44 7.85 4.45 1.83 8.98 -9.45 -2.45 -9.92 1.8 -7 2.19 3.11 -4.5 1.88 2.78 -1.99 -0.21 -9.69 0 -4.54 -2.53 -1.36 -0.03 -7.01 -9.98 7.56 5.09 -5 -2.33 4.93 4.16 4.2 -0.12 4.33 2.52 -0.12 |
-0.12 -3.28 5.59 4.02 0.41 -0.92 4.77 -6.93 5.26 7.34 3.55 7.89 7.28 -0.76 -3.6 -5.35 2.51 8.44 -3.62 -1.64 -2.04 -9.89 9.3 -0.91 0.66 -9.18 -5.51 7.77 2.59 -6.89 8.34 -7.58 6.62 5.44 4.46 1.9 -6.98 -9.25 9.06 -7.18 6.13 1.52 6.6 1.65 -0.41 4.97 -4.3 8.58 -5.74 3.33 -0.3 2.11 -8.27 -0.59 1.54 -2.54 0.09 -9.86 9.56 8.51 -3.95 4.01 -5.99 2.44 -8.8 -7.98 -8.71 -4.38 9.65 1.42 8.95 3.93 4.17 3.05 8.65 5.85 8.37 -0.11 7.55 -6.8 0.73 -5.66 8.21 4.08 7.05 -5.68 8.41 -5.82 4.23 2.44 0.6 7.39 -8.91 -2.37 -6.14 -7.81 7.35 -6.45 3 3.73 6.59 5.8 -8.98 -8.94 -7.4 -4.64 3.89 -2.35 2.35 -2.79 -0.95 -4.09 -4.09 -2.89 -2.1 -1.35 2.91 6.38 -1.43 9 -5.34 7.73 2.62 -4.09 4.82 -6.85 2.9 3.11 0.45 3.29 -8.05 0.72 7.54 0.33 4.14 -5.19 8.43 1.09 -3.82 -1.61 1.41 -7.97 5.6 5.22 -2.23 2.87 -5.23 5.18 2.8 -9.29 -0.71 -5.76 3.09 9.7 1.78 -4.13 8.26 0.69 -3.09 7.78 -3.07 -7.2 -8.53 -6.05 5.8 -2.98 0.3 0.69 9.34 5.03 -6.12 7.73 -6.43 -2.14 -0.29 -9.58 -5.37 2.92 4.13 -1.05 -5.11 -7.8 -3.81 2.66 -3.64 9.15 -0.76 3.58 4.53 -2.88 4.5 -2.27 1.75 1.14 -5.5 3.67 8.45 -2.26 -4.49 -2.66 -1.77 1.84 -8.96 -6.15 5.82 -2.92 8.04 -9.57 3.34 2.63 6.63 -5.33 6.16 9.78 -6.73 9.19 1.05 0.32 9.44 -7.88 -1.44 -7.44 -4.82 1.99 -3.2 2.03 6.68 9.71 2.04 -7.38 -7.62 -5.8 9.57 -8.5 2.32 -9.79 -3.96 -3.6 -0.61 -2.84 -1.91 8.91 4.13 2.4 8.56 1.94 -7.45 9.75 -5.66 2.47 6.99 8.74 5.69 -7.12 -5.04 -5.98 2.27 9.54 1.53 5.6 -8.97 1.63 1.03 -3.83 -5.47 7.71 0.54 -6.25 -8.78 1.33 6.63 1.29 -4.02 -3.03 -4.87 -0.18 -3.14 -7.71 -2.97 -7.22 9.76 7.13 -1.82 6.43 -8.42 0.74 3.16 3.39 6.97 4.6 -0.34 -7.71 -4.82 8.05 0.52 6.8 2.93 -2.85 -2.74 -1.26 -4.93 -9.74 2.72 -8.44 2.7 9.85 0.56 9.26 -8.7 4.21 0.85 8.87 -7.43 6.92 -4.06 8.74 -3.55 2.97 5.64 -2.28 -5.23 -6.62 6.48 2.48 -3.75 6.37 8.56 -5.58 4.27 -4.72 9.26 -2.4 -9.01 2.81 1.92 -9.12 4.56 1.25 0.49 -7.16 -5.71 -9.82 7.74 -0.76 -0.17 -3.73 -4.2 2.7 1.8 4.15 8.24 -1.49 2.88 -8.02 -0.53 7.47 9.26 9.91 -0.37 1.81 -4.72 9.3 -1.23 8.45 -0.09 0.66 -8.88 3.32 -2.91 9.66 2.93 3.75 -8.83 -8.51 -0.52 6.26 0.5 4.5 -7 -1.23 7.1 8.64 4.78 -7.55 9.99 9.95 8.83 -7.47 -7.11 -8.74 9.76 -8.77 -5.84 0.82 -0.1 0.54 9.01 6.25 9.76 3.56 5.77 1.3 -0.31 -6.98 7.04 9.59 3.72 0.43 -8.02 -0.48 8.64 6.73 7.01 -1.63 2.05 -5.95 5.14 7.94 -1.46 9.37 1.64 -5.13 3.56 3.53 -6.12 -8.38 -5.95 8.14 -5.55 -0.12 -7.47 -9.93 2.51 3.48 0.13 -9.63 -8.37 -3.59 0.39 5.94 -5.19 -9.11 3.98 -6.48 -0.39 4.88 -2.33 0.62 -3.06 -1.72 -3.51 -9.14 1.79 -0.13 1.02 5.7 8.78 6.21 2.88 6.66 7.96 -2.69 -9.97 -3.97 -5.29 7.74 -7.26 3.49 8.75 7.16 6.38 -5.49 0.99 -9.74 2.88 0.78 3.07 -6.32 -7.5 -1.82 -7.17 -2.17 -4.74 -2.22 1.92 5.22 -9.97 -3.52 -1.24 2.38 7.62 -1.87 -2.35 3.22 9.56 -9.71 -0.11 3.72 0.63 8.83 |
-8.19 -6.02 -1.88 8.75 -4.56 8.65 5.6 -5.99 7.95 5.8 5.67 2.3 -2.56 -9.51 9.03 -0.18 9.66 -3.19 -3.54 -5.59 -2.15 -0.98 -7.15 9.92 5.35 2.39 6.39 2.24 4.81 4.22 5.17 -0.94 -4.27 -3.3 2.51 0.52 -9.62 -5.24 -1.26 -7.9 5.56 3.22 -9.99 -5.65 -5.47 -1.4 -4.73 -2.28 7.86 -2.83 -6.1 7.65 8.9 6.41 -6.35 2.74 8.24 -8.59 -3.76 4.91 8.26 0.84 5.26 5.85 -9.76 -7.55 2.29 -6.91 5.96 0.43 -5.46 1.93 -1.06 9.29 -9.49 0.2 0.11 -3.56 6.27 -7.39 4.14 4.97 -4.01 9.89 5.96 -5.67 3.8 -0.12 -3.54 0.05 8.23 7.29 -1.21 8.31 7.55 -6.38 -5.73 -9.28 -6.16 4.32 8.49 8.83 1.44 5.25 3.02 -1.08 1.65 9.01 -9.56 9.31 8.94 -1.64 4.95 6.19 6.68 -9.03 -7.95 6.94 8.29 6.61 |
