-5.19 6.3 -6.09 -5.12 -7.37 -9.87 -0.09 4.32 -0.84 5.33 4.95 -7.11 0.8 -1.98 4.73 3 5.11 6.08 8.01 0 4.88 -0.24 6.88 -3.77 0.91 0.74 -2.34 2.25 7.03 7.12 3 1.74 9.35 -5.03 3.57 -2.95 -6.29 9.1 2.66 -0.21 -2.41 6.09 7.38 1.04 -7.38 -9.68 4.9 -9.05 3.94 -6.68 2.57 -2.5 0.42 -2.39 4.11 3.07 6.95 8.94 1.31 5.57 6.42 0.81 -8.35 9.36 -2.27 8.86 -4.49 9.76 -4.6 4.41 8.1 4.16 -7.86 4.68 7.42 -2.63 9.34 -0.73 2.11 7.84 3.79 -1.29 -9.06 -8.55 -9.31 -7.81 0.09 9.98 7.23 4.71 -8.46 -6.06 3.69 8.25 1.69 3.42 3.95 -7.31 3.61 5.24 -9.02 -4.38 -1.17 6.1 -0.47 -6.15 -3.44 -1.04 -3.09 1.92 -7.02 6.97 -8.3 6.59 4.02 2.47 7.11 -6.61 -2.33 4.3 -5.09 -7.19 -3.86 0.16 3.43 2.47 -4.68 -3.97 -4.85 3.56 -9.19 0.37 -7.65 -9.82 4.85 6.81 -2.99 -5.66 -2.58 -1.78 -4.93 -3.31 2.3 -7.08 -0.21 8.73 7.79 -6.47 -5.18 9.21 -1.9 -2.09 7.54 -9.95 4.42 0.6 -6.74 -1.35 -8.75 2.71 6.84 -7.78 -8.47 8.69 -3.16 6.29 -5.34 8.77 -3.2 5.29 4.67 3.58 8.56 -1.54 -3.8 6.99 -4.73 -3.91 5.73 -7.18 -0.79 6.67 -5.22 2.44 6.72 8.59 -1.17 -6.34 3.34 8.56 2.15 -1.77 7.54 2.13 3.54 1.49 -1.88 -6.16 6.72 2.79 3.46 1.7 -2.21 -8 0 1.42 -6.87 -4.91 -6.68 5.83 -8.23 9.59 5.3 -7.31 -9.44 -1.4 -5.32 -0.6 -4.86 5.34 -1.84 -9.19 -7.95 4 -8.18 -7.03 -4.22 6.56 8.45 4.78 3.86 -9.83 -7.23 9.89 -8.95 -0.39 -8.63 -7.91 1.88 -1.88 3.91 9.43 8.52 7.99 0.39 1.33 -3.82 -6.47 0.3 0.57 -4.29 1.55 -4.62 -8.07 8.93 3.29 -1.08 -2.1 -9.06 -9.62 0.05 -8.96 3.21 5.2 -8.08 -7.66 -8.93 7.31 2.29 -0.78 -7.59 -8.86 9.09 4.57 -0.37 6.6 5.43 -9.89 5.06 -1.47 4.04 7.88 5.61 8.06 -5.27 2.81 -3.05 -2.44 7.97 8.71 -1.46 -5.95 -0.21 -7.35 -4.3 2.76 -9.67 -6.05 -1.64 3.79 5.9 -3.94 -1.54 -8.24 6.52 -2.17 5.93 -2.69 7.2 -3.89 -3.67 -8.65 -0.08 -7.77 1.84 -4.01 1.24 0.56 -0.51 -0.85 -8 7.11 -1.06 8.5 3.32 6.34 2.67 7.32 8.04 -8.21 -9.34 -1.89 -7.09 -1.05 -7.81 2.68 -2.05 3.38 -3.78 8.73 -8.44 6.39 8.07 -1.19 6.7 1.42 5.11 1.29 -0.68 -0.65 |
-9.91 -7 -4.1 -3.44 3.12 -2.21 -6.85 9.51 9.57 -6.17 9.88 -7.45 -8.91 8.46 -5.46 -0.06 -6.72 -8.89 -4.47 -9.58 0.88 9.95 -8.77 -9.86 -0.94 9 1.2 -7.62 -4.63 -4.47 3.19 3.16 7.75 4.2 -8.09 8.11 -2.99 -5.56 -5.6 2.25 -0.61 -3.17 -2.16 -4.21 -2.15 -8.39 5.15 7.92 9.74 7.7 -9.79 2.73 -4.09 -6.21 6.16 -3.07 -4.76 1.69 -5.35 5.01 -9.23 8.71 5.11 -2.69 4.43 3.04 4.71 5.3 0.61 -7.07 4.79 -4.64 -8.63 -2.17 -9.8 8.14 4.03 7.44 -6.03 -7.87 3.75 9.51 7.72 0.36 -5.25 4.47 8.04 0.43 9.76 -1.13 -6.61 1.71 3.83 -8.54 7.45 -5.97 -4.54 -10 -4.41 -0.3 -2.43 7.71 3.94 7.6 -6.06 -9.3 5 5.54 9.03 -8.32 -1.12 4.8 1.92 5.78 1.61 -0.94 -5.12 3.64 -0.14 0.4 -2.42 4.7 -0.29 -9.1 5.35 7.08 1.41 -6.24 -6.12 9.5 -6.86 8.48 8.41 -7.71 3.25 8.94 -2.42 -8.06 8.75 5.69 -0.41 -5.61 -9.43 -0.64 -8.72 -1.31 -8 2.92 -3.89 -9.63 2.62 -8.31 6.12 -3.92 -3.44 -0.91 9.29 1.65 -5.65 -5 3.12 3.05 6.79 -6.67 2.09 -5.52 4.23 -7.44 4.49 -7.08 -2.94 1.95 -2.47 -0.52 7.78 -4.12 8.58 -6.38 4.34 -3.74 7.78 9.75 9.41 8.88 -3.62 0.09 -8.31 5.07 0.19 -1.24 -5.29 -4.98 -2.55 5.82 -1.38 7.63 6.86 1.09 1.58 5.4 0.1 8.37 8.58 9.85 -7.41 2.86 -7.72 7.23 9.7 6.47 -2.61 -5.78 -8.55 5.59 -9.72 -1.9 -4.41 -9.04 4.7 4.45 -2.38 -6.87 0.97 9.08 2.81 -1.32 3.37 -2.33 -3.12 -5.09 -6.41 -8.66 -6.09 7.87 8.86 3.55 8.29 -6.19 8.59 8.28 -5.51 -9.28 -9.64 5.74 -8.87 -8.42 4.04 -1.63 -6.99 9.94 -5.75 -0.82 -5.8 -3.34 1.81 -1.25 4.46 -9.3 -9.02 -0.96 4.56 8.46 8.63 -8.58 1.98 -3.34 -6.14 -4.29 4.45 8.7 4.05 7.22 7.95 4.76 0.19 8.43 8.92 -5.7 -2.74 -5.95 4.22 2.66 -3.31 7.84 0.34 -4.88 -7.29 -7.51 -4.11 2.19 -0.31 2.58 -0.64 9.89 -5.78 -2.74 -7.23 -4.41 -4.46 -7.31 -7.35 -0.27 -8.9 8.95 -4.28 1.58 -7.51 -3.64 6.32 -3.31 -3.96 1.97 4.81 -1.21 9.34 -8.02 -0.9 8.74 7.19 -5.29 -6.11 8.26 -9.83 1.75 6.04 -5.68 6.12 9 -0.97 8.61 5.94 2.56 -2.02 -9.43 8.01 -7.76 7.85 7.9 8.49 -1.65 6.02 -6.04 -4.71 -8.83 -1.7 1.42 2.4 7.61 -6.16 9.9 1.14 -6.23 6.55 -3.08 -3.25 0.09 -8.25 -9.48 -9.06 -6.53 3.73 -5.41 -2.14 -2.04 0.67 -7.93 -3.33 3.63 -9.52 -2.08 -0.42 1.49 4.9 7.29 3.57 -9.88 -8.3 3.24 -5 -4.05 -7.43 5.59 8.05 -4.44 -5.13 1.35 -5.31 -9.99 -0.1 5.93 5.56 -5.79 7.41 0.57 8.77 -5.48 -0.94 -2.01 -2.4 -1.82 -0.28 9.15 2.6 7.88 7.33 5.54 -4.29 0.99 -7.95 5.4 -4.61 -8.27 0.62 -5 -2.1 -0.49 -2.82 7.29 -0.81 -3.86 3 8.68 -3.97 2.3 8.2 0.42 8.88 7.01 9.96 8.02 4.4 0.7 1.19 -0.41 -9.45 -9.17 -5.04 3.05 7.65 5.35 -5.83 -2.6 0.82 -6.24 -7.08 6.88 8.17 -4.9 2.37 -1.66 -4.36 2.05 -1.97 -0.43 3.77 9.01 -2.04 -7 7.33 6.49 0.57 2.66 3.33 -3.31 1.23 7.99 0.9 -3.14 -7.92 1.01 1.34 -7.93 -5.09 -9.16 -9.51 -9.05 0.64 6.46 8.52 9.19 -7.55 5.87 9.68 -6.54 -2.56 -8.26 7.37 -5.5 8.36 -7.44 -0.08 8.1 0.97 -3.37 -5.99 -7.91 -7.52 -0.02 -6.73 -8.03 |
-3.77 -8.29 -3.43 3.18 -4.11 -0.23 2.37 -5.44 -7.88 2.02 -8.36 -6.54 -5.36 4.76 -3.44 2.47 -8.32 -3.3 -7.33 -0.87 5.5 -9.08 -6.41 -9.89 -5.23 -0.38 5.49 1.73 4.95 0.71 -1.42 -3.92 4.33 -3.51 7.55 8.99 1.22 -5.09 6.9 4.97 -9.95 0.66 -8.18 -0.77 -2.94 -1 4.51 0.85 -8.15 4.39 -3.4 0.75 5.02 2.55 3.38 -9.85 -2.63 -9.93 5.63 -3.11 8.54 -2.55 -2.34 -2.85 1.97 0.97 -8.37 5.41 -2.3 7.56 7.95 0.83 -5.16 -1.72 -7.47 -5.26 -4.11 1.03 -3.28 -5.38 -7.76 5.41 6.1 -1.95 2.16 -8.88 8.41 -2.82 4.52 -3.42 7.35 5.81 7.21 9.34 7.01 -0.78 -4.18 3.54 -3.3 -7.69 -6.9 -6.53 -5.87 7.23 2.14 1.18 4.65 -3.03 -9.62 2.26 -8.27 -9.81 -4.45 -0.95 -0.47 -7.28 0.24 -1.68 0.13 -7.26 |
