9.91 3.26 4.34 -3.85 -7.28 -7.16 5.83 6.7 -8.55 -9.26 6.01 6.08 8.61 -0.23 -0.65 2.75 9.14 9.3 -5.26 0.66 7.87 1.93 9.74 -7.93 -8.7 -3.68 -5.31 6.2 2.52 -3.16 -5.41 -5.32 -3.21 -4.5 -2.88 2.48 -5.46 -3.7 -3.46 6.24 -8.32 -0.25 9.33 0.09 6.52 1.77 7.17 -5.37 -1.92 2.9 4.81 3.79 6.54 -3.06 5.22 5.23 -3.53 -1.17 9.03 0.23 8.3 -0.47 0.16 -4.79 9.05 -3.75 6.74 -1.49 3.25 7.58 5.57 4.51 1.21 1.84 5.85 -5.93 5.39 2.79 -3.16 -3.93 9.84 5.85 7.16 -7.72 -1.46 5.06 4.52 -8.43 -3.56 -9.14 5.73 6.02 3.04 -1.05 -9.34 -2.83 8.53 -2.51 4.24 2.44 6.38 -5.62 7.78 -7.99 3.05 8.95 6.63 4.26 8.4 -9.85 -9.29 -5.11 -7.62 8.17 4.5 -7.73 6.48 -8.8 -5.46 1.88 -2.29 -0.75 4.26 -9.19 -8.81 1.19 6.73 -0.8 8.78 6.89 -2.56 -8.88 4.38 -3.31 -4.64 4.94 3.46 8.98 -2.23 -3.73 8.58 3.31 7.02 4.56 3.14 -3.53 -8.25 2.23 -2.25 -0.53 0.44 -0.67 -1.3 7.34 -5.01 5.25 -0.01 1.09 6.65 8.11 -4.51 7.64 -3.52 2.13 -8.43 -2.61 -2.13 -2.18 -4.98 -1.98 -9.49 -5.76 3.44 5.07 -8.56 8.37 -9.45 6.92 5.81 -4.06 -8.81 -4.36 2.54 -9.33 1.4 -0.21 4.63 -7.75 -4.89 7.96 -2.93 -4.36 3.96 9.74 -4.25 4.33 9.87 -8.05 3.12 4.76 -4.08 -5.17 6.42 -8.19 -1.73 -5.2 6.79 -1.98 -4.07 5.19 -9.39 -2.27 -4.03 8.68 1.03 9.84 -6.32 -3.27 -3.63 -2.76 -2.49 -4.09 4.69 0.25 -7.9 5.67 -2.18 1.62 -3.21 6.63 -8.42 2.52 0.98 -9.39 -4.68 3.45 9.66 3.86 -0.37 1.56 -3.89 -2.1 5.87 7.87 0.45 -8.85 0.95 -6.3 7.64 0.07 -3.49 -1.75 5.15 6.48 3.18 3.39 3.85 5.81 6.49 4.81 -4.87 -7.07 8.39 4.37 -0.92 2.71 1.86 -1.9 -1.77 -0.12 -1.11 9.97 -0.91 6.29 -9.28 9.25 0.75 8.2 7.07 -1.29 -8.18 2.01 5.12 1.97 1.5 8.65 4.13 6.6 1.53 2.6 -8.41 1.55 -4.38 9.75 -7.33 -3.86 8.8 9.57 7.14 1.19 0.4 2.74 -3.38 -1.08 -1.75 4.5 3.13 -6.83 -5.02 4.52 9.25 7.24 -5.73 -6.11 3.22 3.58 7.3 8.63 1.7 -7.06 3.91 2.28 0.96 7.03 9.48 6.14 3.34 -9.83 -1.96 -3.78 -3.88 -2.43 3.22 -7.45 -0.55 -5.42 -2.27 1.22 8.75 7.91 -8.65 5.5 -5.1 -1.41 8.69 -0.7 -9.42 -1.41 -9.73 -3.48 |
2.79 8.63 1.53 0.91 -4.94 -7.18 9.52 -5.93 9.46 -6.33 -3.23 -8.1 -5.58 -2.94 3.16 -6.25 2.33 5.68 -4.8 -6.09 2.99 -1.3 8.35 -4.82 0.14 5.27 -9.25 -9.96 1.96 6.65 6.62 -0.73 -9.3 -5.64 9.45 -5.78 -6.85 -3.85 -0.62 -4.3 2.24 2.04 -3.98 4.84 -5.08 2.65 7.14 9.72 8.44 -6.59 -1.45 -9.46 6.62 -6.39 -0.11 -6.49 7.92 -2.84 1.46 -9.17 9.66 3.37 4.68 3.76 1.43 4.72 5.87 -0.43 -7.86 -9.49 -3.39 2.61 7.23 -8.21 5.35 2.45 2.07 4.74 5.28 -3.38 7.34 3.58 -1.42 1.12 6.99 -6.75 4.59 -3.07 2.93 -5.27 -1.65 3.57 -6 -1.13 9.08 9.63 4.8 -5.77 9.48 2.47 -9.43 -7.6 -5.57 1.81 -3.94 4.96 1.95 -4.51 -3.38 -3.36 -1.08 0.99 4.22 -3.27 2.48 -3.92 -0.64 -4.2 4.67 1.79 9.91 1.64 0.09 -0.33 9.94 -5.79 -1.83 -4.58 5.72 -9.61 -9.51 -3.42 -1.89 -1.36 7.7 -3.65 9.35 -8.15 8.64 0.9 3.88 -1.22 2.25 -8.86 -5.19 6.71 -6.52 4.33 -1.07 4.87 1.46 -0.62 -1.5 9.09 1.97 3.99 4.28 5.79 4.11 9.7 5.6 0.1 -3.15 5.71 2.75 -9.86 8.73 3.08 -8.09 5.77 -7.4 5.03 6.87 9.8 -9.67 0.52 -6.87 1 7.69 -4.05 -0.08 2.38 1.3 6.02 -5.22 0.38 9.72 2.39 5.89 7.55 -2.38 -3.74 9.93 -7.13 -1.7 8.85 1.9 2.45 -9.2 4.29 3.57 2.47 6.63 -7.03 -5.06 9.07 8.08 2.47 4.3 -8.41 4.26 -8.12 9.89 6.55 2.07 -0.66 0.17 -6.03 -2.59 3.89 -1.77 -3.73 2.28 -2.38 -7.81 0.12 8.39 3.89 4.85 -8.75 2.44 0.65 6.69 6.1 1.68 -1.96 2.48 4.74 -6.06 5.44 -9.79 5.74 -5.02 -8.01 -0.69 -8.66 3.98 2.31 -9.32 8.17 -9.55 8 7.59 9.54 -8.15 -7.09 5.78 -9.47 1.29 6.9 -3.41 -6.67 -1.48 8.86 -8.63 8.51 6.9 7.9 -2.76 0.73 5.35 7.85 -6.71 -0.76 3.44 0.23 -1.32 2.74 -4.23 9.27 4.34 7.86 -7.4 7.94 4.66 -0.9 -7.88 7.83 4.72 3.17 1.13 4.58 -2.5 3.21 -9.92 -7.64 2.44 5.73 -1.45 9.08 2.66 -8.76 -3.46 -8.6 -6.18 -7.41 5.39 9.64 -5.13 2.74 -9.22 7.94 -4.2 8.11 -4.23 2 5.83 5.31 8.78 9.01 -3.94 -8.84 -0.66 -1.85 8.06 4.11 1.31 -8.11 -4.59 0.84 4.83 -0.97 -2.14 3.02 8.48 6.39 2.05 -5.51 2.17 -7.35 3.27 -3.19 9.05 5.71 -2.9 -0.03 -4.77 9.34 5.15 -4.04 1.04 0.55 0.32 7.71 -5.76 -6.37 3.38 3.52 -7.09 -2.58 0.54 0.9 -2.53 -7.78 9.47 3.97 8.89 0.09 1.01 5.8 -3.24 6.48 -9.85 2.81 -2.04 5.51 0.83 1.63 -6.09 4.43 -9.27 7.79 8.97 7.98 -9.71 -6.07 -8.44 -4.37 3.54 -5.49 7.5 -8.05 3.47 6.37 5.89 6.78 -3.35 -3.77 -2.26 1.59 9.13 3.6 5.43 -9.29 -4.78 3.25 1.58 2.34 7.41 -9.7 -7.94 -2.26 9.97 8.4 -0.08 -1.42 7.42 1.09 -3.68 -7.31 -2.69 2.66 -7.66 9.41 6.66 3.16 -8.95 9.44 -2.42 4.7 -6.08 8.49 4.22 -6.4 2.36 2.99 7.81 -9.44 -1.94 1.71 -3.49 0.47 9.3 0.85 7.2 -5.16 9.61 4.06 9.7 -7.28 5.73 -2.79 8.64 3.03 -2.34 -9.37 9.37 1.82 -1.65 2.23 5.44 1.01 -5.72 -4.31 3.79 1.59 -1.57 -0.88 -8.81 -4.92 -1.03 -6.64 1.38 -6.4 -3.05 -9.91 4.01 -0.7 1.74 6.03 3.78 -0.78 1.08 5.35 9.26 2.91 4.21 -1.48 -0.19 -9.24 -5.44 -1.32 9.37 -7.03 -7.27 -6.85 9.08 5.7 -6.11 7.11 |
0.83 0.3 -7.69 -6.33 -1.06 -3.5 6.13 -6.71 3.77 4.75 -3.59 0.85 -7.99 -2.41 -2.33 -3.25 1.64 -8.7 -7.04 0.64 2.51 2.72 -4.77 -5.92 4.25 8.67 -8.96 -2.29 4.65 -9.55 -6.05 0.71 5.53 6.98 -0.38 -7.08 -2.79 -6.51 -2.32 2.51 -8.74 2.91 -4.44 9.16 -1.75 1.84 -6.55 5.28 -1.28 -5.94 -7.9 1.37 -8.95 -6.57 3.15 -9.89 4.77 -4.68 4.05 -3.99 9.29 2.64 5.61 -8.75 3.48 3.49 -4.71 -7.15 9.34 5.83 -6.71 6.35 2.57 8.89 -1.47 -8.87 1.67 -8.21 0.92 4.13 -6.11 5.71 3.65 -1.36 -8.84 1.31 5.1 4.27 -6.5 6.12 7.63 -5.64 -5.85 1.85 -0.79 -5.1 -9.66 -3.34 0.62 -2.89 -9.84 -8.34 -5.65 4.59 -9.84 -3.61 7.71 2.41 -7.73 -8.16 -4.99 -9.51 -8.18 7.92 -1.63 4.93 -1.52 -6.24 2.04 -1.42 |
