-1.9 2.49 -2.58 4.11 -6.94 0.81 -3.34 -7.9 -0.69 -2.39 0.14 1.59 3.66 6.24 -2.07 -7.59 4.59 7.29 -9.89 -0.82 2.82 5.45 -2.73 -8.64 -9.74 -4.59 9.76 1.99 6.81 -6.26 -3.05 -0.44 -4.19 -2.56 8.85 -7.35 9.71 -0.95 -2.84 -2.75 -4.16 -1.42 -4.54 -6.88 -0.56 2.31 4.22 -6.67 4.29 -8.55 6.35 2.85 -4.76 -7.51 3.67 8.53 -3.33 9.97 5.26 -9.6 1.09 7.61 4.94 -7.95 -8.24 -8.44 -3.88 0.53 -3.2 5.61 -1.81 1.26 -7 8.65 2.82 9.97 0.21 -5.23 -2.31 -8.28 8.73 9.79 6.72 6.4 2.64 -0.67 4.61 -6.25 -4.33 7.28 6.52 -0.82 -7.75 1.54 9.06 4.57 -4.43 -3.19 0.3 -0.53 -7.9 -0.56 5.64 2.56 -7.28 6.56 6.12 -1.17 -0.15 -5.67 -6.09 -7.08 4.3 7.97 -6.12 -8.09 5.36 -6.61 -7.01 -2.82 5.98 9.31 -9.78 7.33 3.5 8.74 5.62 0.43 5.92 6.26 -6.16 -8.63 4.92 -6.64 7.8 5.81 -4.52 8.74 2.52 0.73 3.97 1.22 -9.24 8.48 -8.71 7.21 -1.05 -5.08 8.03 -9.68 8.95 5.13 0.89 4.03 -4.38 -9.28 4.52 2.27 4.75 -3.09 1.07 7.37 6.31 9.11 0.35 2.69 -7.84 5.81 6.67 -3.34 2.95 0.43 -4.65 -7.33 -1.78 -9.15 -1.59 -3.82 1.7 2.77 -5.78 -6.66 5.67 -0.99 -4.82 -3.53 -4.94 5.8 3 -4.89 3.65 -0.34 -7.94 -4.15 7.77 -6.47 -4.14 8.08 0.25 -9.56 -1.21 -7.24 3.21 -4.75 6.09 5.61 9.45 -8.13 -1.15 9.15 5.66 8.71 9.27 -0.36 3.25 -8.6 5.31 0.45 -8.67 -3.19 -3.17 -5.93 -4.44 6.23 7.86 0.18 7.22 -9.91 -3.43 2.61 -8.61 -3.46 7.33 2.55 7.11 -4.5 -5.94 -3.98 5.75 -6.23 1.15 4.61 4.46 -3.81 8.27 -0.43 -5.9 -4.17 -2.01 -2.41 -3.7 -4.24 1.51 7.64 9.04 -7.75 -4.57 -9.35 -1.86 0.59 1.55 3.42 -3.89 -4.93 -2.01 -8.96 -5.75 3.08 1.37 -6.32 7.3 -0.53 -7.54 3.74 -9.5 -8.94 2.56 -2.09 7.18 5.61 -5.25 6.57 1.95 5.97 -8.95 -2.04 -9.58 2.25 -5.44 6.06 -8.75 0.98 4.65 2.07 -3.53 -8.33 2.15 -9.28 -4.32 7.21 7.01 6.18 -1.36 2.37 -7.17 -0.27 3.81 5.53 6.58 1.08 -8.18 3.17 6.08 2.07 -0.66 -9.44 8.76 4.04 8.6 -3.69 -1.11 -6.47 -2.61 4.15 -3.34 -8.89 -9.17 0.08 0.9 0.77 -2.76 7.02 1.33 -3.9 3.78 1.58 -9.52 9.87 -3.37 -9.51 -0.81 -3.62 3.65 8.25 -2.83 7.72 -6.41 -9.5 -4.59 -4.65 |
-9.16 -7.94 -0.19 4.91 -0.03 9.99 -5.15 -7.46 8.58 1.25 -0.76 3.93 -1.1 6.08 -8.12 5.44 9.51 7.83 -5.1 1.62 6.97 8.26 -1.37 3.24 -4.54 -3.18 3.72 2.48 -5.82 -3.33 6.25 8.28 1.49 9.65 -8.48 3.31 -1.88 5.24 -5.79 8.33 2.06 -7.35 4.97 5 -6.48 0.93 7.75 -9.6 2.78 -9.66 -6 1.1 6.32 8.73 -0.9 -7.44 0.57 0.15 3.38 6.65 1.86 -0.39 8.32 -9.75 9.19 -3.42 8.95 3.89 2.56 0.95 7.69 9.1 -4.95 -5.45 -2.38 -4.14 -8.06 -0.11 -5.86 -7.1 6.25 -6.44 9.1 -2.48 4.8 -3.36 9.95 1.24 -9.55 4.93 4.35 4.22 -7.33 3.26 -9.36 2.95 7.6 0.42 -2.62 7.65 -1.01 -2.15 6.26 -0.12 -5.91 -9.57 1.99 -1.21 -6.08 -7.55 -7.4 9.32 -0.31 8.44 -7.7 7.64 -3.07 -4.94 9.61 -3.76 -1.02 -1.47 -3.49 4.91 -8.05 -0.16 -7.16 5.16 -9.54 -2.82 3.87 3.14 -4.04 -8.32 -9.71 6.92 3.86 -9.34 -4.79 7.15 9.7 4.89 1.63 4.21 -4.05 -4.19 -2.3 -2.24 1.3 0.79 0.1 -7.57 -0.05 -9.81 -6.22 5.85 -8.12 4.57 -0.42 -2.84 -3.43 1.33 -6.42 -3.23 -7.25 -2.29 -2.31 5.48 2.48 6.49 -0.07 9.17 3.75 -1.19 6.13 -3.45 8.57 -3.69 1.13 -3.9 -2.05 -1.74 -4.42 3.29 -9.39 -7.47 -0.45 9.19 8.93 2.58 -0.77 8.37 -1.83 -1.29 -2.79 -9.47 -8.87 -7.19 8.07 9.4 -2.77 -8.61 6.63 -4.81 -7.17 -8.16 6.85 6.66 9.58 -8.76 -3.71 -7.32 5.64 7 7.93 -1.81 -6.85 4.86 9.55 -7.78 -3.42 -5.13 7.4 3.08 -0.74 -1.46 -7.46 -1.44 -4.03 4.29 -0.31 -8.09 -3.27 -0.12 9.81 -4.74 2.62 -1.43 5.35 2.41 9.37 4.68 9.64 6.71 -4.01 -5.65 -9.03 5.09 9.45 8.67 7.98 2.57 6.84 -6.22 -0.3 -4.69 4.65 -3.25 -4.62 7.57 -0.79 -1.73 -8.7 -2.84 -8.13 1.6 -6.96 8.92 1 3.58 -2.78 -1.94 5.41 -9.12 -5.77 4 -1.97 3.62 -6.63 -6.06 3.88 5.79 -6.83 -1.6 -4.93 -8.58 -9.39 9.56 -1.99 -1.8 -7.78 3.69 7.57 -8.23 -4.81 1.31 9.27 8.76 2.48 1.98 6.31 -2.65 1.71 5.5 -5.22 -7.81 -0.61 -1.56 8.7 -1.72 -5.3 5.09 8.73 7.17 5.34 5.51 0.7 9.52 -8.04 0.55 2.33 -5.72 -3.56 9.01 7.26 9.87 6.34 9.9 6.09 -7.97 -5.39 9.59 4.91 5.09 9.24 8.79 7.05 -4 3.05 -0.44 0.71 -8.92 7.59 7.45 5.87 7.94 -2.75 8.55 -5.49 -4.68 4.96 9.36 -7.34 0.44 -2.63 6.72 2.43 6.62 6.26 -4.02 -4.86 -6.62 5.38 -0.86 7.56 -6.39 7.49 -8.72 -8.71 7.4 -1.74 2.15 5.01 6.63 5.59 2.96 -8.39 6 1.64 -9.47 -2.57 9.72 -6.36 0.11 6.89 -8.78 -5.8 -4.23 7.53 5.63 -8.7 5.77 -5.3 5.65 -8.71 8.56 -3.93 -9.04 -8.14 -7.1 6.32 1.24 -3.1 -6.03 7.88 5.24 5.72 2.55 3.54 -3.86 2.52 -3.35 9.08 -9.38 -5.32 -0.63 8.68 9.73 -2.15 8.99 7.53 6.53 9.41 8.38 -8.93 7.02 -4.76 1.03 8.74 -9.65 7.24 -0.95 -7.55 -4.5 -1.99 -9.22 -9.37 -6.99 -4.58 -2.48 -7.46 -5.53 7.92 8.53 8.09 -5.24 6.35 -3.69 4.57 -5.74 3.32 5.03 -7.79 -8.49 -4.34 -2.73 -1.22 -8.6 5.96 7.1 4.6 2.7 -2.87 -3.98 -6.41 -1.95 -1.27 -9.45 -7.47 9.91 3.01 2.36 -4.85 -6.42 -4.33 -7.51 4.32 7.9 2.72 3.8 -1.77 -6.16 5.06 -8.36 -4.26 -5.47 -8.08 6.43 -8.1 9.95 2.04 -9.92 -9.52 -4.5 4.5 0.18 9.31 4.33 2.86 5.59 |
0.44 8.45 3.59 -9.23 6.03 -0.52 9.96 -9.43 5.76 -8.87 -4.66 2.35 9.49 6 -4.94 4.52 2.22 -8.38 1.51 3.4 -1.27 4.39 -2.32 -3.07 -0.53 4.56 8.76 -5.62 -2.46 6.18 -7.48 3.74 -7.87 1.58 -1.54 5.88 -5.66 9.06 6.58 1.22 2.3 -9.7 -5.08 -1.5 1.22 7.65 2.39 3.55 6.03 9.94 1.42 4.93 -3.21 6.67 3.07 6.69 6.32 -7.99 2.31 -9.85 -4.87 -9.1 -6.01 -5.46 -1.18 -4.97 -2.58 0.99 -5.22 -2.6 -7.88 8.67 -4.42 1.56 -8.02 3.8 -2.4 1 3.86 2.77 8.24 6.75 2.06 -2.61 1.04 -8.38 -0.25 7.58 -7.25 -6.58 -1.55 3.35 4.28 -0.83 -0.91 3.63 4.71 3.35 -3.49 7.41 0.04 -8.62 9.68 -6.74 -8.3 4.67 -7.14 9.39 -4.38 1.44 -3.07 8.73 9.25 -1.11 1.69 1.78 -3.38 4.81 5.44 5.19 |
