4.76 -1.84 0.38 -5.36 4.53 -1.91 -5.02 -5.41 -7.62 0.75 -8.88 -3.74 5.92 5.7 -9.81 6.15 -4.47 -2.41 -5 3.33 3.62 6.76 6.27 -0.44 -4.32 4.97 1.95 -9.87 3.31 4.06 5.65 4.04 -3.71 -1.26 -5.54 -3.93 -3.53 -4.62 -4.01 7.83 9.71 6.04 9.13 -4.22 -2.34 8.65 6.51 1.08 3.02 2.81 -5.15 -9.67 5.51 7.58 -6.78 -9.29 -8.14 -8.37 -9.82 -1.54 -8.39 9.59 8.59 -5.45 1.04 -4.92 -2.88 0.13 -1.96 -8.47 9.63 4.45 4.56 2.19 -1.53 3.28 -8.75 8.68 -3.66 -5.04 3.11 0.32 9.95 -5.16 2.45 6.05 5.44 -8.26 7.7 9.37 8.94 6.34 7.34 -5.55 8.19 -4.75 -8.53 -3.07 7.31 4.37 7.39 7.82 -5.26 -1.94 9.7 4.53 -9.62 0.66 -4.87 -2.84 -4.73 -9.89 -6.08 -9.2 -0.49 -4.74 -7.75 4.13 -3.65 -4.22 -6.4 -9.81 2.82 3.66 -5.87 -8.19 -0.29 -3.5 2.49 3.94 2.9 0.59 3.55 9.17 9.69 2.99 -3.61 9.14 5.33 -2.81 3.8 -8.7 5.39 1.92 5.76 8.75 -6.48 -6.33 -9.69 6.38 5.53 4.97 4.44 -6.64 -8.53 -3.2 -5.73 -4.44 -1.63 -3.3 -1.87 -8.77 5.32 7.94 3.36 -6.04 -5.28 2 -4.97 0.75 -8.26 8.57 3.82 -0.03 0.24 -1.37 -4.26 -0.55 2.18 7.33 7.54 -5.85 8.12 -4.22 -4.2 1.66 5.26 5.61 -4.19 5.73 -1.74 4.39 4.11 -5.43 -4.56 5.22 -2.52 -4.59 -8.33 -2.87 3.01 4.06 1.49 -7.02 8.83 1.38 6.84 -1.34 7.55 -0.19 1.53 -1.35 9.74 2.64 8.43 3.74 -2.88 0.74 2.49 8.13 6.47 9.31 0.32 7.9 7.74 -2.33 -2.92 0.83 1.13 8.86 1.79 7.07 1.89 -7.63 -4.21 -1.12 -5.6 -4.52 -2.66 2.06 -5.47 -5.49 -6.88 -2.32 9.25 -1.05 -5.94 6.21 -3.17 7.77 -1.86 6.64 4.27 -7.19 5.34 5.93 -7.83 -0.89 7.19 -0.06 -3.03 1.36 -8.68 -4.51 -4.73 -2.98 -4.48 2.06 3.39 -0.52 -0.32 0.91 -6.09 4.71 -0.01 9.83 -4.96 -2.49 -7.45 -8.2 -4.5 7.97 3.64 -8.81 1.88 -9.57 5.75 -3.6 7.1 8.77 -6.64 2.34 2.09 7.85 -7.63 3.62 -9.4 -1.6 7.69 9.42 -6.09 6.54 3.65 -4.98 2.27 0.17 -7.01 3.08 0.92 4.91 -9.82 5.76 2 8.41 -3.42 4.63 9.26 -6.54 -6.89 1.64 -3.59 7.11 4.37 3.97 -4.43 3.13 7.25 8.88 -7.56 9.82 6.83 1.96 6.58 -2.36 -8.38 -0.27 -4.04 5.23 4.6 7.25 -8.84 2.28 -6.72 -4.54 2.35 -3.76 7.97 8.12 2.28 -0.76 |
6.37 -8.29 -4.04 7.87 -7.42 1.95 9.95 -3.99 -6.6 -7.47 -5.8 -2.24 8.47 3.67 3.74 -2.11 2.47 -3.46 -3.94 -9.66 6.66 -8.86 1.18 3.87 5.27 -5.31 1.15 6.5 1.38 3.62 3.18 1.24 5.48 9.9 5.61 -0.93 3.48 -7.1 3.89 3.72 7.25 9.41 -0.84 4.25 -9.42 -9.99 -8.9 -0.59 0.18 -2.35 5.08 -8.54 -3.27 8.65 6.05 -4.88 -3.77 -3.94 -7.75 3.51 8.47 7.04 2.11 -0.33 -4.72 -5.22 8.59 -5.78 3.08 3.73 -3.22 -6.94 6.35 8.4 -4.75 5.19 4.4 2.52 7.81 0.14 8.46 -4.92 4.24 7.87 5.15 6.13 9.12 -4.2 4.61 0.82 0.47 -0.75 -0.19 -9.84 -3.06 4.19 -6.94 0.76 -1.01 -4.61 -4.39 -1.42 1.6 -9.96 -0.81 0 -2.78 -1.14 -6.5 9.92 -4.01 -9.57 1.44 1.43 -6.97 -0.79 -2.78 1.95 -7.27 1.09 -8.28 -2.17 5.22 -2.31 -1.89 8.19 1.46 6.31 -0.79 5.25 -2.04 -4.46 -0.99 7.88 -5.85 8.03 3.64 -7.19 4.83 -4.07 -1.1 -2.83 -6.94 -6.48 -0.9 -7.36 4.02 -7.88 2.04 -1.26 -7.27 -3.26 -8.46 3.74 7.42 -9.93 9.57 3.71 5.89 1.15 6.36 -5.59 4.02 7.56 1.02 8.82 7.36 -2.09 -7.68 -9.61 5.18 -4.9 9.9 3.99 -1.65 4.97 -3.72 -8.52 0.26 -1.96 8.62 7.75 -9.58 8.05 8.89 -6.45 1.51 1.44 -3.14 -4.68 -9.33 -4.28 -9.52 4.44 0.75 -6.2 -2.74 -0.93 5.16 4.12 6.35 2.54 1.86 -6 0.11 -5.02 -3.68 -6.51 4.84 3.87 -1.45 -1.88 -3.16 0.56 0.48 0.63 -6.08 9.58 -3.19 -2.79 1.55 -1.72 2.74 -1.8 -5.97 -7.36 3.24 5.9 -6.13 -6.63 -1.35 -7.21 -3.36 6.38 9.48 0.5 0.9 -0.14 -2.43 -1.75 9.62 1.92 -5.37 9.65 3.77 2.38 2.97 2.28 0.4 -1.9 0.56 1.36 -4.8 1.79 -4.53 3.56 -4.11 5.47 -5.49 9.61 4.07 6.45 5.91 -3.42 4.25 6.63 -6.52 -2.81 6.79 8.09 7.66 1.64 -0.82 8.7 6.65 -9.81 -6.93 -9.05 -7.27 0.47 6.74 7.77 1.38 -5.74 -0.7 2.19 -3.13 -9.95 -7.87 -7.15 -2.98 -6.29 3.06 -0.53 0.59 -2.03 -7.26 -4.08 -7.01 3.57 -0.7 2.01 -0.45 9.92 1.35 2.78 9.97 -9.06 -7.52 3.27 -3.32 -4.16 3.33 -8.34 2.59 0.35 -6.61 -3.56 5.99 -3.73 3.88 7.55 -5.81 -6.79 -1.22 -4.35 -7.91 -0.75 -2.65 -6.14 -9.79 -7.87 8.47 -0.55 -6.22 0.9 -5.57 -0.28 1.67 8.95 -1.2 -9.57 -5.95 5.86 -1.04 -0.54 9.51 -0.15 -9.31 -5.06 -4.12 3.48 8.57 9.12 3.35 -2.83 3.53 -9.91 6.14 -9.55 -1.66 0.24 -0.73 -6.48 -5.53 -3.75 -8.22 7.46 2.69 -6.87 0.83 3.53 -4.25 1.05 -9.62 -9.61 8.98 -4.93 -0.15 -8.39 2.11 -8.01 3.11 -3.11 5.51 -0.04 2.86 4.94 -5.02 7.53 -0.89 -3.03 7.02 -1.46 -1.89 5.26 4.68 3 5.48 -1.44 0.47 4.44 9.99 9.07 2.82 -6.12 -9.63 1.67 -6.4 -6.62 4.3 8.59 5.11 8.6 1.34 -8.63 3.21 -9.27 5.41 -0.8 1.57 -1.22 -8.02 -5.88 2.65 6.38 3.53 -3.33 8.22 6.5 -9.98 -2.7 -8.54 -3.54 -2.7 3.52 -3.12 4.5 5.55 4.14 6.74 2.13 9.53 5.78 -4.04 -9.68 -5.01 2.9 5.88 1.73 -8.27 -2 4.77 8.98 -1.46 -6.84 2.98 3.53 1.76 9.3 6.99 -4.14 6.12 -0.54 -3.36 -7.83 9.05 9.32 2.64 1.01 6.37 -9.69 -5.16 -6.32 -2.54 -6.44 4.01 -7.01 5.58 -0.52 -6.6 -10 4.91 8.91 9.5 4.15 1.18 2 9.82 -4.87 4.46 -2.44 -8.14 -5.47 7.77 6.43 -2.71 5.85 -1.69 -7.61 |
-3.69 -8.01 7.31 -3.6 -1.68 -8.28 3.09 5.86 9.47 4.38 1.98 -9.02 3.7 -3.38 -5.16 -0.57 -6.01 1.58 1.69 0.2 4.87 -6.8 1.01 0.24 -5.3 4.37 -7 8.44 5.35 -4.26 0.47 8.14 -6.48 -8.81 7.5 -7.58 -3.71 -1.72 4.06 0.06 0.15 9.59 -9.69 -0.39 0.25 1.25 6.54 1.62 9.83 -6.61 3.43 -1.16 -9.5 -7.43 1.92 -1.84 8.47 6.11 -1.1 -4.1 5.43 -5.19 -8.21 -0.6 -5.78 2.38 -9.33 -5.92 6.36 3.58 2.88 2.37 1.75 -1.71 6.77 -3.97 -7.3 -1.56 8.31 6.53 5.89 -3.12 -0.46 -0.56 0.31 -4.35 6.35 4.11 6.96 -4.89 -8.25 -7.8 1.91 -9.53 7.18 7.78 -2.16 2.01 2.83 -5.78 -1.45 -1.9 3.3 -6.71 -2.51 -3.46 9.3 1.05 2.26 -3.74 1.8 -5.64 9.14 -6.22 -5.85 3.22 2.89 -8.69 2.22 -3.56 |
