8.73 9.1 -4.47 4.96 -2.57 7.8 9.09 7.87 1.15 -0.11 -3.18 3.5 3.38 -7.89 -8.2 -1.51 -9.84 -0.87 -6.5 0.78 -6.48 2.65 -4.63 8.47 -4.91 -8.57 7 7.93 0.38 -1.35 3.21 -0.8 -8.53 -7.28 -1.07 2.18 5.13 9.35 8.08 3.93 4.64 3.54 0.18 -5.54 6.85 -7.94 5.75 6.36 1.14 6.9 -6.63 -4.75 -5.76 1.84 6.48 -0.48 7.62 -7.2 -3.97 5.25 -7.33 9.74 9.78 7.22 5.24 3.27 -6.68 -1.09 -4.75 9.74 2.73 -6.2 7.98 -3.41 -2.59 8.26 -1.59 3.53 -8.02 5.56 -6.2 4.19 1.9 5.13 -4.02 3.47 -0.59 -5.75 -2.52 5.65 -1.15 -3.79 4.09 8.34 -8.8 0.84 5.55 -6.42 7.05 8.59 3.65 -7.78 4.37 5.57 3.1 -0.82 3.35 -0.89 -4.15 -7 -9.89 3.37 5.32 0.37 -3.61 6.45 -4.36 -8.57 6.01 -5.6 7.71 9.74 1.86 -3.34 -3.92 0.5 -0.57 -7.59 3.49 8.22 -5.09 9.29 -2.33 8.98 5.45 0.42 8.87 -8.48 -1.27 -0.47 -2.18 -2.03 -1.77 -6.92 7.93 -0.89 4.35 -2.58 2.26 0.69 -8.6 3.14 0.08 8.82 3.67 4.36 4.55 5.39 -9.88 -7.33 0.31 1.82 -9.62 6.32 5.18 2.13 -4.87 2.23 2.44 7.28 -7.91 8.21 -0.83 -4.68 -7.01 -5.43 -0.35 3.03 2.99 1.72 5.95 4.04 -7.71 0.81 -2.09 3.08 8.91 1.34 -6.2 -6.69 -4.71 -3.37 -0.92 1.45 -2.57 -0.39 8.8 -7.09 -9.91 3.36 9.45 -8.68 4.43 -9.47 4.74 -2.64 0.85 9.26 0.91 -9.42 5.45 -6.79 1.59 6.8 7.38 -6.33 -7.26 -1.07 -1.11 -4.44 3.33 -7.78 2.14 9.08 7.82 -9.24 -6.23 -1.37 0.57 5.62 3.72 0.38 -7.88 2.4 6.26 2.74 -7.55 -4.52 3.43 -5.76 0.33 -0.03 -7.56 8.23 -0.02 -6.93 4.49 0 3.62 -3.34 -4.17 0.16 2.34 -5.54 9.64 -0.94 9.2 -7.97 -5.74 -8 -5.09 -4.64 -4.17 -3.34 0.24 -4.53 -9.24 3.35 -3.19 4.31 -0.82 2.74 5.3 -7.78 9.73 -6.84 -0.12 -2.33 9.44 -1.25 -8.44 -8.26 -5.64 -1.43 0.71 -1.65 -5.45 5.45 -7.85 0.79 1.98 -0.91 8.67 9.12 5.05 7.59 4.67 -9.79 8.49 -3.19 3.18 -3.19 0.56 -5.14 -4.9 -5.92 -4.21 -6.24 3.74 1.28 -5.49 -6.25 9.88 3.47 0.02 5.81 -3.31 -3.3 1.6 2.65 0.8 -9.46 4.86 9.99 -8.88 -7.64 -7.82 0.43 7.12 5.65 7.37 -3.89 3.92 -1.85 -5.76 7.81 -8.14 0.89 8.55 4.89 -8.34 7.85 -6.16 -0.51 9.99 1.44 4.22 8.67 8 2.69 |
5.4 -5.77 -6.91 -7.16 -0.56 -2.93 2.88 -7.6 -9.38 -2.72 -7.78 4.89 -4.79 8.85 -0.39 -3.34 9.9 0.38 3.47 8.58 -8.42 -1.99 -1.3 8.91 7.25 -3.44 7.44 2.02 0.55 4.04 -0.52 9.78 -0.19 -0.17 3.42 -7.53 -9.11 5.07 8.54 7.58 7.9 1.47 7.41 9.97 3.3 3.64 -0.86 -5.07 2.24 3.43 3.99 -7.8 -1.89 -6.05 -6.8 5.62 4.42 3.25 -0.59 -3.04 -3.82 7.81 -6.14 -6.96 -0.62 0.74 7.48 -4.76 -4.46 5.96 7.51 4.97 8.13 -9.96 -5.42 9.38 9.9 -5.26 5.7 -8.38 2.14 -5.81 -7.39 -6.41 -2.15 1.67 5.92 -3.23 -9.55 -7.33 -5.01 5.64 -0.47 -7.43 -9.94 -7.07 3.34 7.37 5.38 3.92 3.74 -5.61 -0.78 0.61 -8.72 -0.21 9.59 -5.48 6.09 1.53 9.7 -2.36 2.79 -3.27 -8.03 0.54 -1.73 -8.72 -7.03 -3.56 7.4 -9.89 -0.14 1.62 -7.78 3.12 -4.26 -2.49 8.75 4.79 9.79 5.37 -1.35 -5.84 -8.08 -5.51 1.4 5.87 -8.39 7.31 -6.61 4.63 -6.21 4.01 -4.73 -5.12 -4.23 7.91 -9.65 -3.06 7.18 -4.18 8.61 -9.42 4.12 8.36 5.74 -4.95 -1.31 6.79 8.39 -6.29 -7.1 8.77 -1.86 -4.94 -6.15 8.78 -8.54 7.09 -5.24 0.36 -9.07 6.03 -0.74 1.58 -8.5 -0.73 7.49 -6.15 7.37 -9.31 8.82 -8.04 6.4 6.07 2.46 -0.13 6.02 6.86 -9.37 2.61 4.41 -5.48 2.55 3.02 3.69 -2.25 -5.25 3.68 -6.62 6.49 -9.58 6.49 -0.44 6.49 -3.01 6.64 -5.82 8.05 -4.1 -4.13 -0.97 1.82 6.15 -4.23 -0.7 8.38 -3.78 5.11 1.36 6.1 4.03 -2.23 3.7 -1.74 -0.06 -5.57 -3.53 2.76 -5.41 -5.15 -4.91 9.43 7.95 1.5 1.66 -3 -4.2 0.62 -3.24 4.08 -6.35 -9.1 -4.51 -5.48 8.58 -3.37 0.81 -5.71 -6.92 -0.75 -8.72 1.98 -0.91 8.52 1.4 -9.02 8.54 8.06 -5.17 9.98 0.83 3.56 1.28 1.81 -7.78 -1.88 -3.68 1.62 -2.82 -7.33 -2.44 -8.08 2.03 -7.9 4.82 -7.96 8.68 5.18 6.85 -1.04 -4.11 -1.6 -2.07 -5.4 4.01 1.53 -1.85 -3.87 -0.73 -6.47 -9.33 4.17 -6.57 -5.91 -3.48 -8.28 -1.13 -6.61 -0.3 6.53 -2.06 5.63 -2.57 4.11 -6.64 2.87 -5.96 -5.52 -5.49 9.87 2.82 2.4 -1.22 -8.71 9.31 6.66 0.12 -2.82 -4.71 -9.51 9.24 -7.07 -8.08 0.65 4.72 1.92 4.49 7.91 8.73 -8.06 8 4.19 0.67 6.98 6.14 3.48 9.61 -3.36 -4.72 7.35 -8.6 -9.04 -9.16 -1.23 -5.71 7.73 2.25 2.78 -0.63 4.59 -2.77 0.96 -5.35 -2.25 8.53 3.74 -5.04 0.45 7.97 -0.12 3.25 7.4 9.19 -2.84 8.46 1.85 1.56 -10 7 -8.43 -5.59 7.33 7.81 0.69 3.26 -1.72 8.28 4.16 2.11 -9.03 -3.04 -5.97 9.93 -1.15 -1.31 -9.4 5 -6.49 8.51 -5.72 -8.08 9.6 -0.36 -6.3 2.94 -5.93 -6.85 0.14 5.51 6 9.45 8.08 -9.33 -1.61 -2.38 -6.81 1.03 5.79 9.06 7.92 8.74 -8.55 1.93 3.69 -2.05 3.64 -2.25 5.48 4.21 4.39 -1.3 -8.59 -5.51 -9.01 -7.88 -3.68 6.66 -0.59 -6.94 0.06 7.25 -7.51 5.1 4.18 -7.78 -4.49 2.1 -3.77 -9.1 5.04 2.84 9.51 -0.71 -5.88 5.57 -9.49 5.11 -1.36 -8.42 -3.39 -2.6 3.73 -2.92 -4.56 8.75 6.95 -7.02 -3.52 -3.83 -7.89 1.09 -5.21 4.88 -5.99 -4.92 9.23 2.15 -2.19 8.11 -2.56 8.53 9.1 3.9 -2.4 -3.02 4.97 4.32 9.05 -7.77 -4.84 -6.66 0.18 -6.76 -9.05 8.97 2.45 -2.4 1.08 -0.9 -7.01 3.35 -5.72 -1.89 3.45 6.5 3.73 -4.39 -8.32 |
7.14 -9.4 -3.82 6.05 -3.59 6.41 -6.73 7.22 0.48 -3.87 -3.54 -3.71 -0.65 1.89 7.37 -6.83 -1.24 -3.2 6.67 -8.57 -2.5 1.34 3.62 0.46 0.66 7.51 -8.74 -7.52 2.69 7.49 -5.68 -0.25 -5.51 -1.81 2.58 5.93 5.81 1.44 2.8 -9.93 2.18 2.16 5.78 -3.83 -6.43 7.76 -0.63 -7.12 3.61 0.6 2.19 4.02 -8.97 -1.89 7.36 -2.62 6.11 7.98 -6.54 0.47 -9.41 1.82 -5.59 0.41 3.94 4.3 0.51 -6.82 -1.69 9.61 3.8 -4.13 3.18 -3.93 -0.77 3.48 0.3 -4.5 3.1 -6.72 -8.6 -6.73 9.01 -7.78 6.89 2.5 -4.66 4.07 4.25 8.28 -4.58 2.62 -6.87 3.19 -3.73 -3.7 8.97 -0.29 6.93 0.09 -2.55 -6.14 -0.23 0.33 -0.81 -1.09 5 8.81 1.22 -5.15 -7.96 -7.97 -6.27 -4.82 -4.96 -2.03 -1.31 1.21 -5.86 -2.37 |
