-4.01 4.71 -8.95 -3.29 0.95 -6.35 2.67 0.45 6.3 -6.5 -0.25 -7.94 5.14 -2.57 0.68 5.19 -0.78 7.97 -9.6 -2.16 8.28 -2.2 6.72 9.33 -3.16 -0.43 -0.69 0.53 6.27 1.58 -0.48 -7.53 6.72 0.6 2.34 6.56 -0.16 -5.84 7.51 -5.6 -0.7 8.71 1.02 5.28 -4.22 -9.72 -8.71 -6.46 3.19 -9.56 6.06 -3.33 -2.23 0.76 7.31 -6.49 7.98 0.45 4.36 4.39 3.81 -1.49 2.93 1.9 4.2 1.03 1.04 9.86 -8.35 0.39 3.9 -4.33 -5.23 9.96 1.78 1.61 -9.97 -4.05 -7.99 -6.67 1.58 8.85 6.17 -8.12 7.77 -8.99 -0.47 -5.19 6.4 -8.69 -4.48 -0.03 -7.5 -2.89 0.49 -6.37 3.94 1.05 -6.5 4.17 -9.75 5.33 -8.47 -0.14 -1.15 7.2 0.5 -4.12 2.99 6.3 3.97 3.17 4.05 3.05 -1.14 -6.17 -4 -4.19 -8.59 0.56 7.09 9.98 6.36 -2.53 0.13 8.57 -5.87 4.9 1.1 4.57 -8.9 4.15 2.96 -4.29 -0.65 8.41 -5.2 -6.89 3.02 3.93 5.01 -6.28 -6.6 -4.17 -5.79 -4.46 3.61 5.02 6.98 1.92 9.49 9.03 9.95 -1.08 3.06 -3.9 -7.63 5.82 -9.49 0.44 2.39 -2.62 2.86 9.05 -8.72 0.25 -0.24 -1.79 -1.17 -6.68 0.22 0.97 -1.17 -0.52 1.07 8.06 -9.98 -2.56 4.41 -5.97 6.19 -1.69 4.39 -9.34 -7.82 3.71 -8.72 3.9 -5.58 9.09 -1.36 6.59 4.27 -0.3 -6.29 -5.97 4.88 3.91 4.75 -3.85 -4.49 -3.83 -9.39 2.94 5.72 1.17 -5.37 9.29 -3.26 9.35 -5.19 -1.53 1.39 -8.59 -8.21 5.8 3.11 -6.85 5.34 7.25 5.37 5.84 3.45 -7.32 7.8 -5.95 0.36 5.88 3.76 9.89 3.42 -9.27 -9.31 5.05 9.21 -2.28 6.92 2.97 8.86 -3.63 -9.4 8.12 8.56 -2.83 -6.28 2.8 -6.87 1.59 1.89 9.66 3.67 8.99 -9.85 4.86 2.72 -5.23 -4.53 -4.44 3.73 -2 4.25 1.66 -9.58 -9.64 8.75 -3.32 -0.1 -5.78 7.69 -1.01 2.67 -8.49 1.26 5.67 -6.42 6.38 5.68 8.59 -0.05 3.02 8.57 -5.2 -7.85 -4.25 -4.37 -8.24 -9.69 -9.67 6.3 2.53 7.81 2.69 5.27 -0.13 3.7 9.08 -3.14 -7.12 -6.42 -2.67 7.11 -5.47 -8.37 8.86 -8.92 -1.14 6.83 4.4 -0.77 0.96 -5.54 -4.86 -0.75 -8.81 0.18 -8.44 6.38 0.54 -3.34 9.66 9.82 -2.99 -9.37 0.35 1.87 -1.87 9.88 2.39 4.59 4.71 9.54 -8.72 -0.64 8.99 -1.45 3.43 5.54 -9.05 5.57 -5.93 -4.62 -0.24 3.66 6.63 2.71 0.79 2.05 -5.09 7.99 -4.44 |
9.2 4.46 -1.71 -1.13 -2.21 5.82 5.17 -7.36 0.3 -2.35 3.32 5.87 8.82 -4.85 -4.42 4.7 1.47 2.62 -1.52 9.38 -0.5 1.46 2.55 -8.91 -9.54 -4.65 8.72 1.76 -7.44 6.05 2.95 7.23 -7.91 -3.06 -8.62 -6.34 -7.55 -5.8 3.4 3.85 -8.05 -7.08 2.47 6.18 4.56 3.91 7.2 2.57 6.17 -2.65 2.07 -9.71 -7.65 -8.06 2.61 -8.04 2.37 -8.65 -2.52 -5.88 3.36 0.97 -0.77 6.45 -4.31 0.4 -6.6 -7.36 0.59 1.66 7.49 8.9 6.44 -8.87 -2.69 -0.8 -0.89 0.6 -1.52 8.5 2.98 7.36 -5.73 8.44 -7.32 -8.02 -2 -4.37 -8.76 0.98 -9.74 9.81 3.61 -8.26 6.35 -6.95 -3.53 1.34 -1.14 -4.64 -5.2 -3.4 -5.91 7.66 4.37 4.7 6.02 -6.1 9.25 0.62 3.96 -3.27 -9.89 6.5 -6.15 3.55 7.35 -2.52 -9.91 -7.36 -6.08 2.06 3.77 -4.78 -3.15 0.89 4.81 8.78 -3.25 2.6 3.17 -4.8 1.35 7.85 -5.46 -3.76 7.25 -2.23 4.58 -0.87 -5.37 -9.49 -4.46 8.59 -2.94 -1.8 -3.97 -1.62 4.89 -4.54 -1.77 -2.31 -5.42 6.26 2.18 9.6 5.24 -3.77 3.12 -1.88 7.44 -1.75 -0.68 0.11 -4.01 3.44 -8.82 -8.49 -0.57 5.65 -2.49 -1.03 2.59 4.62 4.4 6.23 -2.53 7.51 3.04 -2.76 5.64 -1.42 -4.35 8.62 5.16 -5.08 5.87 -8.76 1.86 1.09 -4.95 5.74 8.33 8.92 -8.38 5.65 -2.09 0.91 -5.82 0.82 -9.28 -1.48 5.34 -2.36 -0.19 9.65 -7.97 -4.05 -8.91 -2.74 -6.27 4 4.36 -7.97 -6.94 -8.3 -0.09 0.39 -1.52 0.33 -4.48 0.27 7.32 8.6 4.92 8.99 3.62 -5.05 -5.19 4.75 4.19 -8.49 6.41 -4.23 -6.49 -8.36 4.21 -6.38 5.56 3.46 5 -4.52 2.75 -8.47 -4.44 4.78 8.41 9.72 -6.01 -7.37 -7.97 -7.04 -3.9 -0.57 6.63 9.2 2.1 -0.44 -5.88 -1.83 -4.56 8.41 0.39 -2.37 2.25 8.24 -8.75 2.83 6.46 -1.73 -6.72 0.19 -3.61 -4.15 -1.7 -7.44 -5.83 -2.11 -8.03 5.72 -3.12 -5.94 -9.18 6.64 -0.69 5.78 1.12 -1.22 3.52 -4.74 -9.61 -8.63 -2.85 -2.72 0.17 -5.2 9.08 -3.11 3.22 -7 0.61 0.52 7.74 -1.73 5.74 7.96 -7.87 -0.55 -9.88 -9.15 -1.92 -6.68 6.04 8.85 -2.22 -5.94 1.25 -6.89 7.45 -2.56 9.16 4.35 9.6 3.46 7.66 2.75 2.44 8.11 0.1 0.33 -9.58 4.71 -2.24 -8.88 -2.37 -6.44 -1.98 -8.03 -1.14 -4.76 -5.48 -1.99 1.32 -3.93 -3.9 -3.97 -8.24 3.69 -0.38 7.41 2.36 -9.04 6.79 -7.11 -7.43 5.9 -7.25 6.62 -9.37 2.18 -0.06 -9.84 -9.41 4.88 6.32 -9.93 1.99 -0.03 2.74 -8.26 -7.71 7.55 3.49 -9.97 5.08 8.19 7.55 6.71 0.88 -8.25 0 5.81 7.48 7.91 -9.62 -9.74 4.11 2.88 -5.21 -2.44 1.56 8.05 -0.78 -2.89 -7.06 -3.04 4.51 1.28 0.98 -2.09 -1.52 -4.95 -7.19 -2.14 -2.59 6.54 -6.52 8.87 -7.5 -7.69 -8.21 -0.14 1.83 3.07 -9.38 1.89 0.94 3.47 1.93 -0.64 -4.45 -9.29 8.98 -5.17 3.26 7.24 4.74 -4.38 2.62 8.53 4.71 8.67 4.2 -1.44 9.96 -9.87 -6.02 -5.6 7.29 -1.51 -0.69 -9.37 -9.05 5.43 -8 0.84 9.06 -5.62 3.85 -4.3 2.22 -1.11 8.66 2.44 3.19 -0.2 0.85 4.24 -2.11 -2.72 2.56 9.07 -8.42 4.01 3 -8.85 -1.09 6.4 1.06 -0.23 2.82 -3.44 9.62 -3.77 7.14 6.66 -7.95 -3.47 1.64 -6.54 -3.61 -9.5 7.72 -4.67 -4.03 5.63 7.09 -9.82 5.56 8.81 1.22 -2.43 3.34 -2.49 5.66 -7.25 -8.99 4.72 8.29 -4.66 |
-1.21 2.53 2.74 0.39 9.31 1.71 1.16 3.32 -3.53 7.56 2.7 0.66 8.67 -0.92 6.06 -5.01 -4.27 4.06 8.35 0.24 -9.87 4.19 8.11 -4.29 -9.03 -9.71 3.82 -0.78 -3.09 -4.58 -4.5 -1.28 -9.95 4.07 0.75 5.72 -8.18 -1.36 -0.73 -9.03 -0.11 -6.98 -8.17 -4.69 8.67 7.02 -0.54 -2.38 -3.46 5.37 -1.08 1.79 -2.2 2.86 9.84 -9.94 2.48 8.66 9.64 -6.42 -0.12 -7.48 -5.96 -4.51 -2.34 -0.33 -1.18 3.35 0.4 9.03 5.52 8.11 -2.48 -7.03 -8.68 -1.66 -3.62 -4.76 -4.13 -9.09 -2.19 5.15 -0.42 -6.67 5.53 -7.02 -5.32 4.55 -3.59 -8.93 -3.1 -1.53 8.23 0.24 -4.55 1.78 5.5 8.86 -6.01 0.33 0.64 -5.79 -8.26 -4.38 -2.44 3.76 -7.79 -5.53 7.33 6.86 5.38 7.92 2.25 8.56 6.67 -8.59 -5.72 3.8 -9.96 5.88 |
