0.31 4.06 -5.53 -2.64 7.36 -9.26 8.98 -7.68 -0.14 -2.69 0.94 -1.79 -4.62 -7.59 -4.17 9.51 7.49 -6.83 5.7 9.26 4.99 4.93 -7.86 -2.44 3.1 4.38 -1.12 -3.09 1.81 -1.65 4.64 2.39 -6.51 9.2 -3.54 -8.17 6 7.27 7.43 -7.81 7.17 9.68 -6.32 -3.64 6.45 2 6.58 1.69 5.78 7.3 -7.1 9.71 -7 -2.92 -9.46 7.92 0.57 -4.74 -9.1 5.52 -5.27 -8.29 -5.11 -2.33 0.13 1.26 -5.48 9.01 -4.04 3.83 -7.08 -4.21 -2.62 8.39 6.36 5.28 1.93 5.05 -2.99 5.18 -6.19 -6.39 -4 6.28 -6.39 2.93 -2.5 5.82 -0.94 5.2 7.31 6.98 1.31 -6.41 9.26 1.38 2.29 -4.71 0 -8.83 -9.94 -8.47 -5.33 -9.4 3.49 9.29 3.7 -3.28 -6.54 -2.4 0.41 4.75 6.19 -4.31 8.21 -2.25 0.39 -8.71 -1.6 8.75 8.96 9.23 -0.99 -5.22 3.76 -8.62 -8.89 -3.22 -5.1 7.07 -8.43 -4.79 1.58 9.4 -5.24 -0.95 -2.59 -9.69 8.06 5.86 -7.46 -3.79 -2.59 0.31 6.23 8.07 -2.03 -3.48 -0.17 7.88 0.26 -4.49 -9.62 2.93 9.59 4.85 -0.06 -4.74 5.83 -5.57 1.87 3.39 -1.35 -2.41 -4.94 -5.81 -2.67 -4.12 -0.55 -9.87 9.78 -6.14 1.45 0.52 -1.51 3.45 8.84 6.08 -4.81 8.9 1.44 5.85 0.94 -9.54 -4.81 -1.82 6.55 -6.02 4.34 -9.44 -8.28 -8.47 0.85 7.93 6.08 8.67 4.75 6.89 -8.18 -7.22 9.23 1.88 -8.67 0.92 -3.57 4.41 4.56 9.92 -2.27 1.41 8.29 -4.05 0.92 5.27 -7.29 0.34 -7.47 0.71 1.51 -3.61 -0.56 0.43 -5.94 -3.33 -9.1 -2.11 -7.47 -9.47 -5.92 4.08 8.88 8.92 -1.66 3.78 -9.4 -4.52 -5.08 5.67 7.74 4.84 -4.35 -4.17 2.47 -2.05 1.12 1.28 7.47 -5.82 7.02 -1.81 6.13 4.22 2.81 -2.26 -6.11 -9.69 -6.47 -2.46 0.31 -9.05 -0.52 8.89 -7.83 2.89 -4.25 2.45 3.47 -7.03 -5.86 1.43 2.87 8.34 3.69 -6.69 0.25 5.21 7.62 6.31 -7.23 -9.41 -5.65 4.98 0.21 -6.87 -5.41 9.99 6.74 5.45 -1.98 -1.86 2 -8.05 1.53 -3.69 -8.04 -2.69 2.14 -0.84 7.7 5.9 3.66 -8.85 -8.59 6.43 -6.17 -8.85 -5.99 -0.32 -6.86 -6.11 -6.44 -1.92 9.52 -7.84 -1.06 -2.47 -2.64 5.85 0.92 8.44 -9.69 -5.69 -4.73 -1.77 7.76 1.72 6.92 7.25 9.47 -0.9 1.2 -2.07 3.17 8.87 7.02 6.27 5.46 -1.96 4.18 7.06 2.63 -9.12 -5.47 -0.42 -2.17 -2.31 6.68 -6.71 -1.45 0.24 |
0.38 4.88 -0.32 -1.41 -5.3 -4.28 -2.03 -7.47 9.41 -2.44 -4.32 5.96 5.49 -3.92 1.26 -7.33 -6.46 -0.06 4.33 -8.75 0.84 -5.94 -2.7 -9.33 -1.94 -4.58 4.63 6.67 -6.47 2.04 -6.26 4.39 7.84 1.91 -6.59 5.23 2.44 -2.92 -2.39 4.34 2.72 -4.48 3.7 2.93 -3.79 -1.44 3.58 -6.15 -8.49 -7.59 3.05 -9.99 9.76 6.5 -3.51 5.99 7.04 7.77 -4.82 -0.54 3.28 -9.12 4.92 -4.94 4.84 -9.84 -7.75 -7.44 9.86 -7.31 -0.91 9.69 -1.58 1.92 -1.81 0.83 -5.7 0.79 4.17 2.07 -1.62 6.85 1.48 4.06 8.76 -7.15 9.46 2.77 7.06 -6.76 2.97 -0.12 -2.78 -5.09 -4.75 3.03 7.09 -8.22 -5.26 5.38 -5.74 -7.22 -0.32 -0.56 4.02 6.19 -1.48 -4.31 7.74 -6.36 6.52 -5.74 -9.3 -8.06 6.49 -6.61 3.66 0.01 9.81 -8.19 -6.93 -9.53 7.82 -5.52 8.43 -3.69 0.01 8.97 7.89 1.99 -7.69 8.6 3.05 0.53 5.54 -5.89 6.15 -0.46 7.57 5.36 -0.82 -0.55 2.96 5.25 -9.83 2.5 2.06 -7.27 -3.53 8.93 -6.98 8.12 -6.11 2.74 3.06 -4.35 -0.28 9.14 3.9 -0.09 -9.96 8.97 -1.88 -7.63 4.45 -2.93 1.3 -4.55 -8.24 -6.02 1.33 0.93 -6.47 -9.13 8.79 -5.06 6.58 -4.93 1.41 2.78 6.58 0.86 -4.94 -2.02 1.94 -6.67 0.48 0.67 6.08 -1.54 2.81 0.69 -2.22 3.58 -5.98 8.25 -4.09 2.08 6.46 5.22 5.91 -3.02 1.31 3.69 -7.65 2.15 3.05 5.9 -9.21 -0.27 5.16 9.05 -6.94 -4.57 7.09 -0.65 1.19 4.53 8.35 6.19 -8.85 9.21 -1.01 -3.47 -1.94 -5.65 9.61 -0.17 8.51 -3.37 1.89 -9.33 -5.72 -8.33 7.61 7.52 -2.2 9.63 0.88 -7.41 2.13 5.95 2.32 9.88 -2.69 3.6 -8.31 -8.76 -4.49 9.67 8.64 6.08 3.56 -0.18 -6.67 5.24 -7.3 -0.36 6.08 -5.18 -5.65 3.42 -4.98 8.19 7.6 9.21 -3.28 -6.83 8.12 -6.51 -2.35 -0.05 -0.99 8.67 7.54 -4.93 -4.36 9.17 -6.8 2.82 -8.36 -0.03 3.75 3.69 -7.72 8.47 5.65 -3.92 -5.93 8.4 0.8 -5.38 -8.5 -2.61 4.94 -7.83 -3.07 3.64 -7.67 -7.76 -2.05 -7.48 8.03 2.69 8.02 -1.33 -7.68 9.87 -2.46 -5.15 9.59 6.61 -4.44 7.67 4.02 9.72 1.91 7.62 -6.75 5.42 2.28 3.08 -9.17 5.88 5.53 -4.88 1.92 6.32 -9.35 -1.13 -7.26 -4.24 1.62 8.35 3.23 -4.98 -5.6 6.07 9.66 -7.45 -3.45 8.03 -7.18 -1.35 -3.88 7.71 -6.21 -4.39 1.86 -0.19 0.25 0.61 2.99 3.46 9.49 -7.82 0.9 9.68 9.46 2.99 -5.74 -3.75 -9.79 -5.02 8.3 -8.44 3.79 6.91 1.55 6.3 5.93 -3.71 -4.25 3.43 -4.83 -8.34 -9.92 -2.64 6.39 3.34 4.22 2.24 6.85 -2.35 -5.4 6.49 -4.45 -3.36 -9.96 1.66 1.23 -2.51 -5.49 -6.65 -3.39 -9.75 2.27 -0.61 -6.52 -5.55 7.63 6.42 -0.78 8.52 5.59 8.01 3.75 -4.66 -1.14 -7.01 6.63 -5.74 9.63 -2.21 -8.25 6.77 -8.27 6.85 8.36 8.04 -0.72 -5.61 3.42 -2.9 8.67 9.51 7.07 -2.77 7.83 -2.85 -2.1 4.74 8.5 3.39 6.71 -0.04 2.6 -0.95 -4.11 -2.17 4.76 -1.31 -1.73 -8.01 -7.62 -3.16 4.06 7.41 -5.33 -2.9 -6.82 -4.97 1.55 6.32 6.54 -7.12 7.92 5.83 -8.19 -4.37 -4.6 -5.3 9.44 -8.97 -1.77 -2.07 5.98 7.63 -4.59 4.91 -7.3 -5.68 2.18 1.26 4.86 -5.75 2.83 7.1 0.56 5.79 -8.42 -8.77 -4.58 2.2 -8.25 -6.8 5.29 7.46 -4.85 -1.23 3.97 4.96 -6.36 0.97 -4.88 0.44 6.51 7 -2.87 8.12 |
4 6.96 -3.15 -1.12 -4.49 -8.06 9.6 9.35 4.56 3.33 -2.42 -9.55 0.67 3.03 1.65 0.43 -8.95 -1.53 5.9 7.79 1.42 8.97 0.5 -2.72 -9.09 -4.26 7.47 -6.71 -4.26 2.91 -5.36 3.48 -7.47 7.22 -1.8 -8.87 0.55 2.38 -9.46 1.31 -7.86 -3.18 -8.45 -2.64 7.35 4.99 -5.55 6.35 0.06 9.38 2.97 3.21 1.26 4.21 3.48 -9.49 4.42 -0.38 -9.32 -5.62 1.38 -2.79 8.8 -6.76 1.18 -9.24 8.9 -6.69 5.68 6.66 -4.03 -5.3 8.4 6.52 -5.18 8.2 -2.29 6.29 3.8 -9.61 1.31 -2.16 -7.39 -8.65 -8.47 7.42 4.68 9.28 -3.97 -2.57 -7.78 -2.76 6.7 -6.12 -4.66 7.44 -1.59 -4.97 -7.46 9.14 -2.72 -1.84 -7.46 -0.34 -1.93 -4.88 0.6 -0.1 2.68 6.06 -4.17 5.13 -6.42 3.24 -7.84 -5.86 0.51 4.92 7.9 3.74 |
