5.64 9.35 -4.38 7.7 -8.07 6.39 0.2 -9.58 7.66 0.05 2.94 2.67 -2.49 -0.13 6 2 -8.87 -8.31 -6.29 7.03 8.42 7.32 3.97 -5.17 -8.24 -0.79 -2.27 -3.3 -7.62 3.64 -8.09 0.33 -3.7 1.12 -7.37 5.83 5.33 9.35 8.1 -4.94 -0.26 4.89 1.38 2.8 9.12 0.11 5.92 -6.33 0.82 -8.58 -1.17 -0.16 2.34 7.92 6.03 -4.69 3.05 4.49 5.07 -3.9 -8.94 0.85 -7.69 2.6 -9.7 8.04 -8.71 4.7 0.74 -4.11 6.07 7.45 0.87 -7.72 -1.81 -1.42 -5.03 6.05 -1.21 6.45 6.16 3.23 1.63 6.27 2.58 1.06 -1.98 3.69 0.81 -5.41 4.53 -9.37 -1.4 2.21 -1.02 2.28 -5.98 -0.91 -5.39 0.54 -4.87 9.87 4.87 4.36 -4.75 5.6 8.2 6.06 -4.66 -5.04 7.28 9.35 -6.32 0.47 1.56 -9.57 -7.76 0.09 -6.38 -1.99 4.02 2.2 0.08 -9.81 -9.25 6.2 -7.42 6.51 7.02 2.58 0.37 -1.1 0.71 -6.18 9.16 6.8 -0.45 -8.85 -5.3 2.15 -1.19 7.92 0.07 -7.21 0.57 -7.67 0.54 -1.6 1.46 2.78 -0.3 -2.5 2.06 2.03 -9.84 6.23 -0.84 1.05 5.19 -1.55 -3.95 7.04 1.35 3.19 6.15 9.36 -0.72 -9.12 9.9 -0.77 -0.12 3.83 8.62 0.83 8.31 -3.49 -9.87 8.05 -9.97 -5.49 -2.97 1.52 -8.68 -1.43 -3.47 3.32 7.54 7.52 -2.33 9.8 -2.49 -1.34 -8.75 5.47 -7.74 4.98 9.29 9.23 -5.52 -5.95 -7.81 2.49 -1.63 -3.06 -4.26 8.17 -3.82 -6.51 -4.51 -3.16 8.68 1.64 -6.63 5.38 -9.07 7.38 5.79 5.88 0.92 -8.83 -9.94 0.05 6.39 5.85 -2.96 7.39 -4.54 1.68 -4.92 -9.87 -9.67 6.63 2.55 3.19 -4.17 5.39 -1.85 -4.07 -2.37 -0.85 7.53 -8.35 -3.41 -3.5 9.74 7.46 2.26 -4.61 -1.58 -5.14 -0.48 -2.39 4.14 -5.65 -6.28 -4.45 9.93 5.18 -8.89 0.35 0.02 -9.75 5.85 6.34 -0.7 7.02 -4.96 6.86 5.64 -6.54 -4.89 0.4 -2.54 -3.95 1.65 2.44 5.9 2.04 2.13 -8.52 7.46 0.27 0.57 4.73 0.11 -9.93 -9.23 6.21 -6.12 -1.2 0.34 1.28 0.28 -5.83 -5.97 -2.87 4.19 -9.47 4.85 -2.71 -8.44 -9.78 3.26 -3.06 -2.6 9.24 7.04 9.41 4.24 -6.36 -5.23 -6.29 1.3 2.3 -10 8.73 -0.04 1.68 2.31 -7.83 -7.17 -5.49 -7.99 -1.65 -8.11 -5.11 7.13 -9.49 8.65 2.4 5.4 6.48 7.8 -1.52 6.7 3.74 8.97 8.26 4.72 1.37 0.11 -0.91 -6.1 -8.3 -4.04 -4.17 -0.73 -8.07 -7.73 9.14 |
-0.01 3.67 -8.12 -7.56 1.88 -4.92 -7.58 -5.23 0.23 3.65 -9.73 8.78 -5.32 -7.14 3.52 5.68 9.81 -0.4 -3.67 4.17 -0.55 -1.98 -0.6 3.17 2.18 -0.85 -7.38 9.56 6.46 6.81 -7.53 2.35 0.28 -5.01 2.13 6.62 1.79 4.93 4.96 -8.98 3.93 -0.64 1.92 -9.45 -8.08 -7.91 9.69 0.73 -0.49 6.81 -6.8 -0.29 -4.53 -4.54 6.67 7.64 -6.61 6.89 0.31 5.26 3.28 -2.52 -0.19 -0.79 9.72 0.9 -3.14 -5.87 -9.06 1.43 5.98 -0.93 -9.92 -0.48 0.96 9.74 -7.45 -6.06 6.5 4.54 -4.24 -4.27 -0.76 -8.81 -6.47 4.98 -7.47 -8.93 -4.74 -8.78 -0.25 -2.34 3.99 -6.48 -4.97 -5.15 -0.72 -7.61 -0.42 -7.83 9.53 5.74 4.23 4.97 1.04 7.47 -9.54 -5.73 -8.07 -8.32 5.1 -7.69 1.62 -0.92 -4.5 -4.38 3.48 -3.72 -5.83 4.86 -8.39 -5.54 4.54 8.76 1.89 -9.77 4.84 -4.9 8.48 3.49 9.27 8.27 -7.99 4.81 9.44 -6.55 4.11 -9.85 5.69 7.9 -8.51 6.24 6.9 0.39 9.61 -4.71 3.11 5.22 1.62 -5.21 0.01 -5.83 -6.1 6.09 -7.1 -8.75 3.73 9.41 5.53 -2.41 -6.65 -9.69 -1.42 -5.98 -9.82 8.85 -4.59 -8.78 -0.53 -9.79 2.51 8.25 4.66 9.37 -5.15 7.43 -9.44 8.45 5.86 0.64 -3.5 5.42 -0.43 0.89 0.14 8.96 -0.31 7.98 4.63 -9.42 8.03 2.89 0.67 5.47 -4.61 -6.77 -8.42 7.52 -4.46 -7.83 -5.28 4.65 9.36 -9.02 8.29 4.58 4.6 3.01 -4.05 -6.07 1.56 5.74 -5.22 4.94 -0.45 0.46 -0.37 3.11 8.62 6.94 7.26 -2.11 5.68 -2.7 5.48 7.85 8.89 3.67 -8.93 0.27 -7.18 -2.45 2.5 1.93 9.07 0.75 0.64 4.62 -8.67 9.67 -0.67 6.58 9.36 7.68 -6.68 0.14 7.21 -6.63 9.98 -2.46 -5.66 -2.09 6.44 5.26 9.34 7.17 -7.85 -2.57 -8.1 -2.46 -6.06 9.98 1.67 -3.73 4.6 4.97 6.38 -2.91 1.61 9.41 3.25 -3.75 3.12 1.08 2.6 -0.65 1.44 -9.59 -2.04 8.31 5.7 1.46 1.76 3.53 -3.67 -7.16 5.87 -3.78 7.32 -5.91 4.36 -6.46 -7 -8.08 -3.58 -6.93 -6.54 -1.73 -4.92 3.97 8.7 6.79 5.41 -8.33 1.83 2.87 6.14 -7.09 -1.07 6.49 -8.7 5.92 0.1 7.8 3.17 -9.6 6.97 -0.26 9.84 1.53 1.51 -1.9 -7.99 7.64 -9.29 6.45 0.84 1.44 9.24 9.72 3.2 -1.48 1.47 1.46 7.01 9.78 -8.65 3.95 -9.65 -4.07 -4.13 -3.87 -3.62 -4.21 2.58 -3.75 -8.48 -4.64 -8.79 -0.04 2.22 2.01 -0.97 -4.65 -9.24 0.17 -4.69 -6.06 -5.34 2.05 1.51 -7.82 -7.44 -7 0.62 5.16 -0.46 -5.69 -4.78 -3.09 8.87 1.61 -1.47 -0.13 9.3 9.5 9.07 6.66 6.87 0.53 1.13 -3.11 -3.22 -2.82 -1.8 1.01 -4.04 -1.53 -9.16 -8.16 0.23 7.04 -1.27 3.43 -2.95 4.26 7.6 6.5 -3.51 3.07 -2.82 -5.14 -1.52 0.67 8.83 -4.67 -4.78 -8.16 7.14 -0.26 -5.8 6.84 -6.9 -7.18 -8.19 4.46 3.45 -0.88 5.94 6.35 7.56 3.03 7.81 2.15 9.73 4 -6.88 7.85 1.04 3.97 4.27 7.22 9.51 -2.88 -3.67 4.28 -6.22 -6.05 -4.64 3.74 7.56 6.83 2.52 -5.52 -5.73 7.19 9.23 6.57 3.7 3.04 1.13 9.74 -4.55 2.52 8.79 -0.04 -4.65 -8.65 -5.66 -5.46 -8.46 -8.74 6.47 -6.6 2.18 -2.64 -5.68 8.61 8.54 -5.39 5.23 6.88 5.42 -7.1 -4.79 7.81 -2.42 -4.71 3.35 -0.23 -1.35 -8.24 3.51 -3.5 2.42 3.01 -9.26 6.1 4.94 8.96 -0.04 -4.84 -4.59 -9.26 8.5 -9.32 -8.59 -0.39 9.26 -3.55 |
-0.39 3.93 -6.79 -6.08 -5.61 -0.64 -3.77 8.95 -9.91 -4.22 -0.79 -0.76 -3.59 -4.63 4.57 6.37 5.85 5.72 -5.1 1.5 -4.05 4.7 9.35 2.09 5 -8.7 3.66 1.49 8.51 5.85 1.58 -1.37 -4.8 -2.43 -9.45 9.41 5.35 -1.87 1.92 6.05 7.15 -4.99 1.2 -6.57 3.01 5.25 -4.19 3.31 -4.26 7.19 -2.99 -0.09 1.1 -6.59 4.87 -9.02 -1.28 5.64 -6.63 -5.02 4.01 8.1 -2.97 -5.96 -1.38 -5.81 8.04 -7.02 2.35 9.32 0.55 -7.46 -0.02 -2.3 -5.52 6.03 -6.41 5.93 7.21 4.02 2.57 8.02 -1.88 3.52 -8.17 3.47 -8.4 -8.85 8.94 6.36 -8.64 2.37 5.78 2.6 -4.51 4.61 5.03 -6.51 8.94 6.98 1.66 -0.13 6.1 1.72 -5.38 -1.01 -8.22 7.57 -8.43 -8.61 9.38 -2.43 6.69 -3 -6.39 -8.36 -7.69 4.42 8.55 4.01 |
