-9.7 7.24 6.99 -1.88 -8.97 1.04 4.4 7.3 -2.02 1.85 3.4 -8.92 3.47 9.17 5.22 -4.37 3.72 -8.24 -7.86 4.43 -1.5 -0.8 7.75 -8.73 5.02 -5.8 4.76 -7.41 -8.44 2.52 1.28 -2.46 1.46 -3.64 4.4 8.76 3.62 5.3 -6.88 2.71 -3.57 -9.16 6.05 -1.7 -6.93 7.99 -6.18 -9.81 -5.3 9.56 8.83 8.43 -9.05 -9.89 8.44 2.75 -4.23 0.63 3.72 -7.73 7.41 9.1 4.17 5.26 -4.58 2.55 -4.97 -4.84 6.09 7.22 -8.2 3.52 7.05 -7.43 5.59 0.06 -1.76 7.63 -7.18 -7.74 8.42 -5.87 -1.14 9.28 5.1 2.17 3.36 6.2 -9.07 -8.15 3.73 -1.54 9.2 -4.1 0.91 2.9 -6.21 3.48 2.7 3 -0.26 -3.82 7.37 -7.57 -8.87 4.7 -0.44 -8.34 -5 -3.74 9.39 -0.43 -0.31 1.86 -1.46 -1.05 9.89 -1.73 -5.65 2.51 -1.24 1.54 2.45 -6.92 -2.53 5.62 6.15 4.61 -8.57 -9.11 -9.5 -3.43 2.63 6.56 -7.14 -1.15 4.43 7 0.74 -3.85 2.28 -4.92 1.85 -1.58 3.08 -7.82 6 6.12 8.42 5.29 6.75 -0.83 2.04 1.81 2.5 -6.83 3.55 -9.2 9.56 2.28 -9.74 2.56 0.92 8.85 3.98 4.3 7.72 -8.73 8.77 -3.64 2.94 -6.23 -0.16 -0.94 5.75 9.59 9.5 -9.36 0.58 -5.7 -7.94 5.34 5.04 -0.85 -9.38 -2.06 5.65 3.77 -7.43 -1.44 1.13 3.16 8.22 -5.62 3.2 -1.49 5.23 -7.22 2.66 3.49 -7.33 5.36 -4.46 4.11 3.22 -8.6 4.12 -7.12 1.18 -5.45 -2.49 9.78 8.23 1 -8.85 -2.9 4.33 -3.46 -4.36 -4.54 9.06 4.93 -1.4 -4.72 -6.32 7.58 8.23 5.72 5.83 4.35 -4.54 6.62 -0.54 -3.98 6.79 -7.72 7.11 -5.97 -2 3.52 3.6 -0.89 -1.88 7.1 -0.51 6.19 -5.45 2.94 -9.31 5.62 0.28 9.5 -3.05 8.31 -1.97 -3.95 -4.11 9.51 7.32 0.94 -5.71 0.08 4.87 7.65 0.94 8.4 1.65 -8.88 -8.49 -5.05 -7.45 -8.61 -4.16 0.02 5.18 9.55 -2.02 0.29 7.24 7.63 1.68 8.71 8.4 -5.11 0.05 5.37 -8.26 1.8 5.07 8.38 0.62 5.99 -7.48 -6.96 0.96 2.21 -6.74 8.1 -8.08 -0.07 -1.8 4.25 5.69 -6.95 -6.06 1.56 -8.9 -7.94 -1.75 2.66 -5.7 4.08 -5.57 8.94 -9.68 -1.7 -2.44 1.82 -3.31 8.73 5.13 3.55 9.19 1.57 6.74 -1.71 -4.31 -7.22 -3.93 -6.39 8.44 -4.08 -7.97 -5.42 3.32 7.59 4.27 9.45 -5.44 -8.25 -2.19 -0.09 -4.89 6.34 -6.75 7.06 6.79 0.94 -3.7 -7.33 |
-3.49 -9.52 2.02 8.3 1.48 -7.72 2.21 1.11 -0.27 -3.66 7.28 -8.35 7.49 -3.51 -5.15 4.39 -1.03 -1.91 5.69 -6.75 1.5 6.61 -4.48 -5.99 2.21 4.65 -8.47 -9.11 -9.92 4.46 6.07 4.57 3.05 9.73 -3.68 6.79 -1.57 5.54 9.73 8.93 -1.38 -3.82 -6.24 -8.69 0.25 1.19 -5.62 -8.91 -5.88 -1.4 5.52 5.9 0.85 1.83 -3.41 1.93 -2.58 2.29 1.97 4.68 3.85 6.67 1.38 0.79 7.72 1.1 7.88 6.18 6.24 3.65 0 -2.13 -6.04 -2.92 -2.27 5.6 -4.25 3.69 7.42 -9.73 -2.78 -0.76 -1.09 -4.6 -9.39 9.39 -6.81 -7.75 -8 5.22 8.91 2.25 9.29 -3.93 -1.08 -9.26 -7.79 6.67 3.57 4.64 -4.56 0.69 -6.33 -6.16 -8.63 -3.72 -3.01 -4.55 1.22 -2.81 -1.26 -4.84 0.28 6.75 5.77 -8.41 7.38 -4.7 -8.14 6.98 -1.12 -8.8 -7.4 -8.41 -1.8 9.31 -5.8 -9.88 -4.29 -8.55 -1.4 -9.71 -7.54 0.22 1.53 -7.95 8.95 2.15 -0.38 9.01 -7.99 7.88 -9.61 -4.99 -3.66 7.7 -0.35 7.69 7.86 -0.39 6.53 -7.91 0.96 2.12 -3.97 -4.86 -1.78 3.44 2.31 9.32 -2.68 4.83 5.83 2.2 -4.82 0.86 -5.23 -4.73 0.41 8.06 1.94 9.69 -2.57 2.24 -9.56 -3.21 0.23 0.47 5.56 -6.95 1.08 0.76 -2.2 -3.62 4.12 3.77 -5.54 0.25 -4.96 -9.34 7.27 3.68 -8.26 1.56 -2.94 -7.68 0.44 -1.86 -5.44 9.54 -2.53 9.17 -7.87 4.81 8.53 -4.23 4.28 -5.43 8 2.26 -9.32 7.97 -1.6 1.64 -7.96 3.64 3.08 -5.73 -4.87 -7.14 -9.58 6.62 -9.3 0.86 0.59 2.77 7.55 2.62 3.7 4.67 2.5 -4.35 2.47 -6.71 -7.63 3.11 -7.64 6.16 -5.66 -9.52 -9.31 -9.81 -4.88 -7.83 -9.76 -9.35 2.98 0.88 -9.04 4.29 -5.24 7.81 4.44 -0.11 -2.96 -8.19 -3.3 8.83 2.44 -4.58 -6.59 8.12 -9.77 7.51 1.57 -9.51 2.84 -3.78 1.4 -8.61 -9.34 -7.81 -6.7 0.84 8.1 -7.4 -7.82 0.8 -6.19 -1.23 -3.94 8.72 -9.82 -1.73 1.25 4.37 -4.58 4.95 1.72 -8.13 -9.74 6.13 -5.25 -7.06 9.82 8.49 6.89 4.28 -5.93 7.63 8.46 -7.83 -2.94 2.19 -1.77 -3.97 7.62 -3.84 8.64 2.66 6.39 1.74 -2.9 0.56 -4.84 -2.73 3.36 7.28 7.69 3.08 -6.4 8.56 -7.86 3.76 -7.08 8.48 5.13 1.11 -7.4 2.06 -5.02 6.01 2.15 1.14 2.38 4.31 1.62 -0.38 -6.89 -6.03 -8.99 -1.87 7.25 8.64 8.27 -8.31 3.99 0.99 -9.98 -8.67 -6.64 -4.22 1.67 2 2.65 -7.56 0.01 5.91 9.8 3.91 4.41 -2 -6.95 4.66 1.65 -1.74 4.49 -1.55 2.29 -6.53 3.28 -7.64 7.26 6.36 -0.29 7.82 -3.11 0.13 -8.9 -9.53 -1.54 9.21 1.3 -1.31 7.65 6.98 2.96 7.48 9.49 -5.88 9.82 -6.84 7.32 9.63 0.69 8.64 0.86 -9.11 -1.08 -9.56 4.79 -6.15 -0.11 9.55 2.87 -5.85 4.47 -7.03 4.35 5.67 -0.52 2.53 6.42 5.67 4.08 1.24 0.67 -6.59 -6.03 3.01 7.39 3.59 9.52 1.84 -1.32 -0.58 2.47 7.71 -6.52 -4.44 -6.66 -6.08 5.78 -4.58 0.99 5.93 -7.22 5.62 4.61 -3.59 -3.7 -0.46 3.51 -3.52 -3.27 -3.77 -6.37 -4.52 0.95 -8.73 -3.84 3.15 7.4 -6.65 7.1 0.86 -1.93 -5.54 -1.44 6.93 -8.64 8.84 -1.65 -2.07 -0.64 9.93 9.01 -0.06 -1.06 -2.16 -2.4 -4.82 2.46 -7.3 -3.16 -5.77 6.18 6.16 4.74 7.81 -8.66 -1.99 -0.85 -3.45 -5.8 -5.5 5.57 -2.16 6.06 1.05 6.92 2.84 -3.32 -3.23 8.8 -8.88 7.08 0.81 9.63 -7.5 |
0.05 -2.53 0.74 3.14 9.92 8.14 -6 0.85 9.15 2.59 5.29 -9.77 -1.6 7.5 -9.99 -1.48 2.15 -8.42 -0.87 -1.76 -7.16 -1.81 0.31 -3.56 7.79 -9.87 4.44 9.32 -7.23 -1.31 -9.78 -4.68 7.01 -7.86 -7.48 -8.89 9.61 1.64 -3.47 5.67 2.34 3.99 8.71 -2.19 -1.79 -1.28 -7.47 -9.76 -1.03 8.67 -3.33 7.76 -1.97 0.93 -7.73 -5.28 0.45 -1.41 0.61 8.81 8.53 2.35 -5.69 -6.53 -9.75 -8.7 -8.48 -9.42 -0.71 1.29 -4.01 1.91 2.6 0.45 -8.44 -4.93 -9.85 9.37 -5.83 3.07 -0.33 -4.16 -1.3 -6.04 0.16 -2.13 -9 3.53 -8.11 -8.78 9.59 9.03 -7.65 5.24 -0.32 -9.57 -8.62 -1.75 -3.76 -6.87 -1.44 -6.85 6.07 5.9 -1.01 -9.18 -0.94 -5.93 -9.24 4.39 -6.29 6.92 -3.3 -0.61 9.22 9.5 -0.01 -0.93 3.79 9.81 |
